0.0,0.0,0.0,0.0,0.0,0.0,0.0,0.0,0.0,0.0,0.0,0.0,0.0,0.0,0.0,0.0,0.0,0.0,0.0,0.0,0.0,0.0,0.0,0.0,0.0,0.0,0.0,0.0,0.0,0.0,0.0,0.0,0.0,0.0016201755157538866,0.010115697065629113,0.0064350215219037025,0.024490489861474243,0.023494210468469487,0.007626143660013034,0.0189230394599191,0.02323014920815418,-0.010731469347555164,-0.014963647877064433,0.010767385724533238,0.004144447755656309,-0.0036272170125864604,-0.0052111658571733855,-0.008921933536725305,-0.0012069228174747557,0.0,0.0,0.0,0.0,0.0,0.0,0.0,0.0,0.0,0.0,0.0,0.0,0.006861586457831372,0.006177012624313978,-0.007283123300254871,-0.027726377749775932,0.005176756264834175,0.046785852777997766,-0.00945442370266735,-0.02323359837634239,-0.04157607724319396,-0.09558085480612251,-0.1009876952414781,-0.1131174867023899,-0.10523722377249368,-0.0721387659228998,-0.08129050273524645,-0.10519032472744269,-0.06642527354785205,-0.02885398907541894,-0.01889581124029715,-1.6420178399447998E-4,0.0,0.0,0.0,0.0,0.0,0.0,0.0,-0.0042941067131702475,-3.6358865765250274E-4,-0.002076971019725015,-0.030528023848535,-0.04283154122317219,-0.03983841957584409,-0.0035027039418245617,-0.03240306200692345,-0.1108243146978355,-0.1344748839118635,-0.08311805184234451,-0.08143087868880639,-0.11951970094140447,-0.16406024095888128,-0.2072557712428049,-0.21888665440199714,-0.18903091992748375,-0.1112436264869418,-0.06988748650284461,-0.055424755596858076,-0.03309356264444913,-0.004300996347764993,0.0,0.0,0.0,0.0,0.0,0.006933715816281839,-0.008772654990235395,-0.005653318980531035,0.005804458315705552,-0.03642227163105165,-0.10878361811171193,-0.17428331567689542,-0.08185169991004483,-0.07998116864993154,0.037239036564757334,-0.020673601255215494,0.022492686277199386,-0.011944582029770752,0.029572323912420376,-0.023388257655495348,0.0740358983471861,0.01312938999704857,-0.053583154198502986,-0.06606504180989393,-0.014809847912987785,-0.07737629306793643,-0.0483537382016091,-0.0045455465453970645,0.001120407001882235,0.0,0.0,-3.7031250120010326E-4,-2.0034196167907246E-4,0.005996366228175821,-0.0013008653293293544,-0.054568744271819875,-0.051277448833591664,-0.12093445522330956,-0.09004614714744108,-0.08996401533180318,-0.1265197228964034,-0.024008073560338548,0.07627632867610308,0.027830193860243827,0.16420950248691724,0.11118106760558487,-0.010071756399292591,-0.012869162736734732,0.043208892336747205,-0.03939613891644828,0.04264843942549268,-0.06491490066557125,-0.08150530456959261,-0.1931686811934602,-0.10397506095792708,-0.008177979730524363,0.004064079463976249,0.0,0.0,0.0,0.0018932407554108912,0.022096239168041844,0.04213573033384826,-0.018767907095642616,-0.029504754520180584,-0.05932979183301267,0.0572969216442455,-0.20736129438053913,0.027562037411369863,0.08395933892434003,-0.1825501236850743,0.5096245773646663,-0.06352144153418864,0.0675165112789024,0.06695740071906252,0.19039162372213125,0.00963783318520958,0.014887758892960698,0.013622388329940264,0.006164187817771608,-0.03970302189860511,-0.23627896882887053,-0.19333300882432283,-0.0756515816247024,-0.032203132079292734,-0.0068244147232585615,0.0,-1.9190808360504776E-5,0.01683159187352626,0.019952240561080036,0.006849881444362836,-0.01682547620226364,-0.010763805200539349,-0.011253337078813524,-0.0029068344461773725,0.025504041165094676,-0.01396975550328471,0.10203827674226146,0.04794083129483615,-0.2348913264395696,0.2479414369885445,0.25292842081671724,0.02959546916838879,0.04423950988787977,0.16486999995239845,0.08054529170871541,0.05145531630067513,0.09723216309445841,-0.011253991788241557,-0.1814629941502108,-0.254124590589794,-0.16428019384021703,-0.05754783160796866,-0.0029190225340998232,0.0,-0.008738271183367114,-0.0088289022990663,0.002934476426272774,-0.021703023272913666,-0.03362872710086739,-0.03356942376222487,-0.03912357515849235,-0.059161386146032655,0.0054084389517075025,0.04426907450089913,0.02574040169917641,0.11568867991811935,0.10830248755279799,0.21477067999286273,0.0730327918746439,0.13868805917899596,0.16648175824716924,0.051778652932113874,0.04512772737476497,0.0661081042257461,-0.044505123899558005,0.05985212252954461,-0.11991102487604595,-0.33924695582530673,-0.23013914883714903,-0.1286544683176941,-0.013453582858609838,0.0,-0.013185199395642288,-0.005764356995913096,0.0209201871531256,-0.07600973485490706,-0.045591381924240726,-5.862253520869335E-4,0.10052793506594045,-0.024566119826986376,0.0074845731902376126,0.05174462117751463,0.042515608088911125,0.046840863518468154,0.02991184290452121,0.04155484085319551,0.02438517079054647,0.2509519722118426,0.05074250143936769,0.18017777944150629,0.12522916959283936,0.1281440374031752,0.055202095770636964,0.10230455237355865,-0.05211268018962234,-0.326053275220796,-0.2533182198106763,-0.08722134571684784,-0.014995855660309828,0.0,0.004261407176545635,0.013629566907994384,-0.019908402595859277,-0.05599979850508079,-0.05304323133047353,0.03138249668488076,0.009753036503668468,-0.04052235266806311,-0.012129727124714575,0.0381219102402811,-0.01719317490340211,0.07903478021051082,0.057908867485922284,0.09213751135007954,0.08061706421302701,0.046941675761417764,0.09274059715000804,0.20458787942062656,0.1626629878080176,0.12230910212517668,0.0724993277517091,0.33877652049920354,0.1916765923338095,-0.17029441918187666,-0.23463485595505199,-0.10321263993761771,-0.030371150875271927,0.0,0.01119156648563425,0.017632232992628182,-0.028789183148032544,-0.05737328153043785,-0.08090337235530647,-0.01501560456288992,0.055643894603199386,0.02658690944695629,0.04477352153048364,0.05758610306994544,-0.04244203028804522,0.17569710299575075,0.028375942829265415,-0.046069626703766395,-0.10197192203563564,-0.0911711097739576,-0.09475358638387099,0.1012348951311786,0.018605336090041894,0.1884457512361373,0.1216506582491988,0.3744477824524051,0.4186032751881826,0.13554375311758182,-0.0923586470560973,-0.048561777435070085,3.8681532084434175E-4,0.0,0.009750994948652307,0.010088321938787772,-0.03549035243959325,-0.05984504392855235,-0.040355870819149736,0.10601155828702961,-0.2303872169203188,0.06918374452562565,0.0572163780148527,-0.06531036518272082,-0.014826344476567414,-0.1432128822786962,-0.20817328998163662,-0.20233891832105932,0.021761380777744487,-0.08661962937265887,-0.10095742925115896,-0.020975933315947385,-0.09887838787286814,0.07077780444768832,0.08424507993349892,0.29385270416414877,0.5205771441819603,0.2509654918502623,-0.04402074636262889,-0.013199760736080736,0.0,0.0,0.0024775020846196996,0.010688576927365287,-0.03251712811926931,-0.025282880954547775,0.026227066477465966,0.11162881043208579,-0.11145593919728473,-0.024620140857114566,0.1727834910896025,0.132477458965563,0.044796269364650025,-0.12678605113073158,-0.1569902338486764,-0.04869298773657228,-0.2513169212242528,-0.10318933357836024,-0.15400512151928825,-0.3152846485675347,-0.19116319626041764,-0.038907903386431665,0.07690854083858166,0.2741965662055801,0.36784518343433775,0.17311055044623552,-0.06739367302340665,-0.004929684598915345,0.0,0.0,0.0,0.010726570584720178,-0.0023841270576598975,-0.006801980130456469,0.10416073968667965,0.04055990288831099,0.4653977956213964,0.08276734525038007,0.10881791801986833,0.13813257149759886,0.15847947422127234,-0.3135122263556657,-0.14314824718780286,-0.06902075566957072,-0.05541589465185861,-0.31846729772116783,-0.14077456206935657,-0.14760308594384136,-0.11944612239639352,0.2671992317534044,0.21999053042412625,0.3784494552369794,0.25172931995194037,0.008833825437121698,-0.059215441571486394,-0.001271728446855408,0.0,0.0,0.0,-0.0038347295756021864,-0.041961852302502135,-0.09122820510742465,0.1729751111425943,0.0775560940041202,-0.022317617355234326,0.1086910864491292,0.1689632426423203,0.14018492441887753,-0.0415688155675998,-0.1993766088264816,-0.18243648547261715,0.05462866576609365,-0.08720710475586993,-0.13264440123201512,-0.23439880321785114,-0.2190337835498296,-0.05882436550426578,0.14207422315259766,0.051634029397954403,0.06444151720912238,0.14019856264978353,-0.0014112379723442542,-0.004155221957380005,0.0025525479761432904,6.610610254801631E-4,0.0,0.0036612297452484855,-0.014702352214835231,-0.09071205144576083,-0.055233391077327526,0.2608305480434961,0.128530533419723,0.0910430707845158,0.12692786845112505,0.10100892619993396,0.01501592099288781,7.287455547111733E-4,-0.15724407376623772,-0.042328777329782755,-0.39830736241221804,-0.07108682889219553,-0.254996740515908,-0.13325567325330792,-0.06556654333656947,0.1217775796414516,0.1440896856741304,0.05800356685881084,-0.0749291548327985,0.039435396414256384,-0.010347233543789585,0.00892837661737681,0.0019042862380958816,-0.001663710072867962,0.0,0.0,-0.0036347956369732638,-0.1263905725802595,0.010825232145269092,0.21991013188509442,0.20000519603516564,0.20389262567832356,0.06344192419646232,0.10946815684243234,-0.03955289237020035,-0.008935757369162826,-0.12658795001387688,-0.2165257684241709,-0.10856427558234985,-0.1464085922877869,0.025152234347078823,-0.042870836394305896,0.011472046144559715,0.05461064000073093,-0.03374786613954132,-0.07397654314676294,0.005238259561406298,0.1039704827544402,-0.05686237350091605,0.03545297307107854,8.180231826186271E-4,-0.0018514507063072346,0.0,-5.805613803517619E-4,0.002161574093721889,-0.14676035727211528,-0.030986235626546493,0.012386633649378656,0.09700208586681251,0.18190595396956574,0.11091957971570421,0.028745182158934852,0.057338025966878044,-0.19274715699632194,0.03876761787065285,-0.04720810662729145,-0.06826386427598025,-0.015433659142905355,-0.15617327397794709,0.07072573964486181,0.028184415436081325,0.003389487051603116,-0.07470009283659018,-0.088198868509513,0.011127568007433884,-0.006759639271470593,-0.0771053551637413,0.019729071613004048,0.009622467703984125,0.0,0.0,-6.910184843927249E-4,0.010877327283679588,-0.17792182553411193,-0.05118109593376325,-4.3532169739022566E-4,-0.03681539587627353,0.05945382714340189,0.06018827568804279,0.017578761787210673,0.02196518855046406,0.10869501379412645,0.09069001630580412,0.04763147038664884,0.014509191830821016,0.022128606409905324,-0.03254715946322005,0.014813121977613223,-0.08935317226488747,-0.07766484219199485,-0.008754087955903772,-0.03612773940543161,-0.09029006821126095,-0.019031439937313818,-0.051138891575287254,-0.0033054038863210493,0.00364049966212794,0.0,0.0,-1.0616824088815947E-4,0.0024402213521532634,-0.1446725479344997,-0.13096300662040378,0.06061224824684383,-0.04754932035708613,-0.03060653354535503,0.0950329503801294,0.011883044230044085,0.10899165925286576,0.038424535526868094,0.11246777956805017,0.06471619141260164,0.029752174288300084,0.0698807679656477,-0.09831330449983261,0.03586921205492479,-0.010021339589594542,-0.058080588043629575,0.023714995737839816,-0.033707527608538596,0.025585644030677902,0.024059370741032086,0.02656294786725671,-2.243389638426629E-4,0.0023768426834014597,0.0,0.0,0.0,-0.012474093395585677,-0.08263391196436552,-0.1718323389086364,-0.09863839780684619,-0.025082651357604256,0.02445626969710599,-0.05277109280569892,0.2171324182659558,-0.029734775247455898,0.04692873699096849,0.06972050449840081,0.0564290064563211,0.016617504216164466,-0.07584157820163437,0.12122966762145676,-0.026598932208508258,-0.03868958097000184,-0.018129167278711805,-0.15835241644760437,-0.010330998785608992,-0.003227895426377932,0.010204737954006716,0.028161209200063132,-0.004603924358063328,0.0030240947850424323,0.0,0.0,0.0,-0.009469720482723007,-0.06539791785446036,-0.1606942338298497,-0.029166958164922454,0.0023184522877223875,0.061064673958411565,-0.018093019534718407,-0.04548314977035173,0.25759523189736877,0.05139883293258391,0.050319020723981624,0.07551187295708293,0.2649493627716643,0.09795145266242442,0.11697106164030213,-0.04872570972665414,-0.04606496401892238,-0.0720322174908881,-0.028472053674882987,-0.03491914403733188,-0.003388134361758734,-0.022808258605383613,-0.010141872536852161,-0.010832153504668289,3.288142801660964E-4,0.0,0.0,-3.6943577471001434E-4,-0.0034048068044033003,-0.03393934158448103,-0.08524765344724604,-0.039551791201153576,0.03282189085486707,0.0326188653672193,0.05078188046791808,-0.09481816415970819,-0.02278251040562338,0.1716855456712938,0.026059394220696936,0.10428059670325267,0.06676286170093802,0.11994410553070896,0.18678521451360625,0.1095616306824374,0.021975798213700402,0.05321671946387069,0.06849651677079861,0.005743899377811866,0.0468644104387169,0.03767895298884997,0.00897953714716746,0.009158397706728376,0.0,0.0,0.0,0.0,0.0,-0.009986042598811229,-0.029107251936268497,-0.0300497735740959,-0.06126966667194011,-0.11469907056542412,-0.17304777563754073,-0.08205185709295591,-0.09002794269703687,-0.18574484607426303,-0.08366468514914531,-0.09064809374066012,-0.10165667107565525,-0.1007346991078505,-0.023434753837191045,0.07715686738654357,0.05966607588508081,0.07399551366494976,0.09000275354056404,0.01627773744501141,-0.03336928233005952,-0.008345429300263791,-0.001771469033038047,7.438005010648891E-5,0.0,0.0,0.0,0.0,0.0,2.2394402902560214E-4,-0.01892837467804145,-0.03989023262379659,-0.08501879071362049,-0.11794568311834136,-0.15766704698862646,-0.1958096659836264,-0.21467457080813263,-0.17157295825461896,-0.16590263173076772,-0.09218838979342217,-0.03359293271835904,-0.09660443428088449,-0.04576435855417215,-0.046421613550417046,0.02879118125958963,0.0021911064837355403,-0.007403745429915182,-0.019929272914180313,-0.03644021272081961,-0.010766964942484667,7.433713866047423E-4,0.0,0.0,0.0,0.0,0.0,0.0,0.0,-0.0016926665942429205,-0.019994218824890456,-0.047614867320081765,-0.07006585773388803,-0.09945833751952074,-0.10460282670190808,-0.09729182697921772,-0.06844018747744487,-0.09116175020702273,-0.1346521225118658,-0.13097755237635145,-0.10071436421757236,-0.09112010004338605,-0.08174650418691144,0.011802416003801218,0.04667936214093826,0.02127209779654758,0.011670720331684308,0.0029224673527675814,-0.004468358523791789,3.8764600565339115E-5,0.0,0.0,0.0,0.0,0.0,0.0,0.0,0.0,0.0,-1.718359045940614E-4,-0.004347960329658342,-0.008291502793200123,6.399076729361499E-4,0.00288829214319175,-0.011858846877004206,-0.03031501768689586,-0.033398955313424315,-0.0743791142415903,-0.04314749652702539,-0.02817590988161194,-0.023249413693504282,-0.010457686093737342,0.010371854692749831,0.007988996249482285,-2.585853409445679E-4,0.0,0.0,0.0,0.0,0.0,0.0
0.0,0.0,0.0,0.0,0.0,0.0,0.0,0.0,0.0,0.0,0.0,0.0,0.0,0.0,0.0,0.0,0.0,0.0,0.0,0.0,0.0,0.0,0.0,0.0,0.0,0.0,0.0,0.0,0.0,0.0,0.0,0.0,0.0,-1.919231999789967E-4,-0.0012689740087641862,-0.0010315209717217124,-0.0021560420510900145,-4.166264563056883E-4,0.007055657697299586,4.423001142217836E-4,-0.011702511514759477,-0.009132125109690019,-0.024163676175375255,-0.013787759720587907,-0.001853335861137807,-0.001718670573880492,-0.004373286341459906,-5.673035160203839E-4,-6.814247582271056E-5,0.0,0.0,0.0,0.0,0.0,0.0,0.0,0.0,0.0,0.0,0.0,0.0,-0.016184297961418924,-0.031204073872103735,-0.01994741447839487,-0.0135239428472972,-0.010565839542733518,-0.01005004391488019,0.06981435730536295,0.041630192770936054,0.01775693428142554,-0.044671605045236366,-0.014576134367829202,-0.0046536175186557595,-0.02823230546968464,-0.04601460210476282,-0.0553769118691764,-0.0371327878623296,-0.009120189265971222,-0.006460235813074732,0.001116199953221778,3.437303579095559E-5,0.0,0.0,0.0,0.0,0.0,0.0,0.0,-9.659061126106375E-5,-0.006367196478708319,-0.02345471973786001,-0.029792860327874184,-0.02707535459525613,-0.0010178908467412926,-0.007095600291127297,0.010823147648300849,-0.13658649444229184,-0.07750462115760631,-0.010755695011240053,-0.07188026711875257,-0.05716577856415856,-0.04813582136786583,-0.12751431705397293,-0.13584652060675104,-0.14399566322204857,-0.11862783247415387,-0.03734897175257228,-0.018266483472471395,0.00120175130982581,4.1313861169119906E-4,0.0,0.0,0.0,0.0,0.0,0.0038111112482864494,0.00922059526531036,2.315586289873023E-4,-0.03402115619014711,-0.03916780962613662,-0.03505068959764497,-0.07574142496533585,-0.061962855340938976,0.00933709692730382,0.06453664353832954,-0.04755095289373535,0.05451344459347344,-0.037739500444947,-0.031954039141235964,0.1113755574660869,0.10267009898246025,0.08052608025463905,0.08483923792025502,-0.06695406847003288,0.04253239106404834,-0.05918709968576891,-0.03323904015455596,-0.009895387352102282,7.98422825950442E-4,0.0,0.0,-8.97366041566318E-4,-4.888937638341558E-4,6.499051788332827E-4,-0.0025299792365557033,-0.019210461624474987,-0.026437366316541297,-0.04449592607854879,-0.11157371013642092,-0.2166167233082557,-0.15046961715994278,-0.09364000422181278,-0.048608853853564754,0.08853579563478274,0.0061972099921722,-0.032046850840921286,-0.012667692544089863,0.0887116093205561,0.02086536754661711,0.18676547336394014,0.13340543363704993,0.0123728566722359,0.13931973502623582,-0.003632669442966024,-0.026613971990697642,-0.009476434748505808,0.0028294347557993875,0.0,0.0,0.0,-8.633619392555584E-4,-0.0044883521502661105,-0.019130573359549697,-0.01987381888725473,-0.06024139859462657,-0.05597191225861377,-0.132231385306701,-0.1800343980182139,-0.21264013331194312,0.04457986069214336,-0.08321144377047351,-0.00784668149959873,-0.12498651700158674,0.1263324278553782,-0.163799991660471,-0.03829496215766808,-0.03358422336627307,0.11356953508666594,0.14589752588624122,0.09863169695498254,0.005669881029237363,-0.07291862563169947,-0.056630224072634,-0.02767637546736715,-0.005431861546949621,-0.001672842114834517,0.0,0.001404557474860758,0.00294184009817831,-0.014798691464215318,-0.032546319754031744,-0.04174144706122032,-0.03626505428753226,-0.06305895831100591,-0.10063524324273757,-0.09930005347345199,-0.2222457624793866,-0.03348322497782677,0.05723055322637087,0.03977002514298063,0.009950734309499764,-0.03994078606901696,0.04980007409131303,0.04336074563442752,0.10219203156322744,0.133525261582853,-0.03748884255223384,-0.07451957368067759,-0.053391329769882555,-0.018113918563472754,0.009564103328344519,-0.019582456641554336,0.003127271636199601,-0.0011980137913754742,0.0,0.0026301251524907974,0.012008769037556216,-0.01309131229149517,-0.02713868975100471,-0.012424263787624191,-0.01517972219151445,0.008275687819630057,0.004924162293467458,-0.04389861908592092,-0.08235945498259943,-0.0967036844979988,-0.10190126621174338,0.11066694964899099,0.09622886338766638,0.03018708406501306,0.0017627239299124369,0.12066464348369582,0.040370960578109606,0.014705639580122285,-0.04181583890399477,-0.05675467393221109,-0.03169989866516958,-0.05128514971435973,-0.08854970346457045,-0.008784834099317122,-0.004507109451892846,-0.0056535999556252495,0.0,0.0015071205503384545,0.017994215213987436,-0.017852209693977664,-0.04199190442491521,-0.04113910703303952,-0.015940916367521395,-0.05212252325266505,-0.017777623955850065,0.014153000035889372,-0.06811617693863382,-0.11438679251548294,-0.03020850576413976,0.10619220138077023,0.12020911071884118,0.02299669395666081,0.26610014302401624,0.014858458351940433,-0.0703357780873695,0.061833349003507905,-0.11591728857278677,0.01690014762786219,-0.1081334652050445,-0.07488638287495825,-0.11989761303857398,-0.0639315536775422,-0.020378667887533237,-0.006384291061229643,0.0,1.7618956011994082E-4,0.012536880263013613,-0.014071593312746624,-0.04107673641247917,-0.06063088719837746,-0.025542571797216695,-0.014552068293153007,-0.0013633340550892013,-0.19734053800807316,-0.06232286743745064,-0.21927322771985788,-0.12357360039991495,0.12462275011334648,0.24350944240803196,0.3350955061619246,-0.07100745335043804,-0.061653118177019496,0.05363862930558311,-0.03542553363014948,-0.08875406079003136,-0.05071750887491638,-0.043284367869961315,-0.03419052579709836,-0.09796153692556807,-0.07656987848623174,-0.04200285733467569,-0.01071841587089749,0.0,-6.885778170266562E-4,0.00794550599002697,-0.022805385697306342,-0.009552414391474903,-0.04068689547655302,0.008718430244425247,-0.03589336337787272,-0.04704562332644157,0.05262747250348298,-0.020782568591810872,-0.20853105869904404,-0.22510751813433047,-0.030515903930143334,0.4948021612528945,0.37641491880982125,-0.11611119491846879,-0.07159503937442926,0.007151092536591308,0.09503000021713166,0.02999657071754012,0.056135406107414874,0.013400774695409816,0.04488777018276162,-0.048840491680911265,-0.09137784881302076,-0.05294449094244785,-0.009074486712187862,0.0,0.0020950358424162673,0.006708833523184087,-0.01667724467050954,-0.017677465695932627,-0.01636759702527635,-0.02421832659361002,0.030289575601981398,0.059743833942206094,0.02717365578714189,0.0706872273948296,-0.13864937400020094,-0.2877100626863267,-0.005029764661374361,0.5211203475549333,0.16664100270702634,-0.23447642439356975,-0.1458608120095964,0.024769132519182068,-0.08062728207701708,0.02213150339725871,0.06095421981890839,0.05068465628379902,0.12892337512035315,0.02684313680262972,-0.016058738067914066,-0.007966750119560665,0.0,0.0,0.0023167434509026048,0.0015602893067675717,-0.009011433983462028,0.007646449532816436,0.012174215184728155,0.08750186400671282,-0.005631150728574517,-0.029324519620968912,-0.05436670865136744,0.04415159988012947,-0.20850266299081502,-0.5224305241836145,0.2348632493263053,0.610496968715108,0.22673184801303617,-0.18188920058449554,-0.1747829239846011,0.10869812821287268,0.036570505557199505,0.039590968754514407,0.056594432182876485,0.06064042943066884,0.13574585837964828,0.038680134104420984,0.0017333094229230097,-5.823169116106938E-4,0.0,0.0,0.0,8.2155534940668E-5,5.062354244256947E-4,-0.0026287126927974037,0.05435863982454033,0.007618552541077502,-0.01159505989395745,-0.024161604739831456,0.018151414476668255,0.02777135585832995,-0.24214356115263738,-0.2918747014351409,0.35806977179862837,0.3045470102960746,0.10023164201600669,0.03146245514298276,0.07295070149911652,0.03264081811825187,-0.008914522239651156,0.07990853360123673,0.04374777478905243,0.0894609563096681,0.05846815060835902,0.002497139656692265,-0.011327192906925984,-0.010315530277878232,0.0,0.0,0.0,-0.0017056045203258806,-0.006876335823546404,-0.012544202771478597,0.0017187126783283595,-0.044550751222100116,0.032347230222266744,-0.013343292034170205,-0.00979872841499436,0.001796742018595536,-0.3199927869216144,-0.10753248595160043,0.3411843461793075,0.0947891529168076,0.015739770610989322,-0.4064755943363708,-0.23338285913050463,0.1145861007982173,-0.07280438828829874,-0.0018648348412137758,0.04194018450777418,0.0036330811367060022,0.018696936104245363,-0.05002896295461718,-0.05497661164373744,-0.01871031540314526,6.253723870184589E-4,0.0,0.00103196866720426,-0.00860698258043735,-0.01891648924407955,-0.009792237049596959,-0.05252570523202952,-0.0099343485251436,0.06923324706908074,0.07842503709641435,-0.04102406439216036,-0.1271411859911824,-0.09569579460118709,0.010330365175609172,-0.031631683579769705,1.1028620411759327,-0.22791849286640942,0.10454090167292927,0.031699519008003836,-0.001276781908922846,-4.7287965977088864E-4,0.004178686580973024,-0.0129068475854321,-0.04109931828186912,-0.007685000022983455,-0.03823713726790459,-0.07503408162327455,-0.0030783918006084703,0.007312979375241674,0.0,0.0,-0.020282332891366512,-0.037755308753883984,-0.03418280921143746,-0.02000525015578102,0.025723242683022184,-0.05859677830145378,0.03751923862586707,-0.15219236350586,-0.12181144712717286,0.024342623399819106,0.11645598418804916,0.08939005513062699,-0.14092375245223468,-0.0295960627227326,-0.020466417628370464,-0.0866726271627247,-0.05783087155199886,0.024584638511863672,-0.022879073663024354,0.06783369933647605,0.0013802577892821708,-0.02032728362546974,-0.11254642839307936,-0.043213117928394065,0.0019191058072337993,0.007051295472016501,0.0,-0.00492969093171631,-0.02457477162117273,-0.03613976928679724,-0.03270963855475917,0.025641951720887613,1.9703445042820703E-4,-0.10674450887376287,-0.008390373472114644,-0.036761164075808955,0.002789466924218023,0.08141845272507747,0.02897948998546893,0.5558255825473688,0.1267402234459141,0.08170010420003501,-0.11482276889039045,-0.09774807713691072,-0.08659534875344026,0.10596407524049319,0.02299881627456671,0.004137972380770709,2.736468681083413E-4,-0.037939398523721315,-0.043722370482869095,-0.03105255879071338,-0.025496575161127775,0.0,0.0,-0.009894639689985833,-0.017941990723320658,-0.016023849488529664,-0.06499407885403605,-0.07589766522155578,-0.07444261852928613,-0.12325367831019808,-0.038225490583238486,-0.12162527627569382,0.04168268487170729,0.036624962057816575,0.12065978411452472,0.05884459447685099,0.06757259200532444,0.0698440960381655,-0.08586205272281718,-0.11839639691095001,-0.09477320114419072,0.03328010127288573,-0.09746358476463703,-0.058365363745394395,-0.08332240723280801,-0.08549109182041183,-0.08922706568019857,-0.026028146669508565,-0.013037736646317565,0.0,0.0,-0.0015339546444073013,-0.013724913429365292,-0.013375533084112767,-0.05967582878052992,-0.13968562161302744,-0.129913355833558,-0.0958813518650975,-0.025793021563064532,-0.006551603044734949,0.09304310588489112,0.05837182506236992,0.031448905663263464,0.085683166436316,0.11506107458229217,0.09630762553656068,-0.037720560127039296,-0.04703860441980746,-0.06530181566584173,-0.13339121905722215,0.036122847219569,0.010371074618979265,-0.11258891086057052,-0.05389449807845622,-0.036405061096706784,-0.006456373636174322,-0.0019051003203815861,0.0,0.0,0.0,-0.026560589174733654,-0.007444363787808915,-0.09397885946492969,-0.14977821682835726,-0.10235710152781072,-0.022716905362963818,-0.053633557685731935,0.07855100070161698,0.07510722487119441,-0.05849655695131762,0.0013161945349990896,-0.05899095719859809,0.13923565229246154,0.022053056478720166,0.1306449151106854,-0.04618490793890037,-0.06647476713907247,-0.07865043509521874,0.003532073177152898,-0.04049215522637892,-0.0783450287878779,-0.0259964443029845,-0.025724864737905813,0.0022404631705966165,5.860856910858276E-4,0.0,0.0,0.0,-0.018109054620939688,-0.028288236732637747,-0.10280731769868864,-0.12091892537513625,-0.05037778282459073,0.07292423650239924,0.05521399116688737,0.05187160494102832,-0.048572470832630214,0.007745869342620861,-0.126011803435892,-0.04733257089138437,0.061533524639468526,-0.0626589359574478,0.11594068826199282,0.08722032421753907,7.819488182325178E-4,-0.04781095814492094,-0.04122165486459526,-0.016075578485313505,0.007103738715429076,-0.026521291611150227,-0.030679392193638324,-0.010443459282428203,4.792373742008994E-5,0.0,0.0,-8.753701986973946E-4,-0.009389700176084776,-0.027640060197623762,-0.08497295215357155,-0.0011461106490962517,0.1145200439590336,0.2700266029788321,0.04244581895498941,0.035731927370784115,0.09816418240002565,-0.03041755543013945,0.1031467322933669,-0.04325484685648142,0.0235282887895346,0.266512185713583,0.19019874298828993,0.265636809216013,0.0795849269650964,-0.020190900507401414,0.031922740723969625,0.02905990761349817,0.033381467954196976,-0.01867331572747205,-0.002407231290701225,-0.008503631091923588,0.0,0.0,0.0,0.0,0.0,-0.01051538883053752,-0.07153718159649841,0.0012279216341017842,0.013157727346953906,-0.08652361676294994,-0.1261649513492347,-0.013012414891993566,-0.09413900493315615,-0.1784099223506138,-0.15813804574913842,-0.07779645427731266,-0.058132028461888856,-0.117975757158318,-0.12177695638422643,0.05041204304887471,0.1405147425948832,0.06163361034962328,0.07008513938507045,0.021829875162336775,0.01253663254554144,-0.00550504219647942,-0.0038291698337395044,-1.667473679442184E-4,0.0,0.0,0.0,0.0,0.0,2.380757146520275E-4,-0.027138160139963154,-0.06937839420743565,-0.12064563427152793,-0.24278000512510176,-0.2717676416936297,-0.23045450227048386,-0.11377571374450114,-0.05275271080980379,0.007880211993947126,-0.09734710217444952,-0.07792702202165784,0.01442789997820078,-0.023635426733719753,-0.034253834087343796,-0.002832815176712605,0.012863753188705316,0.00935574326577463,0.0032441254135559755,0.0019799127586913206,-0.0013992436491994315,-4.3133198857453074E-4,0.0,0.0,0.0,0.0,0.0,0.0,0.0,-0.0012431186784936303,-0.022822562064908538,-0.036690014382728425,-0.04278465504008273,-0.015314811353468571,-0.010124284823285699,0.025657288108048744,0.025538604902457095,0.07172875646182497,0.08910524690650808,0.09219962988797906,0.004919095882987355,-0.03159372393466209,-0.027155016197637317,-0.023406423364224157,-0.026809902291522948,7.623328235676233E-4,0.009122236425155333,6.558558697825048E-4,-0.002339231835063604,-1.0512028435856196E-4,0.0,0.0,0.0,0.0,0.0,0.0,0.0,0.0,0.0,9.554426184474743E-5,0.002633485712115353,0.012509658466018878,-0.011074746090863808,-0.00855629786993451,-0.0174700180335966,-0.008304759175899568,-3.85121204426502E-4,0.008091629045652976,0.013085546377454512,0.012148237712160824,0.007074371026579675,0.005029647718870797,0.016932399196324915,0.010594312313568121,3.0357552851978946E-5,0.0,0.0,0.0,0.0,0.0,0.0
0.0,0.0,0.0,0.0,0.0,0.0,0.0,0.0,0.0,0.0,0.0,0.0,0.0,0.0,0.0,0.0,0.0,0.0,0.0,0.0,0.0,0.0,0.0,0.0,0.0,0.0,0.0,0.0,0.0,0.0,0.0,0.0,0.0,0.007294972305858697,0.04558958601573156,0.030550863054443225,0.03821417875048393,0.01911905261776786,-0.011809306458740334,-0.03645621862356513,-0.046819997535803286,-0.03417610715930049,-0.024533432565265,-0.02050178571322383,0.001243313318998342,-0.009685446903732693,-0.02073732847889825,-0.01329041642417801,-0.001775826451051187,0.0,0.0,0.0,0.0,0.0,0.0,0.0,0.0,0.0,0.0,0.0,0.0,0.018170657817445906,0.06959588382924121,0.01795669307428716,-0.028776058961354486,-0.05828447525438155,-0.07509209687328688,-0.08979233927927521,-0.10612240444019705,-0.30168123113101536,-0.33631619233106075,-0.2178489838649536,-0.14796296958389765,-0.17656808899999543,-0.15932807361685525,-0.09935853463154178,-0.09681008951136244,-0.07618855556543463,-0.045185776520861115,-0.009196230275720975,-2.2747222721573605E-4,0.0,0.0,0.0,0.0,0.0,0.0,0.0,-0.001067693665958918,8.668884819041612E-4,0.015698335596547788,0.025516091288743402,0.00842889952016319,0.05666474071017682,0.04237333255609381,0.015329609989799948,0.2047827199897502,0.13727148156033195,0.05461509223333848,-0.05618965758670519,-0.0665113677624115,0.03179518382131899,-0.026309057356028658,-0.07523754733657387,-0.13253040399704377,-0.10133468382558476,-0.08499717052266488,-0.03460700707735346,-0.026302753051390695,-0.00363244629436276,0.0,0.0,0.0,0.0,0.0,1.6920115235257195E-4,0.014063663408725186,0.005644570449406066,0.018370638746298466,0.045176901382257335,0.06820403389835643,0.2189556117286547,0.22229710450192577,0.18210149983612534,0.23951098749050748,0.3914833883842971,0.13223498120423205,0.28513578609166185,0.23474718112882392,0.13559966311400917,0.02046925105682134,-0.08398280732470531,-0.05982594403512661,-0.11255968986532676,-0.12720158944687474,-0.07263950848075044,-0.034686356961583134,-0.009547101359910281,-0.004370035417310314,0.0,0.0,-7.37031959503776E-4,-4.234961822833017E-4,-0.001736007062877694,-0.02367653593086624,-0.08927161623626581,-0.05258822116077746,-0.026286793827745788,0.2717332710910619,0.2884104122701025,0.17522290226117676,0.13739549467191925,0.18695567008334502,-0.006297509237828721,0.3766219017921453,0.051636507744105255,0.09370749313937386,0.11663412602287512,0.08936130625976102,0.04339726131599813,0.02555090409510144,-0.0415598603680164,-0.06115361457007663,-0.006774602222498571,-0.10682161813987989,-0.014855891932584468,-0.0090495682248886,0.0,0.0,0.0,-0.001347062052251435,-0.03618365585106819,-0.062160713628278595,-0.09599020467633518,0.08661779421800829,0.09016158447330451,0.1325918591872179,0.06348909169809842,-0.017352550387407323,0.1131927082607948,0.12761114679934374,0.13660681660645843,0.08347687026236475,0.08980729462800853,0.07132617095152145,0.14310589128054033,0.04683751217987814,-0.06758420303557601,0.0746332415083082,0.08023823171241544,-0.010804918993856915,0.030343796781010835,0.025912748747505526,-0.0188008644604914,4.29578976860311E-4,0.00218240743128077,0.0,-0.0037656026522292145,-0.017365477343681233,-0.060499038268432954,-0.0378378855998391,0.11647506179905,0.12599359763066698,0.026984485005743006,-0.09531967859193455,0.29718845938442723,-0.1339129916626053,0.059918418675507956,-0.020396270335432794,0.047030603051183534,-0.004339200166157823,0.025602605996379868,0.03929371912766707,-0.00847131737283245,-0.037631049769833405,0.14629081574981853,0.07552274330544624,0.007388879245134582,0.04015744368348403,-0.07671289874343835,-0.05314219017135526,-0.012922888189998543,0.014824214650041714,7.221867588288838E-4,0.0,-0.010078185135767559,-0.027738712494807357,-0.017639520937014378,0.012304458418263817,0.05422115356499954,5.2612064281758793E-5,-0.053231167124038324,-0.04644383761816841,-0.2499057663063419,0.07712242888450159,-0.011280538009753786,0.003948340961680095,-0.046704381463620735,-0.08823767678367973,0.08845827296652428,0.02837346134842356,-0.023408520967025795,0.04170118186232197,0.04011694777162018,-0.03521442353053784,-0.09087028444842654,0.01621348526222197,-0.05300686601964929,-0.08889080542739913,0.025023594040376993,0.053525776776163,9.053975784213059E-4,0.0,-0.027511104200552305,-0.04680857801036655,0.019548704462972744,0.0494350421981747,0.07827730548959322,-0.061805221245528646,-0.10228611056649406,0.10010985975407309,-0.05792127994455484,0.02275763789745063,-0.19156151706844488,-0.02779161031301219,0.07232581042513563,0.1497591538335867,-0.04082093282327099,0.18550827910027598,0.04664233145009207,0.03583859848535235,-0.05472052302095801,0.24035744882521226,-0.0984021151030009,0.14183158562215148,-0.03906271377413791,-0.11128747800240164,-0.009585662876762704,0.008685298224151811,0.002795758540794477,0.0,-0.018942672937033462,-0.027211763278368224,0.019975733392391618,0.015555765731705452,0.015684280122276698,-0.03739935857372852,-0.0116923088648406,-0.1249490535407888,-0.004365573581202789,0.00888779548119938,-0.02384028319394892,-0.005307509763823307,-0.05165393616663646,-0.013951073343467324,-0.05105816436451071,-0.05957335473769849,0.058083719536415473,-0.035586704409594855,0.05038186080355439,-0.06873519022615233,-0.056562893818391455,0.016554193677734634,-0.08819277159618133,0.045305322105828195,0.054938665117005944,0.04067311555577513,0.013289009754504075,0.0,-0.016954216312104923,-0.028791202412441444,0.019097258962500144,0.00914287762337681,0.03436587267497631,-0.029145996890101805,-0.0778357835279294,0.0214392950578976,-0.09739223250517143,-0.1758113454585448,-0.0829243869849735,-0.12151604097922847,-0.319546983521517,-0.09943031291420018,-0.15669348957904,-0.1155392018859165,0.2882800102697142,-0.05410262714746665,0.00929663345432344,-0.0048012387918923045,0.13642117388226602,-0.10405699794321766,-0.11516203467075625,0.09851741339397647,0.09997172334556048,0.07202724131635177,-0.0013915950980212556,0.0,-0.015237499694134198,-0.02748494841234504,0.05111373395538267,0.01617761635954653,-0.07665345508406103,-0.038692747617529756,-0.0457205765253525,-0.11008178698928471,-0.09325064022146372,-0.17766696025356643,-0.3195454252178485,-0.3571141059989593,-0.1569447164359833,-0.4521033205398487,0.0061416895209875965,0.017023302079934226,-0.10427175364967078,-0.05762246576060932,-0.014159148530734087,0.05758722752653364,-0.1405477215077803,-0.11175255295203906,-0.14160805773633883,0.03771704047124464,0.014982905370826903,0.009688797990589183,0.0,0.0,-0.0025234412101287256,7.036285269964894E-4,0.09178714457770704,0.030620654632689783,-0.11103470458364254,-0.1524312258151364,-0.20525445848680537,-0.240514344059054,-0.01146982433458652,-0.31553275796613955,-0.0510523644726902,-0.14685885831503004,-0.11739160612740171,-0.05019491113397646,-0.1154006141798027,-0.008161032294515784,-0.02999714865982893,0.10091841480560088,0.1540165717205951,-0.02551043343877341,-0.06961867441136657,-0.2209316531763827,-0.1216357926920834,-0.08132998694731608,-0.05189769996569043,-0.00557500612554057,0.0,0.0,0.0,0.022272063161376903,0.03555111144262164,0.014885040388726197,-0.047060562252104456,-0.18790242380068276,-0.11525372413653918,-0.0510934538183834,-0.0604097787356864,-0.03830561919689574,0.027018449935942566,0.1036317223455373,0.019328758641818905,-0.03428140195231555,0.1383039248731949,-0.15179049015043364,-0.03672650014994355,-0.014389827771632557,0.005480910857090561,-0.22935860771836022,-0.1954033548714463,-0.26688196318855223,-0.31557898804854323,-0.17728291922245368,0.014337853103305914,0.016844843965553243,0.0,0.0,0.0,-0.005180717076622819,0.0392817834575331,0.04679715905779852,-0.0712623148064064,-0.018248389465152805,0.028736591125515767,0.008113960779976578,0.012675644390709952,0.005550191332751546,0.11373585624456728,0.10506232515544593,-0.012801624543973832,-0.009503095578297666,-0.18391941756117614,0.09022374572788362,-0.012571606091415303,-0.00687022758669655,-0.09369857414267134,-0.16750151334489438,-0.06466866322159076,-0.22663090343937722,-0.19177726974045511,-0.07431930436991346,0.22923947570773442,0.04050697152866338,-0.001848153705444077,0.0,-5.097656918417089E-4,-0.017030585093763893,0.014182490231122837,0.15026415050223402,0.007936436163257376,0.10352977907795857,-0.03409648874824064,-0.07311341688056794,0.089331188641111,0.03494091445275646,0.10917725132159108,0.08519134395072615,0.10598327964345185,-0.019441241576750024,0.006722823277317584,0.16024133140820604,0.08953397350120687,-0.029015546408968362,0.0629799933684193,-0.13464243849996013,-0.18036335017563188,-0.05008833841412019,-0.09334242367570385,0.2111187889061708,0.3766580425964807,0.02229103742702327,0.017739381659271664,0.0,0.0,-0.021121717135857917,0.052054268805414,0.15729464659056583,0.24130569381666214,0.1459492946772571,0.09148894131627604,-0.09680685594895135,0.03609403259606794,0.005398080592436292,-0.006464871737087539,0.20082034879286761,-0.04025050550192193,0.16938824743811556,0.19706490801247012,0.02356480177086735,0.023814513976055024,-0.09210913566879142,-0.10668947325385744,-0.11502485011192194,-0.03415530288835606,0.007878577433056737,0.175438162468302,0.3841444157571007,0.34188103914991863,0.04537703243847878,0.018830259962769297,0.0,0.016787411003051336,-0.00777818148785319,0.009745140156513217,0.12796882541882568,0.20491236703616095,0.28450405832655423,0.10177238788509163,0.23205172098019272,-0.008667596397412856,0.07305307214001858,0.16541521869653594,0.10240751061761835,0.12652931653702382,0.23174939519997262,0.24090558507777812,0.2616146071934903,0.0280416935747498,-0.008238970237935204,0.09503447849660486,0.13663824179814987,0.11376078658926393,-0.00250799269499967,0.3566956835440803,0.43607576710001694,0.20029364286649085,0.0672985569514485,0.0,0.0,0.034142063090279846,0.002594468637061304,-0.06459067386984765,0.04984947280213478,0.2657498297309288,0.13367404442904626,-0.05638523722850318,0.5550869898229042,0.007982027988387848,0.15716084856726992,0.09909397252787312,-0.08047034352877917,0.3205196791554315,0.03673423868022432,0.004926611094083478,0.040047786934555234,0.158785336300372,0.11398161067719184,-0.07269618552958863,0.27151343219467683,0.17886672872008694,0.3536871977978781,0.4749067275548567,0.4033408587467922,0.15157273224525497,0.0358127172576742,0.0,0.0,0.004774021004032625,-0.03236139817222894,-0.09692403394692192,0.08092451272709617,0.2563810155230115,0.14058295075159713,0.21170256480776048,0.02075342921462701,0.1276777697386765,0.06367275633324523,-0.024327780168054106,0.0058100189871864594,-0.07953783580198576,-0.05224050126881761,0.02493059729884126,0.13510966436223396,0.09078341236317364,0.2542235065342933,0.025430213144771296,0.25230554430347046,0.18004686716269902,0.43178656188235615,0.4016383775695808,0.2628325388092531,0.08089126919522573,0.01112602084443639,0.0,0.0,0.0,-0.05806376535025142,-0.08090700763005775,0.14307123746467004,0.29334909676982784,0.21397119524264743,0.2185393494945793,0.13712815798632724,-0.1691489715063557,0.3807101807591636,-0.305548961590142,-0.020073937645383243,-0.15678703942440989,-0.09915398023853415,-0.09697685675523325,-0.17292904125494743,-0.0022846477310665527,0.12623453494027112,0.1775666929252951,0.1478181368538596,0.12276902445453468,0.24997897335891606,0.28379717676499217,0.17976740737985228,0.045588029742130914,8.189406503319394E-4,0.0,0.0,0.0,-0.02458231584722854,-0.06096171294255516,0.12232946129878013,0.16571845655462578,-0.009585895756180815,0.0407534533335843,0.10926312149086467,0.09568725804903473,-0.05902795359515215,0.0066137221337281655,0.09053553046075187,-0.15445149117989765,-0.05753696845981761,-0.021820503436514288,-0.12744425242393606,-0.07326809287151428,-0.0691379378678739,0.13733169749923813,0.13707911971811754,0.25397807731503313,0.23898400688985924,0.17024327092251168,0.13738621415155103,0.04487135446869384,7.139924380374739E-5,0.0,0.0,-7.52660505430881E-4,-0.008657126407080816,0.002777702622604405,0.04487939361847637,0.11969435920125528,-0.013273455442778814,-0.11412911032960119,-0.06002271315367409,-0.15195648812493617,0.09841986789871868,-0.416093547077884,-0.059970707006519026,-0.14752835892420957,-0.1561771301807467,-0.15012359529529185,-0.16392870658139475,-0.19542808826107427,-0.08451416315587441,-0.07962700562602634,0.11187408813956917,0.12714195631606895,0.0580656962780875,0.08654396348884377,0.07008950840504358,0.04954997507767939,0.0,0.0,0.0,0.0,0.0,-0.0023848814429864524,-0.008816349482323701,-0.05043355654407369,-0.0654642601491432,-0.07100156904516879,-0.04604757400231634,-0.078049162413136,0.006472863010985103,0.20258695383876985,0.09796767532222274,0.011271445570249465,0.22317216928482364,0.044977102451635005,0.15427603191791878,-0.022549333785981833,-0.046110211593881026,-0.1393004894355991,-0.09343721916924892,7.175155585488931E-4,-0.008823208167792617,-0.01122280815358477,0.006497353970229466,8.647713824657211E-4,0.0,0.0,0.0,0.0,0.0,-7.500837931102345E-4,-0.03500724017733202,-0.028138175516664945,-0.01967997734407349,-0.07566166106739955,-0.08224376667958201,-0.10006137893218389,0.06337027037867868,0.08734760480727001,0.045990227718099325,0.10876532052570642,0.05596969493630817,0.041274481167487775,0.06930356107757091,0.0836288809915182,0.09794801089370818,0.035825530891527624,0.01856159792719633,0.04865938845856693,0.018331848562058484,-0.003602929517321472,-0.002707942339917545,0.0,0.0,0.0,0.0,0.0,0.0,0.0,-9.44812373114558E-4,0.010514793911608747,0.011233981999434565,0.028354063065885657,0.029809523178284544,-0.00440262723695979,-0.013769532516150384,-0.06718510933734058,-0.07169768774228913,0.03376014939471617,0.04377062870303915,0.09421087205585689,0.09423149478040835,0.046168276016480415,0.09004387085209627,0.10572075422800288,0.052441667564702706,0.028673995742878725,4.7789149317173244E-4,5.535730669123699E-4,7.0421845200273505E-6,0.0,0.0,0.0,0.0,0.0,0.0,0.0,0.0,0.0,-3.078871387034153E-4,-0.0022228296675858277,1.0766840916880036E-4,-0.0038372767918020464,0.001875659061197486,0.005739434694194004,0.005498813470271152,0.014432866652752544,0.03337175021897491,0.005821608153128343,-0.013230108766669484,-0.012227558935149901,-0.0014038454201822108,0.04182445596629399,0.011401014329926145,-9.719858949181588E-5,0.0,0.0,0.0,0.0,0.0,0.0
0.0,0.0,0.0,0.0,0.0,0.0,0.0,0.0,0.0,0.0,0.0,0.0,0.0,0.0,0.0,0.0,0.0,0.0,0.0,0.0,0.0,0.0,0.0,0.0,0.0,0.0,0.0,0.0,0.0,0.0,0.0,0.0,0.0,0.0010999212283405778,0.00668015495428621,0.004165944364168763,0.0025215591489174223,1.993526235945893E-4,0.00681913674624789,0.031872372391872135,0.046611134534125104,0.035896047769847964,0.03257790261900895,0.01993723047242222,0.002953486932688447,0.00883713483511625,0.01773656210625136,0.011089289560031726,0.0015431474132947109,0.0,0.0,0.0,0.0,0.0,0.0,0.0,0.0,0.0,0.0,0.0,0.0,0.0018984983792461002,-0.001286742212121161,0.006784444833195721,-0.010006900633029097,-0.003494637414170887,0.036481704878599,0.035505840699663074,0.03678881942459245,0.11476865735628851,0.15810288154689522,0.12270633739414122,0.1494160549018366,0.13823864015553416,0.11409540591984711,0.021186595088684403,0.018886014697805188,0.0252588869635152,0.01618011977081435,0.006467543326187422,1.8802309664392618E-4,0.0,0.0,0.0,0.0,0.0,0.0,0.0,0.0013630084362792688,0.018591332168902724,0.004921876566210288,-0.03889577950767683,-0.06570649901565244,-0.08032546677771293,-0.03274517331466465,-0.04451767013750652,0.010698471086467546,0.05233104032144391,0.08350855161979405,0.14896543402647802,0.07869343449335317,0.06133011217534078,0.09731251176050576,0.0881697000187717,0.17537892002147476,0.1400610649499872,0.07019203356850064,0.030849906785356908,0.016234015162044608,0.001303778558663436,0.0,0.0,0.0,0.0,0.0,-0.007899630002064022,0.02943979126625428,0.014256680012659643,-0.015500627536627861,-0.009152991395349763,0.07053429521033824,0.06489667624129905,0.17404596622563717,0.13633155953391493,0.0961385023522592,-0.007657485219153249,-0.14641135750842973,-0.0376086004211357,0.08931219383623741,-0.04298927592181056,0.015946733223093732,-0.05672492720960775,0.028768804982259345,0.03364656258807141,-0.02218804894981484,0.04589599109980548,0.07507083113534287,0.026364799020074894,0.017929324928796765,0.0,0.0,8.846951580823209E-4,4.3520973849637564E-4,-0.0020851784621137444,0.09043382475536406,0.17707038560959346,0.17969495040763217,0.24056343751639658,-0.010186803257746613,0.22394372801146967,0.11701802795112036,0.22208628821386214,0.22868719330012752,0.07647900374571058,0.1598902562381239,-0.13843577363391305,-0.14305491308797136,-0.10514195100130624,-0.06716530339736428,-0.10195625852903487,-0.06377009212138947,-0.12169198105065791,-0.19803983713226142,-0.09837590139070301,0.002120007362998997,0.04632916191120921,0.032078709002210604,0.0,0.0,0.0,-0.0027298050620812387,0.05262863398875874,0.13301319890411353,0.35176948559075105,0.22550294587867553,0.09169898402313972,0.07612074453267023,0.19696551481005264,0.2711338475003111,0.013186318407053454,0.10288511045041869,0.19042275036499204,-0.04870920546019905,0.32189242997985223,-0.018938317907912172,-0.10588866391096219,-0.07484793322985421,-0.016274651630310756,-0.22636045568724728,-0.060173165721453696,-0.04682250001851899,-0.10976977264651074,-0.06487049448085931,0.057397569133887834,0.02197931934491839,0.00410351415817883,0.0,-0.004549974294200843,-0.033540889516069164,0.03538106850484977,0.1542655530100884,0.15744584611964882,0.056911949675101936,-0.04418690901318762,0.05109454194792735,-0.029789486382539757,0.05744651771878087,-0.03915422349157226,-0.00577744981930715,0.05931617820947969,0.010293418134926144,-0.02142280804556255,-0.03697522151162429,0.13834210043373033,0.0012682973615804176,0.11663876919641951,0.0017303161052727924,0.030865625721420466,-9.967499113530138E-4,-0.009814071184963781,-0.0300764271649426,0.09328776375811863,0.02048433526044882,0.00212389443136609,0.0,-0.01734128961904517,-0.08045582408318218,0.040992349071686064,0.2075711293222525,0.05520387643981522,0.03235241070039674,-0.08652959044082066,-0.19230553760917857,-0.03543779936675494,-0.1429040268493459,0.1178395810930373,0.0539659144761989,-0.006023365246385817,-0.03891534209407796,8.80567563139931E-4,0.026930335325420215,-0.05499279054349837,0.026336432907666716,0.07735671328765271,-0.038122429124598255,0.049803167205317106,0.015327186989970147,-0.025092239618189356,-0.00856465103870266,-0.0022743864331160515,1.4116243199269605E-4,0.01577370644115183,0.0,-0.03084191114733355,-0.07543104542887605,0.038198744985587015,0.10743161095157547,-0.07878472170148336,-0.10871587409063589,-0.06205757722748409,-0.11496541089513657,-0.20584477726668057,-0.0903590378173696,-0.4633179961998606,-0.0499798771356359,-0.1182661523257039,-0.14086884429448157,0.1067848612965625,0.13097731877091184,0.12116760787556229,0.06704883698880056,0.06137577331835144,0.08669175980867574,0.17066047518818203,0.07914985081461134,-0.027439816492171507,0.02323038079662365,0.004825374021904671,0.03372324332861098,0.012744025983216918,0.0,-0.015694461787322245,-0.059124783563531916,0.08837993613115232,0.07557393006558641,-0.02382602458115499,-0.04092069913926716,-0.04292379429433886,-0.20512378541527532,-0.2839141181805268,-0.15446898244500254,0.005138396796303133,-0.16673326371222388,-0.01832908542305847,0.20008380527037428,0.10087218647994374,0.26949030282247477,0.08321788256326276,0.011946324366249358,0.06434749040387126,0.04082218390658682,0.0023119416990804984,-0.030737048690727495,0.03892557968695468,0.08387783562491603,0.07468758656828248,0.06506289130732248,0.01701247293824575,0.0,-0.017856116867052428,-0.061257516096295345,0.04423924330971176,-0.0051298753189708305,0.00357686732792933,-0.026980582459259266,-0.2566440620878308,-0.15410573571843858,-0.0922363600503385,-0.19208845661166796,-0.21014127742324784,-0.020866387135127024,0.16214029132007285,0.1943920403010487,0.37579380463834217,0.1057683236119335,0.08804267450480219,0.035521887867462056,-0.013547810743583827,0.02205028008433052,-9.731765266688239E-4,-0.021323093978100248,-0.008272140084601205,0.0700651211736532,0.07344443696039335,0.03968063463883816,0.00999281919942392,0.0,-0.024328286528476028,-0.04265194798861748,0.004767067749124604,0.011928364367444893,-0.11216579957402514,-0.06482022956696992,-0.004744786690832486,-0.13111130287174547,-0.11795274779193839,-0.16994661425570576,-0.06446210742372255,0.048169260757525,0.19652774225433703,0.1088990350184685,0.11291252997523156,0.10025873932228711,0.058575100746679036,0.06508334794934732,0.04121350167747875,-0.15157605284141454,-0.10363562780427459,-0.07254256335640345,-0.08123391106507523,0.03806822872324369,0.030146136612016945,0.0061367796724750125,0.0,0.0,-0.01184566772216881,-0.03661070545444345,-0.03849763782194608,-0.05039341898386332,-0.051930170646581134,-0.08668146372217198,0.08534833020531377,0.043048747052824715,-0.004427472689619155,0.002285708090215583,0.10374371089169636,0.4356476081165561,0.09124074253257995,-0.06649016772681834,-0.06582163560212283,0.04865563133125685,0.22578065347248244,0.06936312550328709,-0.1007338318547755,-0.0013020448980462277,-0.0796332816021034,-0.07741222083935448,-0.0806085284414219,0.04143599259984676,0.020214696518622007,0.010852315015299728,0.0,0.0,0.0,-0.024097644544605216,-0.04418572480039561,-0.043104430421331184,-0.01663742779809056,-0.010250041549784174,0.06870725962221383,-0.04198596749816115,-0.027446753188503255,0.05006659665294616,0.03678637193569747,0.1368204390082062,0.022740138862030693,-0.23680361490871737,-0.050544584295442195,0.35439644340610976,0.04122921695381959,0.10335695456832754,0.08681705425354148,0.011259326259033099,0.04763352892421904,-0.012876928016771845,0.05239735957710459,0.09084368429255218,-0.0018375044842361655,-0.001709123259045109,0.0,0.0,0.0,0.01781199633917359,-0.01568419429765158,-0.033213131120867954,0.018355328536237676,0.004998299070582069,-0.05114603951646492,-0.04542493745511487,-0.01642284091530987,-0.07311482366025651,-0.10153939039987069,0.10832756638936106,-0.04794293581796513,-0.006291048254744618,0.029629680837552345,0.07279797324567987,0.12043759697114963,0.2636773529928335,0.058526277298974104,0.053765577767389744,-0.08997683287463365,0.10187301306774735,0.08983406724899741,0.05126711331709993,-0.024876649202785064,8.606416409315013E-4,4.6532859596866265E-4,0.0,3.36720113209219E-4,0.056970598793862216,0.0898413838402167,-0.023078165701386554,0.006876369570756807,-0.0519616299255277,-0.004253319830729496,-0.04498301899193578,-0.048084225818307104,-0.06403692051916521,-0.2627970736161185,0.03750807859401429,-0.022873702063592335,-0.07303331133867678,-0.06608499455087681,-0.07551622397709291,0.053782721864658795,0.13073008099730213,0.1038710484714312,0.07309251872201822,0.3399358460054705,0.13641545031825028,0.10719207615082496,0.018910485161232594,-0.0390204279998906,0.0016716837584404831,0.002197140337910982,0.0,0.0,0.06898447295726814,0.20363072232795054,0.1615321313813417,-0.05641796127454339,-0.1415558603441637,-0.005815582808163614,-0.2321765677035455,0.045878615420641665,-0.18224291171817966,-0.06878315296443628,-0.0847708267337588,-0.046990607766032894,-0.10533594592657575,-0.041644610804981615,0.020694215682193352,0.12929126926497644,0.08675140807373827,0.2062619507569948,0.2927905160873767,0.14535028133674638,0.0860452926680037,0.025999914797517863,-0.018390933263345774,-0.07178621797840735,0.004641365853841994,0.0016765855518067199,0.0,-0.0027555024259044527,0.06980546434087433,0.27394752566448327,0.19896265998663526,-0.043029944002948156,0.009930184461574567,-0.08655417156883403,0.01972079850902717,-0.06852989915151929,-0.10517116597392326,-0.17410565583283705,-0.38221526029099506,-0.18336081053026126,-0.16156696117143227,-0.17958368197841862,0.09412938924715111,0.16868179578809908,0.18912717466720635,0.030316486371512918,-0.03357340626333834,0.23942313601801393,0.12305759271631153,-0.06319637356357471,-0.07405309860017945,-0.06718677556493882,0.008799927531557138,0.0,0.0,-0.005361928446445095,0.06787960797054023,0.29445316581493025,0.1743582499273657,-0.20906606993994684,0.08992437389576131,-0.0447285283746283,-0.14171259098638525,-0.1309849701625894,-0.30499988562861896,-0.06202126278425973,-0.29149514128833637,-0.09427953329569455,-0.14473314613154148,0.012523037650941968,0.008038765210171613,0.1585207022112578,0.1506658655922136,0.06326968274003696,0.01971460422094779,0.11230020756672052,0.013153036273327442,-0.1709018663456108,-0.09946039645877544,-0.03694041073879457,0.006322679891792975,0.0,0.0,-7.642467778011479E-4,0.06565943372906763,0.3650966261545435,0.31949170177428715,0.04886912123715192,-0.014690481780308403,0.010715787768978547,-0.04845674422754739,-0.10547828839980487,-0.08054190510705406,-0.0686669964643938,-0.06432257899834008,-0.03377254833686454,-0.0561206689752839,-0.3026287692234711,-0.04400420739257307,-0.016345709219976082,0.12797733673704212,0.131748719569961,-0.03584485000742044,-0.03517633974220307,-0.04454272572896536,-0.24068432059743058,-0.10815093454016517,-0.0014898274221822143,0.004108851197046503,0.0,0.0,0.0,0.09155133013833314,0.31117332636921047,0.3762735860779124,0.10096868934588218,0.04493824719889615,0.05067833358021887,0.07267966940141295,0.05426289270300162,0.04628531963887861,0.1283295438607391,-0.020373033053250313,-0.07439773935395795,0.003120175920763749,0.6278158222757906,-0.0173030815406978,-0.0018969852785015568,0.05609387819718943,-0.052518266579737544,-0.02306855068574897,0.0037789129068235834,-0.06976485482701793,-0.22313940339491528,-0.11015358137748982,-0.0032806282791540725,-3.813711658693243E-4,0.0,0.0,0.0,0.02967314844026934,0.15130432055209797,0.2995415247632316,0.2046253260488735,0.1903110771446766,0.017714193614645823,0.08871233046135019,-0.007162229008261463,0.030099547848572862,-0.07694892848030278,0.04750722206390076,0.0440179647643843,-0.07485080369651562,-0.11809115806083059,-0.015539843562729794,0.05640346198124143,0.0028987141879284243,0.0023749367591495577,0.009623973357948942,-0.042141074322412445,-0.09221036346519684,-0.12965921218052917,-0.05625967532923939,-0.0043429509834646335,-4.5039783607572405E-5,0.0,0.0,8.830666850995791E-4,0.009854182991358557,0.09116952898616938,0.22189932199411636,0.2477334634187961,0.12628885026651945,0.1674791457321809,0.1472041587992342,0.2259093843990749,-0.0037058381196469954,0.31288162974776773,0.25572533131059594,0.19238596332456073,0.08026422501116101,-0.045008543740161125,-0.1277759438142117,0.1731019574832509,-0.20235815372681817,0.06828640078152737,-0.13115013617501084,-0.09987585704507325,-0.10398666312690552,-0.0796590514817701,-0.03480783754787228,-0.010035324638050703,0.0,0.0,0.0,0.0,0.0,0.04649476653670392,0.11042250684334083,0.14369348534932685,0.1921346028779536,0.19512462017024151,0.20685862858504,0.0804839081862578,0.08518570761823353,-0.03447308537209361,0.032374666304148945,-0.02987609223627468,-0.015999838214666946,0.20017993235527162,-0.18808308720906855,-0.145189250641054,-0.0600370836755319,-0.09279159678814446,-0.1285223741556464,-0.056529228340119024,0.039415486157989295,0.023742696836104613,0.003037313416036021,-9.329021871137155E-5,0.0,0.0,0.0,0.0,0.0,0.0025824189659086976,0.014949635299811567,0.055355342514087726,0.05747879667119687,0.10214474130914299,0.10393520142781192,0.10579188687917816,0.04134826918165694,0.0556451162954939,0.014147558174213953,-0.03568222189202106,-0.10541183869960019,-0.1473797907800505,-0.07966444161289665,-0.05709628444900076,-0.11820732874064369,-0.06620508073936647,-0.034156609107975223,-0.031142811951518353,0.023871761410436797,0.02555567885013088,0.010678987873290288,0.0,0.0,0.0,0.0,0.0,0.0,0.0,-3.0179773535364925E-4,-0.0023072614639253293,0.008087494037899927,0.020498701457922545,-0.02125727879268316,-0.03734988751987472,-0.049830774503284304,-0.09298216020215981,-0.032761846157230164,-0.02385311295949134,0.004646386600868175,-0.06925562139532555,-0.07597300304870089,-0.04229701338810649,-0.0919257726828801,-0.06780441172274516,-0.017583493760283665,-0.026739940304625145,-0.0035529109447740353,0.003781735505160906,2.9307618418077797E-4,0.0,0.0,0.0,0.0,0.0,0.0,0.0,0.0,0.0,2.8754510509072735E-4,5.912415022160601E-4,-0.006292615510750411,0.006806770076031768,0.002333147772172385,-0.0014400114116717743,0.002747879756441016,-0.005004455146576331,0.005445248383564807,-0.01480994445942979,-0.017471452157614954,-0.020289801797893144,-0.016569014778239653,-0.008362424187200424,0.0016494252274423735,9.149938893952002E-5,0.0,0.0,0.0,0.0,0.0,0.0
0.0,0.0,0.0,0.0,0.0,0.0,0.0,0.0,0.0,0.0,0.0,0.0,0.0,0.0,0.0,0.0,0.0,0.0,0.0,0.0,0.0,0.0,0.0,0.0,0.0,0.0,0.0,0.0,0.0,0.0,0.0,0.0,0.0,-0.003087831479000157,-0.018603961817532492,-0.013045879064651067,-0.0327820146978786,-0.029091879245780963,-0.0179543573218845,-0.055101867396585534,-0.06468908930296477,-0.0399466345056072,-0.048690249779688145,-0.04528914583521993,-0.007934837813140937,-1.5098230007605588E-4,0.0019720957824997712,-0.0022685759608324337,-2.4535932810424566E-4,0.0,0.0,0.0,0.0,0.0,0.0,0.0,0.0,0.0,0.0,0.0,0.0,-0.002097496794336807,-0.011687206398288583,-0.006595452007388504,-0.10745031328406456,-0.14243828519771773,-0.1706122486859175,-0.24758341328631775,-0.2535484934530798,-0.2882773147303611,-0.2741767539536065,-0.2264799297946552,-0.15535121356846077,-0.09457702350480428,-0.12044769294952803,-0.07147372553724764,-0.01844197404463039,-0.008262738635873438,-0.012552659205716993,-0.005886869833212054,7.393370556690503E-5,0.0,0.0,0.0,0.0,0.0,0.0,0.0,-2.2628736141516576E-4,-0.01581041258723495,0.010161936805853007,-0.037856186159072824,-0.1419800783205509,-0.10122235898537271,-0.12094600430330739,-0.19945922325615298,-0.1675038799635418,-0.22557546041005727,-0.2835129277977277,-0.28098351914191294,-0.23142824950815477,-0.16826386044915584,-0.13161306876487686,-0.11344269933445791,-0.13500130259714938,-0.08302518631640038,-0.02896064788600972,-0.013169885222618333,0.0025982494487481684,0.002742690340705881,0.0,0.0,0.0,0.0,0.0,0.011368874543473403,0.02354019926280959,0.0054768808213706,0.04086777240807463,0.05360156073816351,-0.015671124482804142,0.026378943035411568,0.006823143480616111,-0.09735037941764896,-0.11987456609196785,-0.04146373399929176,-0.06574859844240064,-0.061328298682883906,0.05171609264482128,-0.12642298086335524,-0.052826146058644156,-0.04268907439377093,-0.07750066492296241,-0.13629455951519495,-0.07285849231531333,0.03943495523943476,0.018970113161409126,-0.01273939893292703,0.013577486202170063,0.0,0.0,2.3256762562813763E-4,2.3266318777695724E-4,0.01263794779142152,0.06005015820307488,0.11100919559273588,0.1400213672255111,0.017543892996547038,0.013272352928794248,-0.12743903193586995,-0.04148234976948962,0.013634604649550637,-0.18396459026298023,-0.06378837083905164,-0.003327536466979568,0.0829273429123932,0.08129578294164813,0.018208483500952756,0.07808218414815107,-0.0703465328320036,-0.07646718862468259,0.10080985425207527,0.142989005790688,0.009510908086335085,-0.035833933728028046,-0.03147710603403554,0.02192846574050143,0.0,0.0,0.0,1.2184337884794469E-4,0.004889277831177574,0.03704734675853136,0.03934503400124148,0.09404766357868878,0.11856300368515436,0.08127804692030409,0.02441569257066999,-0.04356071477257486,-0.062357749457521934,-0.07619839483942725,-0.22886287745780898,-0.09592678241614007,-0.19418230207172332,-0.08581409494861066,-0.12743989243677614,-0.03158794176493763,0.06180457059295562,0.20899042792164352,0.3311036809876095,0.09130752422497113,0.06925143830564602,0.049564457460361484,-0.06689931171967954,-0.03214682919087031,0.0011732348274170795,0.0,0.0016637969397722556,0.006313625526034208,0.010607424286734333,-0.001971587540136001,-0.05024013196214852,0.019937085278031133,0.029378068297810398,0.14968665484691943,-0.03593420266226768,-0.13201928430952156,0.010297833893117543,-0.06614690978422624,-0.3695522149830859,-0.18184361170989083,-0.10148937300308072,-0.17753851675583623,-0.007476903880687755,-0.06396942365589744,0.04243407544296223,0.1622727659754754,0.17219745860750293,-0.07461740990822285,0.11500105751150032,0.016329140300768385,-0.16622962309804867,-0.058465356239387346,-0.001412919628525775,0.0,0.012213245435247322,0.01811326736142471,0.04432458504313246,0.020789199773616134,-0.001594822598989333,0.029304488963871937,0.033669499152175354,0.1471764502878572,0.14015767712472696,0.025377112423322246,-0.14699092515386247,-0.03952132764471336,-0.33796163486667863,-0.16300787900205083,-0.2559989512103663,-0.004669993543144776,-0.11262668456575833,-0.061324954497809975,0.15233085337080823,-0.008012025717888924,-0.09014280778247315,-0.0052673283416822935,0.13411035297936333,0.03270426432732657,-0.20344971652115174,-0.07595248201391917,-0.0021313746521998034,0.0,0.030358459144762803,0.0281601996499614,-0.01585063162199052,-0.023260517576695262,-0.06584757688156713,-0.017276385923542862,-0.002707259835791567,-0.04453778276148165,0.27570289712835755,-0.029613136173198225,-0.029832284394938607,-0.045359667141254265,-0.16198420195561677,-0.13530772690336348,-0.05878086877676402,0.008398300590705086,-0.02049272230531493,0.026631716968977426,0.17050324453976734,0.08072390216787237,0.019601074071364678,-0.013511816434353872,-0.10072395961429131,-0.18558927658960037,-0.14580284002745236,-0.05030973619095984,0.0022074423558956554,0.0,0.028088303149845582,0.02353405160915774,-0.0199575325642603,0.015551440104452344,-0.019898560133019168,-0.0364552314734659,0.015514082781380785,-0.10167283979975181,-0.20586314984086795,-0.04324720590417098,0.08648601503857879,-0.1041926366694582,-0.058211059525835336,-0.05320094388973531,0.08251717745630696,-0.0628094936920566,0.2926231941112717,0.007399897993450187,-0.013536283554595316,-0.01847574303788581,0.08459435237248401,-0.0351302749598155,-0.05612554015535215,-0.10416317665707861,-0.07553730308844926,-0.04592219347975439,-0.003594736929851381,0.0,0.006009843628906304,0.008201794243406321,-0.020883667667694852,0.033250950821584316,0.043185773081982855,-0.07064770710371128,-0.16736263519090658,-0.08994453135250806,-0.06118436180981069,0.10761108273146054,0.07899974748044053,0.043931199668460284,0.06946616180664401,0.07147723403475406,0.03891044655540044,0.09421368967967891,0.07987221305665167,0.06227051545333399,0.029899963318662504,-0.06227943103162435,-0.10447384488961656,-0.10014177402663488,0.013305171319983851,-0.0601775347738966,-0.05151231363152761,-0.046822888293091496,-0.013080932944047578,0.0,0.011064965502185747,0.021972002318031245,0.009119568509634544,0.022170499172500982,0.08265266559289758,-0.005342748903689405,0.09499729493186122,-0.05813902735146598,-0.02967654475578212,0.08847363785852472,0.06578498920699642,0.1583122652805996,-0.0220357546821841,-0.04293314310119802,-0.022499289640962872,0.21743960359900946,0.17932322573195628,0.030758604015387346,-0.06372148875014423,-0.1032790438049161,-0.100993112637283,-0.11597082643718833,-0.03374396073694328,-0.026888499919823384,-0.005849405169255607,-0.0081161574476608,0.0,0.0,-0.004024325526947002,-2.2665508104895921E-4,0.010554233837006325,0.03468356764137493,0.1971998819951346,0.09045961983584856,0.0017649727105890484,0.015311706928999224,0.5564779351313596,0.09683428214818356,0.13620357993708923,0.01715687988288952,0.009797176271948177,-0.051598468382301754,-0.02260891956251772,-0.10635948526252047,0.2939694409151369,-0.03142989973853162,-0.0624866152476976,-0.038236161490970325,0.0994713440413306,0.08345422202124854,0.03386876438273189,-0.06797421632736556,-0.038991759947427755,-0.009486051207677468,0.0,0.0,0.0,-0.016690113382393183,0.006182523996667978,0.04249171742771012,0.22228733022290642,0.35513626431779644,0.23887474228888475,0.13556538415768282,0.10739678544067319,0.011675929438381277,0.11013490890591068,0.03125193201970382,0.05822892846144934,0.060614064858276626,-0.04364758937844671,0.08582585570933014,0.10377291499892496,0.08847957216386752,0.17569156314471154,0.22223275903868187,0.09995578844055984,0.15587551041079284,0.04585865819086373,-0.05195585248770012,-0.038687565607758205,-0.007514500940744297,0.0,0.0,0.0,2.4598752355214313E-4,0.023079078308058058,0.07815422588863824,0.2690327820020159,0.3957890444102121,0.42628931833158396,0.2615475548026024,0.12022091833854245,0.29257630408572916,-0.1562029546633523,0.18723317670396025,0.14400623962014952,0.12500524304382404,0.06325341749424196,0.1420537293802026,0.430435668473577,0.22679686491611736,0.15988136924511562,0.07760170036393507,0.12555130089238725,0.1275640967571355,-0.05603133308132776,-0.010911202099763123,-0.02563813920174356,-0.0032213961386752606,0.006322571142148524,0.0,-6.832941822043411E-4,-0.002966940516504916,0.02526636324102069,0.01284371394603991,0.11694846060631002,0.1422521010232835,0.3260851014933977,0.09144250370893524,0.05575132014747646,0.07421407981348684,0.42794860592032535,7.632074789495518E-4,0.1808960418419779,-0.08414210535593522,0.2868645261387944,0.1289144205666602,0.1553830400196343,0.10462117951676224,0.08098476336389354,0.03310521667276087,-0.1313568263043002,-0.030358493748806788,-0.021886889133903277,-0.07055241907902038,-0.04526783163414082,0.013184818111968387,0.004610357673472331,0.0,0.0,-0.010295669443219834,-0.029060699157349965,-0.07415297068052203,-0.055455391330474675,-0.01956556824734261,0.05523104995800328,0.14070347141954623,0.27238450877210885,-0.1832562266955466,-0.14483076930234584,0.07431404958700684,0.018457392024594992,0.683068912575925,-0.02170041855750563,0.22664627556638267,0.06343595504431603,0.04281642637106625,-0.1387827977549507,-0.01313285441430068,-0.09375629251463613,-0.05061310647325096,-0.04650932568523484,-0.007964755219118764,-0.014144567252960347,0.0029586647016659282,0.0015942713494143167,0.0,-0.008093809168729966,-0.020392273007910328,-0.042132415599127775,-0.10641264730755372,-0.06778625849110119,-0.13889466479248627,-0.036086299734936135,-0.09408643427289491,-0.07460650635868041,-0.05752204058533669,-0.045723779702498815,0.17379574146786395,0.060115637177091015,-0.0014717310009448549,-0.09810505482562276,-0.05836762841781917,-0.10966571775447723,-0.1717696895241049,-0.05004382489863266,-0.055806170929778263,-0.05745296433260444,-0.16216458147997215,-0.04291731202003398,0.053855943152170516,0.05209003744932252,0.007155711294060262,0.0,0.0,-0.016169183702136748,-0.02077420705750484,0.027923530047309235,-0.0716493408212787,-0.05782557131682343,-0.017208861303438995,-0.1335872136842212,0.03323100003423792,-0.3627867084031585,-0.20677466965558938,-0.2103489042238126,-0.4191472743338545,0.05662861148218093,0.007506000339144174,0.148561137215222,-0.005570478565877956,-0.03648929871603476,-0.1235915277135416,0.005415234202274438,0.036047335049616,0.029829459873842643,-0.034789434040798914,-0.014634381493208042,0.08110066054863715,0.0343263137666546,0.012570494707938628,0.0,0.0,-0.0023270338067937087,-0.008305729828979178,0.02127645081251692,-0.00724027586109485,-0.1002661511236877,-0.061399105307228426,-0.11381529070547482,0.033802958551030673,-0.024102631563743836,-0.055534389636794614,-0.07654363658052243,-0.03829165790058111,0.014139466742064281,0.050544284079116285,0.07586665516909119,0.08273878762138108,-0.029913719100521232,0.05127576823856657,-0.1329085009648996,-0.0557735054495194,-0.002334043706301833,0.04305617644810255,0.03463442257269618,0.0013087613395784121,0.01527356312105141,0.0023576900952062903,0.0,0.0,0.0,-0.02254136212082897,-0.057964605069228604,-0.04611337463736481,0.02471426585474112,-0.03191253480030904,0.03729087380635646,-0.22737781250127634,0.03108351537176731,-0.32429363337639894,-0.017066837311625782,0.04573744991087716,-0.05593247205911435,0.006699519974870305,0.0675655849348726,0.034638737318298383,0.14083352886724576,0.15418917014902395,0.08918372275851211,-0.19019133232883131,0.016739124920548864,0.0737478456698455,0.004577578275221702,-0.017198516590295924,-0.0011330674517897957,-0.0023411455005725654,0.0,0.0,0.0,-0.009706487283595305,-0.014799113246463259,-0.0357688598896804,-0.08172367313902289,-0.04575145203493963,-0.06017390442174652,-0.09946811665874429,-0.10046898907186975,0.11265525152118981,0.0554041793169799,0.05318028352813496,-0.08257253938754736,-0.01487285304037127,0.09553620672074804,0.10688380039593463,-0.10097945153933546,-0.011864787084246908,-0.09328365060576901,-0.07388575106719877,0.00973346035393474,0.01968948979159077,-0.007455887819224149,-0.03791980993190604,-0.01637860926340981,-2.47916019174252E-4,0.0,0.0,2.551158659103566E-4,0.004679260993407848,-0.013614602680506495,-0.026331470522760542,-0.052925539632311266,-0.09659676528136946,-0.14518108618531453,-0.11938606343167146,-0.06417714085480525,-0.10895448907359447,-0.08074660795316002,-0.12090811449874193,-0.04974751074051248,-0.12886333426230825,0.14999197917666515,0.09369329779826259,0.07413657865424514,0.1138586059687676,0.06367178230313443,0.16889347180932074,0.08483235129673293,0.04517299237496962,0.02172255153172646,-0.004007849675577467,-0.013563133523638448,0.0,0.0,0.0,0.0,0.0,-0.0016379005788031687,-0.0022970886195926776,0.03908439199231546,-0.053518870073908216,-0.08037309015023693,-0.06755904843445723,-0.03615162844614599,-0.05859456981075831,-0.04293053793233846,-0.04274691889357346,5.970218446344472E-5,-0.15863625852656388,-0.04653982821666414,-0.05877112966780758,0.197256503264366,0.06322398072600638,0.09034395191661049,0.09045436659852228,-0.04548380788722037,-0.009690562098061095,-0.017091576919730102,-0.00846301724967898,-2.355608346181392E-4,0.0,0.0,0.0,0.0,0.0,-6.697335612304052E-5,3.247634814700146E-4,-0.004006733577552499,-0.007959778200039925,-0.060154164704897546,-0.10161571566545835,-0.03184660904706182,-0.23091107185342732,-0.2133170003703114,-0.3027042225420276,-0.25483003487655664,-0.5232664324525698,-0.34683324109439573,-0.4757208478865346,-0.5883424578178873,-0.46832483058465607,-0.3548534879818759,-0.1513320311267975,-0.08474540228864379,-0.031131192229345694,-0.008714274984950811,0.004637916584901827,0.0,0.0,0.0,0.0,0.0,0.0,0.0,1.9569891306029914E-4,-0.009049999753885556,-0.020684396263048976,-0.06486554626190144,-0.14968257227395937,-0.19193425433042463,-0.20176523583049313,-0.227846211541324,-0.19454414811166973,-0.2138985876955673,-0.19357874223134647,-0.1806948687832965,-0.19485140429927314,-0.25671476645311336,-0.229728835506378,-0.18281610560694647,-0.10121515533381231,-0.0665451599274961,-0.012794079956648876,-0.01025553628327818,-5.9132755956926E-4,0.0,0.0,0.0,0.0,0.0,0.0,0.0,0.0,0.0,3.6546931256511034E-4,0.003948540681645503,0.0014916619036195362,-0.0011962610832774322,-0.00209463694655588,-0.005843542501510645,-0.004592015147394673,0.0022437671097978677,0.00572687700281535,0.028046167254535785,0.044547138568886036,0.019933705115816793,-0.011016068243848567,-0.03140255847179222,-0.005370180610626447,-4.079839854525355E-4,0.0,0.0,0.0,0.0,0.0,0.0
0.0,0.0,0.0,0.0,0.0,0.0,0.0,0.0,0.0,0.0,0.0,0.0,0.0,0.0,0.0,0.0,0.0,0.0,0.0,0.0,0.0,0.0,0.0,0.0,0.0,0.0,0.0,0.0,0.0,0.0,0.0,0.0,0.0,0.0025148591450774595,0.015395582295341645,0.010135488698494713,0.00996805442673727,0.0033147990381065663,-0.006200249352188562,0.011972339772586984,0.005467280434289484,0.008968071224881604,0.024393699842906832,0.013070212017775848,0.002086807540945832,-6.1334463832121E-4,-8.321463963362775E-4,-0.002402898520098368,-3.308854222797972E-4,0.0,0.0,0.0,0.0,0.0,0.0,0.0,0.0,0.0,0.0,0.0,0.0,0.007424344758118515,0.02980913410478192,0.032545673772677426,0.042419329060386174,0.04031961030453395,0.02412925069147684,0.05689049198519655,0.02849384160655562,-0.018101955129852947,-0.010811404225343714,0.017669413574517314,-0.03752208176880909,-0.06642073037928242,-0.010703988315734823,0.0012031078297108713,-0.0033796232310465053,-0.0656706279175329,-0.04440407909061126,-0.016862386445098267,-1.1049466252135423E-4,0.0,0.0,0.0,0.0,0.0,0.0,0.0,0.001347285062335229,4.301472126770738E-4,0.01974878891924251,0.048184742817401455,0.07923848785384581,0.14279035232227838,0.10978401091455732,0.17963258827178882,0.17355565284011965,0.09197953583892853,-0.065177914861085,-0.07362918256014848,-0.021239538225652208,-0.09185940025537954,-0.128109868264535,-0.12937753417341066,-0.2297509168540172,-0.17620382449785615,-0.12347610675251608,-0.06702089256055956,-0.03768494163947598,-0.004408515807051885,0.0,0.0,0.0,0.0,0.0,-0.0034122787759773773,-0.019346986799841048,-0.0059795129390131955,0.029844732629851208,0.038881869415164715,0.026588058642279543,0.06882590496835708,-0.08970117127281224,-0.07706933832492668,0.006656320117025307,-0.10733994113600638,0.04880751863692342,-0.12248914793676119,0.035662588429920115,-0.004427222718138759,-0.04795811296893958,0.02759783553279097,0.03429197322996601,0.03756998587915716,0.04722134742707006,0.014047260952095008,-0.03679079782596205,-0.022031230459197464,-0.0258184366069926,0.0,0.0,1.141613462381632E-4,5.0987873923946113E-5,-0.0056619722835073655,-0.06308054311883983,-0.08791504713932814,-0.07702008926868432,-0.07578360384160637,0.04092619404459868,0.060191756571733805,-0.10676569623566161,-0.05338311280204378,-0.06779590785819793,-0.17560130410201621,-0.1027230132197818,-0.008977648221752683,-0.11461833595786874,0.016616594013990023,0.014497476264974373,0.06465349839033577,0.27212489245538435,0.24677846327347838,0.46797745339600294,0.4194794276959628,0.17205102144688003,-0.04735839697951934,-0.0406367288425657,0.0,0.0,0.0,4.8360261793536246E-4,-0.012756875527900216,-0.07823685621252553,-0.13795379127117302,-0.1059311229563251,-0.04470864431479117,-0.09012711424901465,0.10134860922653578,0.021696447047165637,0.12576406309114596,-0.05693540747843188,-0.056812274081247414,-0.06765000541071443,0.03860458528221505,0.0905310240107422,0.005141564782025119,0.03798868211726827,0.1690796386258663,0.0806600699381723,0.27287219990123424,0.47408239203420294,0.575390666332569,0.4112760591666059,0.07059719572720828,0.02713868019200949,-0.006519395846954837,0.0,0.0020640582974311475,0.0051669480079945315,-0.005660492465016214,-0.06718477087197823,-0.05519568498357107,-0.001891243618078282,0.023641968136397167,-1.263090273497675E-4,0.0841904360023257,0.027415045735079878,-0.018013109207285008,0.15633529711980684,-0.07619916179501614,-0.005425263100091866,-0.10185130141723435,-0.2928609178941099,0.06708370719589142,0.02998074322701116,-0.007314874943173887,0.03337972211626879,-0.071364918909782,0.15082062033430407,0.46199862209502973,0.717022831124732,0.33708816890852167,0.05121094856185299,-0.011121736342432412,0.0,0.0075213993558566495,0.02051028439970568,-0.009504256729717667,-0.004753618920018658,0.03115679545081758,-0.023740572849477753,-0.010776044558486277,0.13222940649320528,0.08839030071969982,0.0423800720666606,0.17508785965453944,-0.012085447254281447,0.016096783875308565,0.0442900592714812,-0.11589872788042561,0.37820817567243176,0.07376885810394136,0.12244628247388087,-0.0058636722693827005,0.06995617253982292,0.11127040013598187,-0.10160964304418212,0.4487809520030277,0.8848860326264514,0.639854298592958,0.29818219927054435,0.014942933901301886,0.0,0.023382369230988038,0.02651915369338639,0.004134753494825669,0.02139059558349311,0.04939444903424571,-0.001959812544891645,0.033562408318977416,0.1286873144423199,0.13290875007022218,-0.029274335060962522,0.0616304900688641,-0.033129447394719735,0.07305639773536453,-0.012565676950645548,-0.050910838414728266,-0.15362682400831149,-0.06296926836214439,-0.29979629518910367,0.006526273662817701,-0.1720223415852733,0.0036922148049286676,-0.03330662882136916,0.2769304942026909,0.7730945029401974,0.8005553629414135,0.23209912074495284,0.017151267130655765,0.0,0.012573249138110362,0.007320075907706462,-0.014369726806783004,0.013240728635057774,0.02398965273775636,0.01713792930093573,0.05248741511463436,0.006648909047891829,0.34552331949411663,0.11083629688806516,0.00746917875121301,0.19795947171935196,0.04286985476482037,-0.01510609662287951,-0.10150349954953337,-0.03975964812340936,-0.19949793158529236,0.11156691291304448,-0.18325852450801128,-0.08749802483842334,-0.0829653594844576,-0.2954208867557259,-0.09645097244215502,0.3655501082254268,0.4991964064425161,0.22009201658867394,0.04968037984795835,0.0,0.016522081244391244,0.02431312250630824,-0.014946964687227192,0.039001414008126144,0.10167340234093925,0.09394228332257501,0.05547139001773046,-0.0026500517106443537,-0.0034749551407324835,0.3349935372202101,0.09677397104452659,0.09157262202034312,0.14743167806149465,0.11301101964709932,-0.08525051070844845,-0.2876247896398578,-0.21186237618832612,-0.2774320169112382,-0.2201345352378921,-0.3493573578194572,-0.42723867416205064,-0.521762516338966,-0.4545890763396595,-0.12436013399156726,0.2765987875190087,0.18203860738028071,6.371818961469593E-4,0.0,0.011301806533784549,0.020368788487822653,-0.005760618318013426,0.022665322079968846,0.1867247124213489,0.0862414251769795,0.22543258613311995,0.14239067986998333,0.15950068427206776,0.06989763292141615,0.20097044109984916,0.273158844785837,0.12537612826329084,-0.029946648602789075,0.011655790532512375,0.02947880732494786,-0.04717586262296441,-0.19761167671023966,-0.04099931651936159,-0.24043829421607957,-0.07665668456720383,-0.2107921137240992,-0.4088874819848302,-0.20890483832002366,0.1007023628876336,0.04633615835203343,0.0,0.0,7.824157225289859E-4,9.082383244096272E-4,4.5285293103904453E-4,0.034107715971418075,0.11407624386554312,0.04656359164556202,0.08130044586771945,0.14111297375405824,0.01116871115479148,0.19706003942916736,0.14881419566319698,-0.022115348049670094,0.0910345123301649,-0.047482297055106086,0.006994854121500439,-0.01715067354724938,-0.12483461823648925,-0.05812341449301248,-0.030387610054558114,-0.09429181640269842,-0.08790780283869788,-0.19795874064740235,-0.265231457081142,-0.14729395609728133,0.03287973071525109,-0.01194681812144301,0.0,0.0,0.0,-0.007454774640308495,-0.006162925123797836,0.05743191830025563,0.024656496977381107,-0.09121509666276487,-0.059567675030013624,-0.03656157708405562,0.16347784486974512,0.06675731195970802,-0.08180884989554563,0.055463705816578335,0.05462574642675154,-0.014725541594409591,-0.022171127414835862,-0.07572453635169912,-0.08681966067931404,-0.07184121197224229,0.08603122257758686,0.07533609790392512,-0.25580774841322873,-0.12081402257628915,-0.12642529515791254,0.09477323865001563,0.029846787228842885,-0.006947799716296279,0.0,0.0,0.0,-9.313794527105151E-4,-0.006420115310596516,0.1199097308305459,-0.009779811411463352,-0.10946754038590015,-0.08272898369082815,-0.09436952606073294,0.011585134869051274,0.02194837654211178,-0.003406416946342482,-0.0043640588359679265,-0.12200869141704597,0.04379193390025352,-0.02030974558865158,-0.05123661158409967,-0.011834344523044833,-0.005838019536507795,-0.16897599249219594,-0.0684289856071511,-0.06149511728025449,-0.032732611269072204,0.013541123295389337,0.1217853944325143,0.03143891227891196,-0.005119972009552733,0.001008320812955723,0.0,-5.822048409602407E-4,0.005774343704819645,0.02523935454286011,0.03622568787387517,-0.046303651059813586,-0.2001122466853785,-0.14652188844307126,0.06626432937828172,-0.039890873665878346,-0.05648079579990974,-0.14386757318016238,-0.011105155812904041,0.06317150706823313,0.09057588237558077,-0.12814762583675474,-0.12299538088171862,0.060640481450121964,0.19054835418034616,-0.010432951718440437,-0.019956291769068383,0.012042381035979762,-0.08527956183397047,0.036319920647881004,0.05754269720687173,0.009879930306377037,-0.0023171031131595248,-0.0038686932237729493,0.0,0.0,0.006387122362277731,0.028859509134075905,-0.006455089206771949,-0.04213239578856219,-0.06040253754681002,-0.0673139118438449,-0.24699756501716252,-0.0884894527253871,-0.046467505698713885,-0.18634399365647542,-0.022532727107960338,-0.16392494007638062,0.06398959123706206,-0.008201218287465787,0.028599213180822754,-0.0018855136301994396,0.08813302921604857,0.1610853423323358,-0.07978300652192373,-0.07969142508115609,0.025066454325756958,0.03676784469089531,-0.029299816018690493,-0.017481102994975014,-0.005637384367701083,-0.004098584338530055,0.0,0.007600504502867394,-7.695215140877975E-5,0.09166756067565869,0.03138229593402548,-0.01968684472332699,0.25624677492766657,0.018261099091506326,0.03361903788862275,-0.1420430949203344,-0.27492220988009697,-0.10356306776072571,-0.04769790721552858,0.0035389526239130074,0.037027041594751425,0.06002757607224929,0.07778931663167941,0.05601240492674355,0.035845941623113615,0.017240190964528057,0.1108880583131036,0.0498352084023082,0.021880633952246112,0.04984971143177468,-0.05559211866799171,-0.027038174263184223,-0.0039988381618912,0.0,0.0,0.015635050399358537,0.005954230000756988,0.10632458917760688,0.08590802096009643,0.19075812537968329,0.11803899732112383,0.30750328568859564,0.09055740842229769,0.14872266662632547,0.0749539392801085,-0.0037313077938871298,0.13244307875225705,0.09174419311468907,0.04283362219248413,0.05534538569694835,-0.02643380084633623,-0.03548710069590117,-0.05857465969430283,0.0646556034001042,0.18464381528830096,-0.019990929002357466,-0.010919584946732737,0.039707359991457185,-0.013935681810569684,-0.009511495190429575,-0.0077941654751739,0.0,0.0,0.0021506909135743783,0.03175476059577448,0.10034171534989589,0.06289149272690049,0.05899607380164936,0.04580294377350412,0.10376068420197451,0.1343335122344396,0.18471238241360086,0.15859525898963742,0.03670789282626667,0.07116008845527874,0.0777858324691232,-0.14367176315266697,-0.05863793236952235,-0.030238952281343864,-0.007673523335023579,-0.05506137706564669,0.1018078115366187,0.1251938771653659,0.09245508438315224,-0.03759587406686659,0.052499662267092254,0.029007808802472806,-0.011713933625367705,-0.0020490335446195045,0.0,0.0,0.0,0.03440414778958767,0.0330736549895166,-0.0052986400751439885,0.12603673704913107,-0.06753818350163031,0.04439915920369353,0.11987236761718119,-0.022376709164227838,-0.0657186841661706,0.03167745136417791,0.033280533716419626,-0.014920549536168311,0.044210341540106474,-0.033594030650947924,0.07015046736406237,-0.03432438953406362,0.08601800771347647,0.03874502548968678,0.12537017333049516,0.0983754663195534,0.055513341979262276,0.07774267446300523,0.03932730734578754,-0.006523189051797964,0.002209638488886506,0.0,0.0,0.0,0.01606504965220145,0.012613881762239506,-0.022013343702827124,0.02902106998094771,-0.08546931402501738,0.022092338991981833,-0.1280102074122039,0.41516253587109064,0.034000668566922694,0.05806115538514223,0.01652734847348956,0.04487370642692046,0.012400950717517737,0.12111771250568042,0.027655343456803674,0.04030321990408782,0.13940877919761152,0.08810042852714206,0.07021006658351878,0.03939011427000714,0.051022903800228045,0.027998242175851215,0.014568379989503543,-0.009900558006892183,2.5472912004585285E-4,0.0,0.0,9.180162475318119E-5,0.00203105779984593,-0.026452541577876666,-0.018275005204056973,-0.014378399760039065,-0.10914446117873444,0.03370628437685294,-0.055536986656766436,0.05147111347310205,-0.014948303635108079,-0.09257984485829909,0.10531601184472762,0.08427515404128266,0.03988292302519127,0.024727537156834404,0.08482233417981423,-0.051908106004521996,0.008431933117716454,0.00861279723856697,0.02649175675157479,0.11576087575786667,0.07473673403475715,0.004685958758637869,-6.557076666698994E-5,-0.004810597859785128,0.0,0.0,0.0,0.0,0.0,-0.012386348497331213,-0.003846137006430759,-0.026761311293114168,-0.010679046020220842,-0.01446260782950935,0.018821424483799098,0.17595629823049913,0.11697015061188225,-0.07215525432998574,0.14874469162079637,0.029883017698584993,0.04193606201641328,0.08348825130288005,0.009771709309289042,0.0637506660652792,0.06622738917267706,-0.02323619125426626,-0.0019151834308636635,0.04467630404451515,0.05418326781088183,0.01641537909444788,0.003703343786281713,-4.565995877207396E-6,0.0,0.0,0.0,0.0,0.0,-1.771835526057514E-4,0.005526416526130336,-0.013704148797504758,-0.003809126474864195,-0.028038324325133115,0.083294099296925,0.10186893420416,0.16397226787514477,0.11879803925387684,0.08115837851969385,0.06169564339974373,-0.09742806957733938,-0.07096860384100108,-0.06797592165895115,0.01862558537466064,-0.038383985666810755,-0.07519294483522762,-0.02515955747421177,-0.008650086682444007,0.021196717622219807,0.007082018907572739,-3.477521372305749E-4,0.0,0.0,0.0,0.0,0.0,0.0,0.0,0.0016302587589315134,-0.009761975018219559,-0.03310714161148433,-0.06215206797462553,-0.055382970047496656,-0.06641068454601676,-0.09132366867298514,-0.024768097422370516,-0.024860470631895216,-0.033743249937253146,0.011415082946336816,-0.07196530082240915,-0.05488931888216178,-0.033422650107276713,-0.08018200279494454,-0.08769339455525495,-0.07398353721752142,-0.04278108587267189,-0.01296567781734439,0.002161590013344182,-5.232563811213123E-4,0.0,0.0,0.0,0.0,0.0,0.0,0.0,0.0,0.0,9.070379491960547E-5,0.0012554512715065125,0.0038749492542445676,-0.003790488604351842,-0.00809142701991481,0.0034231524204991945,0.026825516854035208,0.030931771854224115,-0.003644200236088819,-0.01312299196618865,-0.007097697176619498,-0.006130462544527089,-9.401114495451768E-4,-0.033729669818243914,-0.018606303253463335,-3.745353766693029E-5,0.0,0.0,0.0,0.0,0.0,0.0
0.0,0.0,0.0,0.0,0.0,0.0,0.0,0.0,0.0,0.0,0.0,0.0,0.0,0.0,0.0,0.0,0.0,0.0,0.0,0.0,0.0,0.0,0.0,0.0,0.0,0.0,0.0,0.0,0.0,0.0,0.0,0.0,0.0,-0.005593371746284563,-0.034912191392059096,-0.023370593160708598,-0.019415419706974416,-0.002835440120969089,0.015982407436733834,0.08403279591201591,0.10192455468400334,0.08862342612513255,0.0963827914125404,0.07343071593094644,0.004517145215470457,0.008449194124650757,0.01988572228280433,0.007699177007523975,0.0010264680164962616,0.0,0.0,0.0,0.0,0.0,0.0,0.0,0.0,0.0,0.0,0.0,0.0,-0.011819860925353573,-0.035497750015619334,0.003313042007471651,0.14186793479846987,0.19319416526810435,0.19872613463719702,0.37880418371904045,0.44042380371809303,0.5366770768161309,0.6405988139635864,0.48128855809038756,0.340314828042261,0.3279303038928965,0.2862139670625083,0.22799702371975966,0.14192529839484022,0.1081417874563204,0.0725234541413443,0.02228705059459586,1.1575084713030579E-4,0.0,0.0,0.0,0.0,0.0,0.0,0.0,0.005173896563468091,0.012335266543019665,0.0013884171751469769,0.058745868950861355,0.2143024926985337,0.10538622910501502,0.1347142714369717,0.23243562400013565,0.09528273773853346,0.18795567181265,0.28930352577926177,0.5003166051057963,0.5347547280671584,0.4613699129878304,0.5471305335240186,0.6034234772503079,0.5504716802855187,0.4261296166623898,0.2890807407416366,0.16913626247553074,0.058523539725700104,0.004377569016819012,0.0,0.0,0.0,0.0,0.0,-0.003137199703564973,-0.01971487105678994,-5.365317836925021E-4,-0.031147851289092837,-0.07221302748205487,0.020341156105474788,-0.0022451524861991207,-0.09291618041174438,-0.050091822004704294,-0.11109976512301004,-0.10459673763762328,-0.06305309983234329,-0.09986242641241899,0.03731912870818025,0.11418776275532966,0.14680840355639355,0.19870661609268836,0.221890912182855,0.24994809655438446,0.16465462345383808,0.1543365291241959,0.07325925075591734,0.008479014191293238,-0.014630355022687622,0.0,0.0,3.3247149200733893E-4,1.896033038024186E-4,-0.001590832700898015,-0.04064556845079158,0.022082256325498578,-0.07231730837657817,-0.011920115284116234,-0.028400772079087745,-0.0017953812694670444,-0.015733327217002335,0.0034850919209875736,-0.13714909562716418,-0.31457392122548705,0.24991281386488537,-0.11811725628191697,-0.06104575003551324,0.0015045985125799169,-0.0683564047089306,0.024607321643663464,-0.009755064677290657,-0.06691573533209115,-0.062073002161817714,0.01826868811529482,0.019619155849182154,-0.0075049958789911875,-0.01939140884896685,0.0,0.0,0.0,-9.925381232833428E-4,-0.013173854580030205,-0.027272571135378953,-9.123307686130117E-6,-0.10646282807219891,-0.011088923287438709,0.01897082049576793,-0.017952898518356405,-0.016207656935739015,-0.007330694861290746,-0.08435823225238304,-0.10596130186529322,-0.1965847239917485,-0.17002614525947202,-0.030760506220829723,-0.07394081657842912,-0.13991505394645912,-0.20930928203256352,-0.13850939138133755,-0.18283607981716365,-0.10206663327291227,-0.01327037355523211,-0.0709602947851482,-0.03481571711794513,-0.002650862081264418,-0.0037639795412636894,0.0,0.0025975780503238715,-0.004840194565357962,-0.011505133314101402,-0.021747672108521646,-0.05522279317537344,-0.11234349972832884,0.0018539350279008198,0.05074703147860491,0.022703353464549183,0.06371678874620763,-0.2100197435803472,-0.06672294507306524,-0.03878080226576018,-0.1557174421680401,-0.040467659951624754,-0.13445750374788107,-0.05263124148971774,-0.12749043356798131,-0.1290842190968177,-0.2639068072570512,-0.19841764997123185,-0.14219491400868137,0.006079906434792258,-0.0908658000538312,-0.05489610519740885,0.003277188453114959,6.948505981189648E-4,0.0,0.006124281694853896,0.005260048073873628,0.01769505099761599,-0.07453949479995875,-0.03622521297458942,0.03692335416621228,0.05524302181149293,-0.06947112185484294,-0.024996944325871805,0.07896296339244906,0.01793937530407767,0.012919387100976065,-0.15410883357614735,-0.022098891161795718,-0.05884087467974322,-0.060243961010621364,-0.3733277373238545,-0.14071300484248556,-0.19699645045195607,0.010038267676856134,0.014356539099056315,-0.09364720775679163,-0.018792742867853852,-0.005850492106889682,0.022193139634987414,0.001400618382733663,-0.0069866398462691956,0.0,0.02071768797175496,0.022548430261644027,0.016549046694867415,-0.06118479289228801,-0.013142647688177739,0.04378229334577915,-0.05420531209343986,0.016676413911351867,-0.022831756610788904,0.05453972197482232,0.040528960521555905,-0.060934342828744915,0.2207605437242458,-0.13332916932724131,-0.13894610065603494,-0.14345531275215959,-0.11946998508779141,-0.17654502996093713,-0.12300361751761538,-0.2555326708595845,-0.12976372147855122,-0.16706934611167512,-0.14762373554829242,-0.025019132162910872,0.022879744891960575,-0.010330287235138935,-0.006834224428723791,0.0,0.012284375140908478,0.01907690881080484,8.562250647437842E-5,-0.010041482306900896,0.02503169789826202,0.02991443467081591,-0.013502693782118613,0.05762383239971136,-0.013551569025007804,-0.10894398591690509,-0.0379553641127402,0.04703112231067767,-0.06870990180450182,-0.02030795203217272,-0.20485796997323213,-0.111826905999686,-0.23336259404365878,-0.13467043226988887,-0.24215220299663723,-0.13987954277535286,-0.1777486051485406,-0.19615366521167257,-0.1468253441673809,-0.05452341416510862,-0.056234096575408656,-0.04820792439298401,-0.012964462239656522,0.0,0.011084551925932747,0.018685307529761663,0.0123525491949702,0.01629986461157598,0.035832542003486935,0.0384684695193121,-0.00316283254807085,0.04390434269404512,-0.14285596157379815,0.24479901513146876,0.034272643742519475,0.09433131590420091,0.047488299446571285,-0.08694074031858395,-0.07376973373740536,-0.16339219450704764,-0.09931541370526296,-0.09872818154386653,-0.06617516905253001,-0.1638144248605091,-0.036771534026940444,-0.14701157262427486,-0.15724427796764473,-0.12311311622430657,-0.10996673111854009,-0.06449457886621993,-0.012349631226744272,0.0,0.007102464686674424,0.015184635539621617,0.01391061308083163,0.032809000135722584,0.055733551942619725,-0.057357406779940626,0.059427165662449724,0.1471160688627632,-0.020262471226589543,-0.11829504059982886,0.062145702630874315,0.12354111824821247,0.008455826463076535,0.005400564419997468,-0.0464472178401721,0.048891885359143704,-0.013641281352064761,-0.133793276510501,0.005658704523926447,-0.07137413847240014,0.04285492983813288,0.12999488827935538,0.005212993469151756,-0.02106630647579562,0.06478418874381515,-0.004538331347287199,0.0,0.0,-8.578156403801509E-4,-0.009319274241455662,0.02213744362568469,-0.012432973987941558,-0.007585321059675635,0.02111440932688017,0.02713953457245757,-0.039504490306241286,-0.012862744762805078,0.07279738296353308,0.22899557337621945,0.03954326882783164,-0.03484537363371639,-0.005481824791896323,-0.011893933771853445,0.03171484455101333,0.05648830737446618,0.07795956137105908,-0.01601416588761728,0.11252539892282115,0.09645076609471777,0.10601376183524655,0.15264310354226973,0.12184101857176244,0.13153575897914505,0.027443319730051003,0.0,0.0,0.0,-0.015646065210674274,-4.434303155849313E-4,-0.04033230489735901,-0.08192272862163312,0.004638096798113168,0.08132002860662817,-0.02282355961278186,0.1271154922159636,0.10345061857825766,0.1605394634198265,-0.06364362794021934,-0.021781484619520564,0.039045848977258005,0.10557865170877592,0.15849877497292703,-0.02330953246395324,0.1740981865938221,-0.02094489931091214,0.024282458950535202,0.21936256946320898,0.2107290970761602,0.2094833591148781,0.16418745732466705,0.05940646892900364,-0.008264503892954042,0.0,0.0,0.0,0.0021827141632480875,0.013298297361384171,-0.04442134418929665,-0.16621153930926294,-0.05991703639736851,0.0374383099336175,0.0031842190929886544,0.07522453411994091,0.1495151743900198,0.020026756897082273,-0.024756196211471498,-0.031354360749687844,0.10071665649960142,0.12865308320428553,0.025497567217770627,0.017657306490711077,0.021247427736451652,-0.01954367103943166,0.07294820266271296,0.2592418148970178,0.21928807993756136,0.16556649795743084,0.14373684559774338,-0.09951261215633643,-0.041869798309867125,-0.004111127216161885,0.0,-0.0011746817689497644,0.007223373117897343,6.956602134478767E-4,-0.09798154597479215,-0.12272024112141741,0.04425212826885393,-0.05643687129061637,0.005052645650560334,0.18796889085053134,0.059992071566681,0.01521568227373641,-0.06961311243247795,-0.029365403113099833,0.0821321185889501,0.1685940787800988,-0.04732327689900142,-0.17797441804284814,-0.01150788885516482,-0.05613413435347858,0.13763460049577741,0.09843935896093084,0.15698840721122884,0.13295291397316217,0.009279344669900245,-0.17756257667112885,-0.030650737705154925,-0.015976672406886907,0.0,0.0,0.011111490539650661,-0.009706846449178116,-0.06424229506377452,-0.13671158511062886,0.021532436615901505,0.056027425648716926,0.018604271396752328,0.04405554972506896,0.23911386938117166,0.1307852270736869,-0.08412462432751677,0.033459758446764236,0.11307065201217247,-0.07642302075072656,-0.07562588528608452,-0.011992949817458945,-0.012150358379424428,0.20134794965774488,0.2233165049912333,0.14058637350666756,0.024985672630966533,0.029073209468190756,-0.055347168734763794,-0.1704681483057419,-0.022850872318576545,-0.013885417440496123,0.0,0.0050362971695916605,0.023086359050348722,-4.1306539329706994E-4,-0.04168453102611651,-0.09553829120623393,-0.030996859351494623,-0.10996931125903849,0.020950768242283594,0.2515967383142794,0.36476597985903575,0.21802533855089032,0.08967793503299148,-0.061719121428568884,-0.1512364848544109,-0.0253143056055754,0.14790940869737432,0.10637825001153811,0.15233245685837915,0.07658554082236387,0.06326836298327829,0.05967352463838807,0.10727882808750507,-0.005663592949856673,-0.025546667825718863,-0.06984885816146084,-0.01211740391421342,0.0,0.0,0.009921465901157658,0.013259469237653209,0.034562782367197,0.01434567211047282,-0.07770560363555803,-0.10092249503469428,-0.06336329019217249,0.07132273342962622,-0.24116171328097089,0.5254360670606232,0.18455978808383738,0.43556829767310035,0.06334438584713276,0.17336962381948592,0.02421536540352538,0.018379932688691925,0.09039560430984775,0.3170439274358799,0.007479985305880169,-0.16244707719133694,0.00388197618646857,0.015783600923906516,-0.0796788689807986,-0.07981958916227583,-0.025845550615434816,-0.004907792203173924,0.0,0.0,0.0014225869268330248,0.0040193619176282685,0.07629192099210896,0.025225077911127207,-0.13104835458220607,-0.03966373684779557,-0.06020722770868482,-0.011684226882933151,-0.0057472922584314145,-0.019561298461896488,0.22237689038673886,0.2066157425025465,0.2604663192981459,0.057603123613741196,0.4088029517909325,0.11021868257091437,0.16599082352047734,0.004140928988747464,0.11239214591993772,-0.036617997510096596,-0.08894490086145511,-0.15114143551177533,-0.17404656056975024,-0.0943647324776592,-0.03894840572159305,-4.685726155489871E-4,0.0,0.0,0.0,0.019451247711051046,0.07827239824408878,-0.009818078048234403,-0.05742880184543458,-0.02672264588344669,-0.027665003634022196,-0.1624961122463204,0.036937822494789545,0.10116582703346458,-0.028792139055854777,0.15189226904747158,0.2422399728492912,0.21765498476524542,0.12641026064583508,0.2334060797912491,0.08768010477039638,-0.0015315640090556172,-0.010574179204032044,-0.0060290382087468545,-0.0874502884333041,-0.07420861417340613,-0.09803943116741108,-0.08140501079669966,-0.020224464736235962,-0.001249628644919102,0.0,0.0,0.0,0.0015005996619749688,0.03450275750473881,0.032011007295147526,0.020843960933172822,-0.004503577664871441,0.0518468860105448,0.08248180802077422,-0.02269654481134776,-0.1501011733041223,-0.05433163929917214,-0.10780165420620982,-0.012671915023685029,0.05731120538853073,-0.3411166308945084,0.0833154211470811,0.10178541004321022,0.0443428467479843,0.09152648174319344,-0.011436912383824466,-0.03067170201787477,0.007466969422412444,-0.0055291321631212665,-0.014330177123252056,-0.006408367355471494,-1.317430457048769E-4,0.0,0.0,3.386473378456845E-4,0.0014840128704283943,0.007234292994927443,0.034355397990547015,0.08197050156347135,0.1385253185321791,0.1606822588977689,0.10489071836838064,0.107766120703602,0.12170945755082825,0.08315928023596336,0.02129778755147143,-0.20092038920080044,0.003401266070631971,-0.0691209617504527,-0.06638282129535085,-0.07950884038355911,-0.01598331610407877,0.07574965778715262,0.04160411435252207,-0.0010777230301010998,-0.02652873814139304,-0.024607106980356636,-0.0022604173933635364,-0.0061194628761589934,0.0,0.0,0.0,0.0,0.0,0.001074643965572618,0.026339175323737102,0.07774724476972089,0.12222201375606108,0.11941878574646249,0.1333582359822744,0.171587463745191,0.1445443747454586,0.12222077746246904,0.13539312432842973,0.16446763736637965,0.09837026613574879,0.06689242060441056,0.0036654074056950755,-0.09930802700096449,-0.10795084189189591,-0.04953026564871454,-0.04198369117722543,-0.031768131878793064,-0.0157326269598588,4.56931409152694E-5,-0.0012846934981241057,-2.7796284911397564E-5,0.0,0.0,0.0,0.0,0.0,5.127283280774576E-4,0.018764374140013553,0.0349253994548758,0.050307639937470554,0.10938347910654167,0.12325820143114802,0.08276114950037443,0.10649375307107921,0.07071916792260674,0.09193582611642984,0.09784843621421216,0.059059477430075336,0.1305562710153607,0.037665996888448086,0.02105672940829527,-0.019812135632062244,-0.028625338724336813,-0.04173934197657165,-0.02310650421507402,-0.012442838297086915,-0.004409484273861366,-0.0022704378390899648,0.0,0.0,0.0,0.0,0.0,0.0,0.0,5.708625043220805E-4,0.006132063607996801,0.016352514840545434,0.04150305673132362,0.08255475695362503,0.10766423156592045,0.10705352744439797,0.09657455456576294,0.1696956204660126,0.12543969890581422,0.11064901831851782,0.1165453064018584,0.09234468680913353,0.09215428267386397,0.021351938413541275,-0.011163147507367467,-0.0058332990114874,-0.005028862816989421,-0.009010915922211381,-0.003072783437774456,-1.358027936216242E-4,0.0,0.0,0.0,0.0,0.0,0.0,0.0,0.0,0.0,3.615217286562238E-4,0.005090397477106894,0.009828226254615796,0.01688731599070337,0.01451719088649969,0.00728725942389218,0.022712558586411993,0.02000134836658221,0.03476807151395211,0.03228956975444273,0.03521821301501338,0.022487407748113725,0.01875388615225249,0.0017451112373650388,-0.0031678803957197656,1.0666650992620796E-4,0.0,0.0,0.0,0.0,0.0,0.0
