0.0,0.0,0.0,0.0,0.0,0.0,0.0,0.0,0.0,0.0,0.0,0.0,0.0,0.0,0.0,0.0,0.0,0.0,0.0,0.0,0.0,0.0,0.0,0.0,0.0,0.0,0.0,0.0,0.0,0.0,0.0,0.0,0.0,7.254898879326904E-4,0.0045114016197977886,0.003020385347392167,0.01143309212244027,0.010950902193111999,0.003768590465503938,0.010020702317478196,0.01191396456782362,-0.0072506211730195,-0.011352569942630664,0.0024872938591118435,0.001763968468503952,-0.0023577670327019403,-0.0034890022469431167,-0.005286856127303873,-7.063155567141369E-4,0.0,0.0,0.0,0.0,0.0,0.0,0.0,0.0,0.0,0.0,0.0,0.0,0.0032509558097379627,0.001678883267903672,-0.005204299244650894,-0.015401683826471665,-5.435651347728581E-4,0.02226049079073692,-0.0035692097215611817,-0.018284044645478455,-0.03764593262389791,-0.07436506017657034,-0.0672128876895876,-0.07387640798266576,-0.07444613567876178,-0.05590114083860086,-0.055139505687572365,-0.06165897814495712,-0.03699069441229307,-0.015946254044374646,-0.010214031678619711,-9.352961510878093E-5,0.0,0.0,0.0,0.0,0.0,0.0,0.0,-0.002254026537353049,-4.8172531548538436E-4,-0.0024998733590838,-0.016793218337045064,-0.029776121402809486,-0.02976782640289712,-0.01965275212775625,-0.03692389384669022,-0.08756723491438735,-0.10859276655177862,-0.07707903001284878,-0.10572911372206552,-0.09886122933601314,-0.1345598087712522,-0.16465051158280683,-0.15167426745056642,-0.12745385423342567,-0.07232422128359853,-0.04523982576743735,-0.03198792731801746,-0.017455212307775057,-0.00209413789187017,0.0,0.0,0.0,0.0,0.0,0.0031798119287466497,-0.005380875753260671,-0.003928204094614864,-5.022328400299871E-4,-0.028473396422732455,-0.07632810648672075,-0.11901859697389507,-0.07466829527007837,-0.06666189389176967,-0.02789613766167077,0.00955804419165312,-0.0034001831784655065,0.0054329824691169495,0.01917172864041312,-0.021905742152483643,0.02472358714970108,-0.01101417216104614,-0.05568360425893653,-0.050292475229441344,-0.02466438705504546,-0.05600857280686358,-0.032648564248909114,-0.004778810518971267,-1.1405593650573944E-5,0.0,0.0,-2.1548783788739322E-4,-1.0938291024107262E-4,0.0029451824050517657,-8.5214058086732E-4,-0.03092412932482171,-0.035994982077168794,-0.07347559645381742,-0.07398506227292306,-0.10229469719829151,-0.12001402364225744,-0.006455503742002779,0.040972310398829065,0.13122832036269255,0.0955494827944537,0.07119187254986592,0.05628732677258484,0.0328116582605551,0.036814431707719114,-0.018456621597990233,0.01600446064227656,-0.05035659839695737,-0.0690171532186565,-0.13694039548474335,-0.07925652648114781,-0.010371092088154005,-4.840736183625192E-4,0.0,0.0,0.0,9.641588247354916E-4,0.01201052104408528,0.01990220448908825,-0.014269742783886714,-0.03455639445161265,-0.04458972987310735,-0.0029847182340656518,-0.05591106530608334,-0.053548738267054155,0.07013322626280988,0.028169013447584157,0.11198273603838861,0.1005962498457091,0.08837447567319658,0.06030984507222097,0.08408587433323912,0.047141752903038896,0.028990891965862405,0.032291804617950094,0.017337212841474013,-0.056525275886636306,-0.17743072940691743,-0.143202685126375,-0.05597856141742945,-0.021344341115800646,-0.0034677965204434305,0.0,-2.848331766366955E-4,0.008055221906101157,0.008965036429590605,0.0018927814085740737,-0.011956668910018885,-0.020980928780149035,-0.009214742560524366,-0.018235924993955935,-0.04290267492168571,0.04174524705577084,0.036565397258585035,-0.007427411787379602,0.026551321611421014,0.19775476225914487,0.15776191115180055,0.11365940738171601,0.06800010504069613,0.14692068637570618,0.06929389386830086,0.027782617071628334,0.06178273832339739,-0.0165614629122883,-0.1695781865281172,-0.2022602107778273,-0.1201355489845061,-0.03836607361704722,-0.0013909993477880021,0.0,-0.004254708185509482,-0.004025997072880094,0.0010113064850126399,-0.02263112152439455,-0.028111415765722986,-0.03489584096548417,-0.02242616740159607,-0.030070176867054623,0.021954419224840607,0.037556100841340666,0.06438719312977675,0.07574061867508323,0.06630037273828739,0.10214922348413041,0.10289797411042563,0.17017612791071154,0.0877030908255454,0.07995136864284745,0.06933768846634394,0.04599965840814589,-0.01945109900667138,0.03443623669965692,-0.11748781922513214,-0.252741355547741,-0.16435075214503167,-0.07954470353998658,-0.007998371622758958,0.0,-0.005864802708356951,-0.002574412468409893,0.006254276458214811,-0.04518930054002604,-0.038446202675874626,-0.0012329361487976218,0.047146681563640484,-0.01940289858947441,0.00715214987785358,0.006822665389009471,0.05852690792877626,0.056243475080248524,0.05497497204215373,0.06722979172605581,0.09246256506715819,0.13075379570459153,0.12561197179533046,0.15348207256849367,0.1387394073140431,0.12504179982714594,0.06209547317474462,0.09083388676954542,-0.022009026668699055,-0.21530181152482503,-0.16231859047125383,-0.055090859694961095,-0.008159853197056801,0.0,0.0016831654325520958,0.00552945428065852,-0.014868452132121396,-0.04569909779269303,-0.051765221906582,0.02080611813098942,0.021325131698490773,-0.021301910808236974,0.0030540897574544,0.023634065240362382,-0.00833781856348421,0.0661623351990792,0.09206808599932889,0.06792553062328963,0.05189595333938492,0.030628590040466735,0.0845252858595303,0.15440629067600126,0.11177812149671018,0.1279453614319523,0.09296983524528234,0.27811406985289444,0.17437867512198374,-0.07963605257745604,-0.13281389390823387,-0.05916826202125207,-0.016025250763423707,0.0,0.005142929504079725,0.00804665810921173,-0.017071520936807572,-0.041164875618520065,-0.04920119016414552,-0.005976389124492722,0.009996591832418448,-0.01473091266233029,0.07890235554414997,0.046789249652166846,-0.007940282498884241,0.09361040502797258,-0.001696080150065929,-0.04275941593843612,-0.07449201854174994,-0.07506465233382452,-0.013319887931618509,0.07211086015487406,0.053471420502897306,0.1289787978442592,0.12951759727802,0.3248467123333516,0.3515679626531322,0.11345487133188338,-0.04529468016236921,-0.02352211544645622,1.946980613136706E-4,0.0,0.00479728060233989,0.0038172676318553905,-0.019594794195897155,-0.03915090414063766,-0.019256775932965813,0.05603517946853164,-0.09550484351455851,0.04590501307497099,0.036521699247261286,-0.012829214404853226,-0.010784561117790829,-0.09580390347718828,-0.166105352162294,-0.12230957383437671,-0.05858063810358022,-0.12207643471968724,-0.11008843681415716,-0.07767976594289068,-0.09142056016728314,0.04369537221743397,0.12294024237144024,0.29509388092139877,0.39736517000035526,0.18829530630723074,-0.017909095742595277,-0.005900804818926586,0.0,0.0,0.0014005998607959991,0.004404020599798329,-0.018372029414905997,-0.01736689861120632,0.03462020350873594,0.11367066550469564,4.362993256761766E-4,0.06416876216281717,0.07747212530449087,0.11164825869803963,-0.0071419076837594036,-0.12267010849394912,-0.17896151292744428,-0.09642917773240535,-0.09171997672480775,-0.14942181878665511,-0.198743841454062,-0.16408941855812464,-0.19331153593973713,0.0340773246758945,0.13733032461736938,0.3001678682849797,0.3318214834883041,0.14035312184352058,-0.03228620724542702,-0.003474975691695357,0.0,0.0,0.0,0.004620964402684355,-0.0030345302906146557,-0.005519409030680612,0.0889486586852525,0.11490372174628753,0.08856253904537985,0.10284689738439934,0.1880757287517366,0.17632164429311292,0.05638422147934151,-0.20856224134106455,-0.16368079667918758,-0.11783460773684402,-0.10497483852226797,-0.18559431525951967,-0.16556723031280812,-0.24506108301902352,-0.11731812450896827,0.11760412711301646,0.20806788139741175,0.24027735595420052,0.24327701288816614,0.062074373122884885,-0.029158436350219977,-0.0012458753068564786,0.0,0.0,0.0,-0.0018933285565805081,-0.0227741239162958,-0.0404426269163556,0.1589068299698662,0.1429052270121904,0.11751655187294362,0.11649558550770277,0.10847332286522668,0.12189085178326713,-0.02212494632566389,-0.19928513902567216,-0.08763882010460045,-0.044370974940311385,-0.09263216216632673,-0.18032182432855728,-0.2007234673189911,-0.18572805380395305,0.011232671095699427,0.15077373060614108,0.10757448917838555,0.13097205981718976,0.12884063185340094,0.02232388749892599,-0.0037008566790961766,2.344018646612795E-4,3.015696570889749E-4,0.0,0.0020012432168762095,-0.008234376504057566,-0.05051822806785489,-0.01606911868815716,0.19323815884685203,0.1488336769133946,0.13893370251518067,0.13034025351712178,0.08943784801643093,0.08895498766451217,-0.0533006955247456,-0.19957874644411117,-0.09256563138912238,-0.1781613392572977,-0.14395438447099848,-0.16508833549528434,-0.14833523302680685,-0.0980278796594413,0.09826473129637785,0.12233083297354752,0.030906039113565816,-6.645639851355603E-4,0.04907790987486248,-0.009035289217442547,-0.0021360962854938244,2.465331415440192E-4,-0.0010071815387543547,0.0,0.0,-0.002782067493236407,-0.07355494451621343,0.011189346506359433,0.18630747708659398,0.1856519874641687,0.11552095596216205,0.07761303317024623,0.06581487698924628,-0.017514001201525083,-0.040860519770642624,-0.11736817697932185,-0.17373337795304356,-0.1583540088207258,-0.16537735350798424,-0.045030788439060505,-0.038344812146971205,0.05583588306536749,0.04094748739372869,-0.007752468922505687,-0.04052103064491221,0.0014766496457943156,0.060135519573118495,-0.027644892349717325,0.012709926388710734,-1.2267323852615473E-4,-0.0011418028324182092,0.0,-1.9524904052829035E-4,-4.100178924358243E-4,-0.09460425074060755,-0.023571697706406814,0.04814786740052747,0.09681459533865497,0.16654738821561854,0.10208223443873721,0.024498024191521826,0.0062796044066559635,-0.006350675392460088,-0.05358623949424749,-0.04801404345957784,-0.0871953553762321,-0.030850071220549034,-0.06841135422826368,0.01992287235338276,0.009771974049504716,-0.006813238131030161,-0.08119488012573697,-0.06261412574985156,-0.02623409653063626,0.0033803881236990517,-0.04900594753575598,0.00711085611767463,0.0039644941640721845,0.0,0.0,-3.740636825381347E-4,0.0025164026528900385,-0.11257481971442851,-0.045764648304900006,0.00861880541781304,0.03022945613081156,0.06691177586154985,0.0799389976097681,0.06791041883673792,-0.003969501216212813,0.054327944092770954,0.05617997305878456,0.04795572377807447,0.059313882744207264,-0.00791298815192368,-0.0068503852768433075,-0.012400282006718695,-0.0368547655884987,-0.05987946656595455,-0.027578808456014892,-0.04338367145139357,-0.05184789295564393,-0.019026324140473394,-0.029498309585864118,-0.00404436971120939,0.0015570661588201295,0.0,0.0,-5.361351602612058E-5,-0.0021868233861515964,-0.09437508869552767,-0.09918286464808267,0.010314293862757062,-0.023526137781560725,-0.02735712523303727,0.05113306629037983,0.03852751910313007,0.07047147450602126,0.06377560300569717,0.13472752538460417,0.07546495745895308,0.03981653624631252,0.019173397955198516,-0.07519039964272771,-0.014082632185673235,-0.010293747354599023,-0.044752530073173376,-0.004209323053419212,-0.04518958523436861,-0.008810725733734209,0.005705764992330929,0.008228621672973608,-0.00113677462530248,0.0011869953547263253,0.0,0.0,0.0,-0.007901959127452994,-0.05351641894885512,-0.11402431344331321,-0.06330178027335091,-0.01097510881111473,-0.025994440558250963,0.05036044650657149,0.10457241871427951,0.07692709148366718,0.07475971001798981,-0.0445986712506519,0.02238993413012703,0.03792133504723866,0.03120850659088109,0.08198970507768466,0.005065337397215965,-0.03797300899903413,-0.05049239965076122,-0.0969071061763257,-0.023303338892816026,-0.011935862033732612,0.0036616253792766066,0.011543333636751623,-0.002443064763516439,0.0017190380887026362,0.0,0.0,0.0,-0.005539667151418893,-0.03864601064440869,-0.09645985277351024,-0.043214708318141816,0.0018019757276026846,0.04284244287180371,-0.006257413037453832,-0.013806022831930574,0.11074496623876241,0.14611438287106815,0.08800329102526996,0.12952499588155011,0.11695073890908844,0.13293962509511284,0.112518417477696,-0.0029249008426519203,-0.046137295887596276,-0.04422089365989444,-0.019155664180063633,-0.01065820741524133,0.0026112586982029815,-0.00915122317664617,-0.005559988870208597,-0.005047496944554008,1.7277922521161676E-4,0.0,0.0,-2.1568924354729065E-4,-0.0021513251649487547,-0.019599035246186863,-0.04953070187587536,-0.030441807252471954,0.022285356651082486,0.0053763900730907825,0.007055292604317319,-0.028789374483689636,0.03714282867061162,0.06398941378237596,0.07451945247561909,0.06112481379492926,0.09617456861296303,0.10092203773367037,0.11150404115785169,0.10067200129584951,0.034142018854175865,0.02737201652927768,0.03676852176988738,0.005477933960084556,0.02598579658880661,0.018943037448301052,0.004984993164432796,0.004627775108478959,0.0,0.0,0.0,0.0,0.0,-0.00562638758887438,-0.015616958822217789,-0.020734436714212528,-0.045506527016754734,-0.07944175371766968,-0.14385900833129253,-0.10614057763909393,-0.10309087471703608,-0.14593032038605988,-0.09714598187180208,-0.07656687760574271,-0.06967745066741689,-0.08700035023039662,-0.0068073901179931855,0.039140030194007094,0.04689498621349025,0.05672202230015125,0.051136779653126026,0.009895845405906701,-0.015660613849826543,-0.0038147583988645097,-6.776497076693769E-4,4.1718044847323706E-5,0.0,0.0,0.0,0.0,0.0,9.612854741837589E-5,-0.009564719827900843,-0.022987616992098437,-0.05027321361980787,-0.0739950738682727,-0.11188153926298992,-0.14275719056403138,-0.167603833026913,-0.13761250476858256,-0.12478326846261129,-0.0898493965234882,-0.046571445745778546,-0.07587661316912475,-0.03088650595897512,-0.023941897057322904,0.021011129704326746,0.007540300973852128,0.003994370771433276,-0.007669457831411925,-0.01720474634723037,-0.005232328890953057,4.7086483828740784E-4,0.0,0.0,0.0,0.0,0.0,0.0,0.0,-7.880867415273467E-4,-0.010627937838710107,-0.027957978739618167,-0.0439226916419087,-0.06410116915882584,-0.06863183749175701,-0.07455170654306414,-0.05381112445974271,-0.06955374266925776,-0.0955350493097971,-0.0896763724045326,-0.06954812902669659,-0.06080835468757752,-0.04665920568519429,0.009502646441619063,0.021941581443674345,0.011438385767232948,0.00630840815960621,0.0017049806477681846,-0.002034656331851895,-4.8091042990369996E-5,0.0,0.0,0.0,0.0,0.0,0.0,0.0,0.0,0.0,-1.5276076679049207E-4,-0.0030493443637156043,-0.005501969249968178,-6.282510402727474E-4,0.0013504235022555437,-0.006356555001793448,-0.015476114985997904,-0.01686009281201073,-0.03736819196013493,-0.022973805084075576,-0.017731698768218705,-0.012519229993808586,-0.0034197555472483187,0.005775438409941869,0.003998710913726965,-1.1924292404743148E-4,0.0,0.0,0.0,0.0,0.0,0.0
0.0,0.0,0.0,0.0,0.0,0.0,0.0,0.0,0.0,0.0,0.0,0.0,0.0,0.0,0.0,0.0,0.0,0.0,0.0,0.0,0.0,0.0,0.0,0.0,0.0,0.0,0.0,0.0,0.0,0.0,0.0,0.0,0.0,-1.7966435035861328E-4,-0.001095998487122896,-7.306883376904194E-4,-0.0015170910189097387,-8.793149847512993E-4,0.003626392658986861,0.002476202000843989,-0.0022780376288594564,-0.0027348791795484893,-0.009986002017059958,-0.00592595020024617,-8.649229804103263E-4,-8.067538947923909E-4,-0.00199872948022997,-5.086686351297115E-4,-6.814638765166575E-5,0.0,0.0,0.0,0.0,0.0,0.0,0.0,0.0,0.0,0.0,0.0,0.0,-0.008626316068070867,-0.014762585806356707,-0.0077961973794102545,-0.003936829379755848,-0.003709726722427438,0.002009103892167355,0.04530002955566836,0.028461446753968594,0.024692232290744517,-0.009725726153244782,-0.0025650070357020526,0.004966470169123668,-0.021202396040116575,-0.0331289909788869,-0.037981325490281236,-0.026209887931367568,-0.006661022721631007,-0.0033938665422408084,-1.016349304924762E-5,2.7581359304183366E-5,0.0,0.0,0.0,0.0,0.0,0.0,0.0,-8.353840770179252E-5,-0.0041130396458284426,-0.014160849530921466,-0.017466387027688875,-0.0183654800462504,-0.011521776417373512,-0.009904071299925437,3.859114551654722E-4,-0.08017923125487264,-0.06308422697992844,-0.03537777157008596,-0.049568443775409574,-0.049560969504589214,-0.04961478730400438,-0.09297630693623525,-0.09449277963071309,-0.09438373260915592,-0.07238751864238566,-0.028287163216615573,-0.01226022029189671,-3.030279201237483E-4,5.004474782894739E-5,0.0,0.0,0.0,0.0,0.0,0.001741204117782915,0.003888448786461804,-0.0014620697319202226,-0.02038442147928272,-0.029278209242127866,-0.03694967288114733,-0.06852897321325979,-0.06046729961434048,-0.01737576067773412,0.011699170194666143,0.00378846874847935,0.02636813016649602,-0.034509339887886334,-0.026910164132668238,0.09380444933854314,0.06588958639928678,0.06678095712644874,0.049076175013268476,-0.023792108125590926,0.02103538356899433,-0.033965441086685394,-0.019588924996785356,-0.006922888764877563,-0.001143816631937756,0.0,0.0,-4.2082296234183795E-4,-2.327138837897024E-4,2.6127575502706083E-4,-0.0024577120307173565,-0.009808422087584793,-0.019387430057790107,-0.03712173680902696,-0.09359420245196567,-0.15732486746699656,-0.1376966672017156,-0.08140184034913199,-0.022734521003276865,0.03167020793431656,0.054923737877684675,0.03954496489208156,-0.019063370885069764,0.043854803809726436,0.07212824342100953,0.16568712882695055,0.1527679759991965,0.0328678634600002,0.08758527362069402,0.0016939816943413808,-0.012909388996768661,-0.005263252172754912,8.788998236886435E-4,0.0,0.0,0.0,-4.509071569486839E-4,-0.0038767508963323655,-0.011019389076322607,-0.013020461592242549,-0.047235687853412395,-0.05706760033827264,-0.12916691510328082,-0.188042951036604,-0.1518727486084964,-0.04496984847499364,-0.022070120381048792,-0.002216039700458262,-0.031066469308523928,-0.08525814220230538,-0.0523116042193494,-0.018423146286254882,-0.022743386157545106,0.11707217059697783,0.12297790418091126,0.054445646297185936,-9.945565600244307E-5,-0.05086596256394702,-0.03204415549739333,-0.013599840499432542,-0.0025563594926086945,-0.001544252136448807,0.0,0.0010606030963181794,0.0015737235045187982,-0.009891595703302704,-0.02073427677483774,-0.03162749852906635,-0.03936790836652267,-0.05992515204369367,-0.08410120892003457,-0.11707392697983769,-0.14979157042173494,-0.042462326200174816,-0.01115881129627714,0.02134389988074297,0.04783284275087589,-0.009311006949683327,0.018199616416369448,0.05469684640176088,0.06506273315837069,0.10602798487618413,-0.014748527570811507,-0.04841402092965047,-0.04495891801758757,-0.03769960054976991,-0.018250683440482116,-0.017860867259134845,-1.293821026901091E-4,-0.0011435303185906478,0.0,0.0024703128854759366,0.007802071597306738,-0.008938385098868828,-0.020897937335659564,-0.011065252731063974,-0.014400556038297405,-0.01162335696795125,0.0010823720051371989,-0.059285389110219716,-0.07975544353154083,-0.08634261563950534,0.026280386699233098,0.07319387942676246,0.07545729514366112,0.06093169036430527,0.040395008451656375,0.08643977560345238,0.025191717527166497,0.04671965974341132,-0.06403623321090278,-0.05739629743827556,-0.05710026389946801,-0.06072500103669012,-0.07231254539653904,-0.022132619769706655,-0.0110683489765899,-0.002642308016770022,0.0,0.0027028029124848843,0.010606255473423651,-0.00839232471951181,-0.026152282784166595,-0.02718656967790879,-0.025640461334871082,-0.030435511665799542,-0.00648092817012591,-0.02932027395121013,-0.056065344148913426,-0.14815803549305123,-0.0701409631575262,0.07918618355924911,0.14931739996654764,0.08269255189204873,0.09070512434713127,0.0638779901428737,-0.0038696120668263918,0.038025089489562104,-0.08266067271641603,-0.034070287719126145,-0.07917177292119527,-0.06725010405612106,-0.08586065004921155,-0.05244551362806642,-0.01787071324293839,-0.0026184446439546437,0.0,6.045227125021863E-4,0.006377583675782518,-0.007025125265066816,-0.02485361719910817,-0.03418527461651896,-0.010736696699344987,-0.004673806982701517,-0.03729598130872646,-0.03653681447749195,-0.10310090878594283,-0.16946525140693403,-0.12257615947513652,0.07594623209839464,0.32319322242866766,0.2802964654116613,0.0572091669413948,-0.08526512789582621,-0.00729624505565101,-0.03510947695943802,-0.0613454217436209,-0.034618712698717344,-0.03574902583927199,-0.032960517885869955,-0.05919599516410704,-0.04488858963016786,-0.022881208503831373,-0.005143829375640533,0.0,4.5670379352301957E-4,0.0049842135238925235,-0.01275199821955112,-0.010543363545195743,-0.022140604975462153,0.006497081070460375,-0.0022980457076038907,-0.010212500655351092,-0.01043500208861681,-0.04078008870703535,-0.1479517797397067,-0.20153078067452143,-0.036143698332590825,0.40236295694679236,0.336297260607496,-0.12498209795408219,-0.07731056802584273,0.0485522995800969,0.018512757827587094,0.013883267768344537,0.033009376262020655,0.013705770061527803,0.02944233531362117,-0.02568773147204749,-0.05225999053646339,-0.03198458388350386,-0.005949093668186098,0.0,0.0016284453679243816,0.003911594954192491,-0.008770213761836282,-0.0076104623328499595,-0.006674663280424638,0.0038990438052596767,0.006069089027876868,0.017943104085752386,0.014962328356842532,0.05325462351744717,-0.18546704954832496,-0.2917960875967524,0.013659630959801753,0.5678169779545448,0.24113250057974292,-0.20637241597409076,-0.1470036850826387,0.007433747097528325,-0.00310858663171639,0.02823993244987167,0.04076270428585338,0.05794657608758108,0.08063208362438139,0.014507434025273346,-0.010866132459236318,-0.004515365666871253,0.0,0.0,0.0012617206204674093,7.975621729137594E-4,-0.004527775688716913,0.006700045363527682,0.010188729188091014,0.040156771072282285,0.0156879042126708,-0.004190916379440706,0.014061737145433207,0.039291727094862575,-0.18548291992981986,-0.3776915993984674,0.19606999302102543,0.5319246061875605,0.08684479225217068,-0.0736084643175295,-0.14623275616703668,0.057601734455246904,0.03318205282580448,0.03351007510888846,0.0496640782364231,0.06464526300608539,0.08677420253503189,0.02745662546794755,-5.149343538324176E-4,1.6263618045722985E-4,0.0,0.0,0.0,1.6243278753279837E-4,-4.4144477821946894E-4,0.0029880461841075,0.03422788084328925,0.019169250653251556,0.01381441456264141,-0.009075356042282127,8.182121777167801E-4,-0.022895065957208145,-0.2527105887428706,-0.3340651876981452,0.33768607082944085,0.3810990922980477,0.061278123710953376,-0.17779764811259133,-0.0399704808543078,0.06882564229133517,0.009716639417253724,0.038751992254178476,0.05449201961441277,0.059524003051289166,0.04899515677281189,0.010083641148093984,-0.005810039947104088,-0.004923779446184712,0.0,0.0,0.0,-0.0011708318282114686,-0.005221468094513785,-0.003086143616938789,0.005433734160309313,-0.01294893316210369,0.012293766561790778,0.011992792377929617,-8.81303922153377E-4,-0.0226695785406013,-0.22375861922184406,-0.12878638902818418,0.28785484449768006,0.28794593390657885,0.13874991281928112,-0.24628308178087854,-0.031446262473185764,0.006895421328698556,-0.03456793442456351,-0.014514331418091527,0.02608633204584991,0.003202068663602226,0.0101431292994292,-0.029729961276474804,-0.03223208989706158,-0.009859006584033722,2.3818279424004169E-4,0.0,5.430975698736783E-4,-0.005393110401640934,-0.011481512936421873,-0.009570484481206043,-0.023396372556267423,-0.009247972228969517,0.036691983985551894,0.05361709426763605,-0.013070791812115411,-0.12593337112679176,-0.14221653515751986,0.01773921549085355,0.2641577363030177,0.2586760694808797,-0.016392932440525438,-0.11883587163717299,-0.04757214071108191,-0.0030944732615280296,-0.014130831746391253,-5.906379586418864E-5,0.015607652780913433,-0.013600459416563473,-0.008387510715190855,-0.02796397887689982,-0.04236598153619195,-0.001900083459813891,0.003713774634059927,0.0,0.0,-0.011430008330803038,-0.023411507425138717,-0.025868502716909415,-0.012409261983025622,0.015870208848610817,0.01738981577745517,-0.010098299238294433,-0.10467866565966592,-0.11233074641891813,0.010596373408325192,0.043810446117671466,0.286778662955297,0.20679670561242552,-0.006754294567963745,-0.06437130874691992,-0.09966381592336152,-0.04414039151209937,0.004392237312927275,0.015241660030918048,0.03753693451034876,-0.024356738451825972,-0.026480269810164183,-0.07032142872119666,-0.02797405817025188,8.389769699563881E-4,0.0036162085443457504,0.0,-0.0023721629624861972,-0.013042070888241079,-0.025054543564404265,-0.02696019824804036,-0.0034053327704435567,-0.0216657059237785,-0.0951037014946411,-0.04112500268619759,-0.05151045882672674,-0.005138387673046414,0.06654662800393894,0.13401394875923317,0.2392098026768365,0.10257713317588912,0.03681234256936809,-0.05130988047071566,-0.06852870141267824,-0.07681956079352305,0.05021791749036373,0.00663856554376036,-0.0034034808881378558,-0.018563302821185474,-0.041041897450882193,-0.04105380926962642,-0.02317091019602826,-0.013049547377937598,0.0,0.0,-0.00479678485237678,-0.009516958578140722,-0.01647380656492451,-0.053460580572917464,-0.06958613892655942,-0.0735448634626031,-0.09669678241839422,-0.0666247188928504,-0.04610531235043001,0.03420034867507354,0.035968661761418136,0.13191054719364503,0.10062384851658854,0.12465268848655593,0.0393770157434739,-0.08902346372497226,-0.07734237574083265,-0.06754288909083822,-0.008754481404871582,-0.03598045130659487,-0.057868217461124034,-0.07403052166355295,-0.06792905575912588,-0.060918317924448774,-0.017802398616026557,-0.0063032478087539,0.0,0.0,-6.777211229185054E-4,-0.007586365329927572,-0.01545063956705134,-0.05967147087467704,-0.10901821238953709,-0.11052890669998194,-0.08336252216180852,-0.043978707338000994,-0.002246793551429428,0.04040104204743464,0.0685922803812493,0.03814000242403435,0.06374679633104716,0.08696700215531712,0.0684571689919807,-0.01806285708206892,-0.057482993445072184,-0.11035572721926763,-0.09319803600456217,-0.01590148838226857,-0.024265153110653505,-0.09244094362895819,-0.05398176561267754,-0.030517258896963766,-0.004573590171859194,-8.4430655592949E-4,0.0,0.0,0.0,-0.013217223152851778,-0.012723314113965626,-0.0729870321367495,-0.11573413760315741,-0.07536172854724618,-0.05575452289409224,-0.02008501583280343,0.04633093199410725,0.034021953774353395,0.010759576278132274,-0.0326911530451923,-0.03356554084544259,0.08597103392477667,0.05725244613367871,0.05199918282807698,-0.02522664527151132,-0.03449093035715995,-0.07974056451097596,-0.007551187891595177,-0.041301817958087315,-0.05963492951435372,-0.03083877775281952,-0.021630067031795302,-2.417232909708139E-4,1.5438606289924512E-4,0.0,0.0,0.0,-0.008400984334908638,-0.016133056419778684,-0.06553565417363771,-0.0754663326119201,-0.03492812206549737,0.049314926447915144,0.049671005432588185,0.05733875113401182,-9.114630855351539E-4,-0.03574152766252003,-0.07084826278585747,-0.042138271939950074,0.054051253384951516,0.01997612114666777,0.13727521673333157,0.0495896385332082,0.0264986207627774,-0.03844143284572825,-0.030063650931706293,-0.02042943099592526,-0.004321386719763026,-0.01687969744399154,-0.019197199097605606,-0.00601194891539351,1.5048346575096498E-5,0.0,0.0,-4.202165608176196E-4,-0.00465605268548466,-0.01440943848783908,-0.045683931688200057,0.0013374225886759593,0.08213310943039762,0.1828116171171453,0.04953049722822251,0.04898453896423087,0.054347425058487844,0.004824431138413826,-0.019287132964892914,-0.0023089876539953177,0.06106969987810437,0.13156423633474387,0.1813590373874347,0.19521770976258432,0.06257071010429327,-8.118747035616279E-4,0.015251666329716399,0.01185419453644218,0.01399860996210675,-0.011504266419646593,-0.0039344889052107855,-0.0060135630833756115,0.0,0.0,0.0,0.0,0.0,-0.005338443936995582,-0.03510269628555659,0.0036914030778343303,0.010884225103361787,-0.0494540520455698,-0.10224788955884194,-0.04732778046811989,-0.09612403011887262,-0.1421081563433297,-0.11064578832645301,-0.08006693543035533,-0.06212692782240945,-0.061065952872412455,-0.06511270353050758,0.033259136255988815,0.0836611984588132,0.04092214968877858,0.03988206240239105,0.010129030222223877,0.007063519573852921,-0.0018612089966024395,-0.0017382763699211807,-1.083639970509647E-4,0.0,0.0,0.0,0.0,0.0,1.1043404502651742E-4,-0.013157886642078629,-0.03879298527137161,-0.07332077350509984,-0.15278637644164225,-0.18862628243585802,-0.1732901087453696,-0.08034270741866657,-0.040782901957266145,-0.008638806378283752,-0.06172755760955398,-0.054157455151797415,-0.005167449789842309,-0.016507075149466532,-0.012928557065359189,0.007180088649113746,0.00850348436459543,0.008432571468885736,6.603826255770537E-4,0.0010250395741725417,-5.0623299556172605E-5,1.4817672760994568E-4,0.0,0.0,0.0,0.0,0.0,0.0,0.0,-6.562935938250615E-4,-0.012256831978161273,-0.022932997633410054,-0.034900200486276525,-0.025024161482691713,-0.010997768958043724,0.014472357222560347,0.015528417990686843,0.03540074924515383,0.04351226785725245,0.0514583567547095,0.00662888699434473,-0.016398452510530206,-0.010076274780209366,-0.007209242610134501,-0.01163094692388958,-5.488015360578823E-4,0.003124720788235342,-1.7329242689877766E-4,-6.77743198380061E-4,-1.2159050577585975E-5,0.0,0.0,0.0,0.0,0.0,0.0,0.0,0.0,0.0,4.6075706330568485E-5,0.0014437187257911046,0.005997793347842191,-0.007501326469994345,-0.005549064371722236,-0.010168640082253507,-0.005875798409414556,0.0010982579648517931,0.0033458990594475504,0.00570483658724603,0.004354437334180296,0.0036266542138156887,0.0030175083165450162,0.009742558180210048,0.005215937009364318,-1.614811829717818E-6,0.0,0.0,0.0,0.0,0.0,0.0
0.0,0.0,0.0,0.0,0.0,0.0,0.0,0.0,0.0,0.0,0.0,0.0,0.0,0.0,0.0,0.0,0.0,0.0,0.0,0.0,0.0,0.0,0.0,0.0,0.0,0.0,0.0,0.0,0.0,0.0,0.0,0.0,0.0,0.0035469622012789742,0.02201847041271673,0.014742091834204284,0.018337230922701356,0.009337097718605473,-0.005209199707793862,-0.02148242301540699,-0.027355537681251044,-0.020142434267456575,-0.019312849727212276,-0.014517375443066523,1.871090498995568E-4,-0.004927421718082198,-0.010380213113345606,-0.006775510563811606,-9.066780197371784E-4,0.0,0.0,0.0,0.0,0.0,0.0,0.0,0.0,0.0,0.0,0.0,0.0,0.00975501546884561,0.03683654560571017,0.013091090083961358,-0.013732003134662062,-0.028202871474299954,-0.036956861544243255,-0.052962634231006465,-0.06908902966714386,-0.16902386146810738,-0.2035643809994357,-0.14261424493299454,-0.1073171567541614,-0.11006220497378069,-0.09187888230841525,-0.06315756706987534,-0.05942679979567801,-0.041935201091538137,-0.024384830164451744,-0.005245704442653462,-1.3626519350604338E-4,0.0,0.0,0.0,0.0,0.0,0.0,0.0,-4.786053432621578E-4,6.163447372520862E-4,0.008875158085074285,0.02030641554304202,0.017191858941385748,0.0539275596312716,0.052951247732564835,0.053528948912852384,0.147868086183091,0.10605749037602724,0.04810944068060541,-0.021339709597832403,-0.024032593489551616,0.02481361857289621,-0.02826272669705936,-0.05600764211007849,-0.08105939585514023,-0.0708324341268922,-0.051908163232101234,-0.021955634284886415,-0.014044707065976322,-0.0017344974105382661,0.0,0.0,0.0,0.0,0.0,1.4181183701191257E-4,0.00683663624912829,0.002831415501542842,0.014397603122678293,0.051136020888453364,0.08418577457969054,0.1802982757326815,0.21010586190555855,0.18596588332833117,0.2231094120424221,0.24543991847318805,0.20283198777991515,0.25145908407071055,0.1879798987229566,0.12100445896625019,5.106154842359588E-4,-0.04816303730088131,-0.06757907709812122,-0.08793063991906908,-0.09234703466638298,-0.05248178692132968,-0.024720018073530844,-0.0059503211456570304,-0.0023449146780291567,0.0,0.0,-3.520383819430908E-4,-2.0380212233696415E-4,-8.260991246167925E-4,-0.012791030934532946,-0.04986199109113489,-0.017379959379727795,0.016652748263346943,0.1997769116332294,0.2435219915681129,0.21347032539981906,0.1112020357955386,0.17956122382062958,0.19530086303689284,0.16050287859403156,0.1543449560675268,0.11850890499033383,0.11233550272508618,0.059406812343915406,0.0038896209315834865,0.01733468844001008,-0.02849408356276732,-0.04850092561044827,-0.02390820238456927,-0.05981665865222562,-0.009567485234399353,-0.004321260445117058,0.0,0.0,0.0,-7.702480191282199E-4,-0.018670796689564492,-0.03295486820075961,-0.047730882307010516,0.06627531676508766,0.06531909729097382,0.12668159431143455,0.0961049593482043,0.06163130596196075,0.09447538239477189,0.09321087792975824,0.1096744954528318,0.1285311463416581,0.034961012864936844,0.08750944728644594,0.09331575897884274,0.11716531194719446,0.01538651778972845,0.0661386291429051,0.06356201094725718,-0.00951758238687317,0.013465723519896378,0.0046644166057343475,-0.012323620389893227,-9.927726361787324E-4,0.0017001426664209382,0.0,-0.001776379658311006,-0.007978673603690423,-0.027675395384282167,-0.016122061314944588,0.0745400788744998,0.0852940967531835,0.04979201146571109,0.02399235236928809,-0.013404243495222916,-0.005672615457118557,0.06649644422034065,0.04621324060423922,5.469638467553632E-4,0.05813194446910442,0.014197919519664913,0.047641667285176256,-0.006052156839406435,-0.025850568292205965,0.0602135054067649,0.07296252052930825,-0.008961995820417816,0.016639873160179026,-0.04492591986751137,-0.03152875744360359,-0.014967337452595738,0.005615384840088049,5.194677017785047E-4,0.0,-0.004909049638696349,-0.01375987429823448,-0.010682688398367035,0.013474257722996008,0.05286988655435467,0.0032850555437311173,-0.06668072508509572,0.026161793850938437,-0.06229834689216763,-0.0457649874425663,-0.021056530590061514,-0.09120094345899098,-0.06802364928600256,-0.04086780589062279,0.06833472694276242,0.048475748466878875,0.011245109495736514,0.009445798594680452,0.05576075938461497,0.03896191930137304,-0.014925897649602757,0.004468993452198992,-0.04014511340006928,-0.06547809766458093,0.0016479924677532867,0.024808097330234452,4.2320634593877565E-4,0.0,-0.011837901108272913,-0.01884318233947894,0.011748927632217406,0.033652449305184906,0.044188812590162004,-0.026081702504013038,-0.06014038265049133,0.007412391524721735,-0.060680830029126734,-0.04282238737584111,-0.0020220577535762876,0.024585795108998602,0.09306841604398533,0.07518790192154658,0.03670270337456506,0.08776145620816199,0.03532374734250044,0.049812061123664514,0.02675011121393396,0.011927297835267213,-0.02826019462359718,0.05380732758134652,-0.04019204737219178,-0.07374868471920112,-0.009100036068787029,0.006112305515330557,0.0023260454854058953,0.0,-0.008527939137924516,-0.01134229927275578,0.01587149553601679,0.013723877324420148,0.039917974335905174,-0.02783238662162426,-0.08052700022109296,0.009112602994171043,-0.0335860198790688,-0.011576076816654705,-0.09931884744908737,-0.027467488250512765,-0.07186691658560793,-0.03359438235204208,-0.05396150437985145,-0.02385645306140662,0.08807939317088298,-0.022685552696541773,0.041218768098637046,-0.005914658595132406,-0.02121087087151218,0.008135370555170442,-0.06116040935085679,0.01136627845602729,0.02784328451094614,0.02520628127469552,0.007696095932190714,0.0,-0.008424832356892507,-0.012149538615917232,0.011866457063624125,0.007001298380589625,0.005871017563828832,-0.04576865610408087,-0.0608958000641432,-0.05723999096690468,-0.04823562979434673,-0.1319119265491577,-0.15843751140494172,-0.16683697129301078,-0.1852256279448883,-0.16252741396382567,-0.14590425909008004,0.014937999939674939,0.12150817389935677,-0.03978641555984939,0.03159169841414087,0.00915062217421779,0.026864923570613694,-0.07600222218944462,-0.09101334756763811,0.03602626187945717,0.05055408997670888,0.038045005580851755,7.44484540424271E-5,0.0,-0.007805439546672039,-0.012272889772639253,0.02769227128785678,0.01447343263967083,-0.05424017511626853,-0.045542954171828465,-0.08904492412172348,-0.1406766153733208,-0.11390847882576108,-0.20165508256465473,-0.2260293023240721,-0.30775160825147957,-0.2284193462375876,-0.3165871808173089,-0.1054424496964236,-0.002252825185985617,-0.008025910068944472,-0.02154900191679332,0.021081956980880417,0.027384976899224825,-0.05604195459398987,-0.14954447757949102,-0.10383477740467181,0.00548363693607396,0.007411249952118911,0.004902143066777511,0.0,0.0,-0.0016384988150737196,0.0014553807585196538,0.04832985449111827,0.01169739029002293,-0.0663566867041803,-0.12884398982128176,-0.15864688883021172,-0.13744706522197758,-0.10401712771470487,-0.1299514051489807,-0.19626958790895463,-0.12141196287624309,-0.09649050281743698,-0.09183510986983955,-0.03653562228512262,-0.01505437904936665,-0.009800667017020384,0.012595889627549019,0.08696278862575348,-0.03066510412167543,-0.10237140632996707,-0.17818537882157995,-0.1352523021269283,-0.07454780459652056,-0.026906742707067135,-0.003081892666157543,0.0,0.0,0.0,0.010753949067819311,0.019893635522997537,0.0060136032453294705,-0.04693632466790835,-0.13788938150940444,-0.11438144371182488,-0.1008606772961999,-0.08753687918066347,-0.024381254932363663,0.01841042820263902,0.08999508724686499,-0.005213658364250523,0.06196813806337606,-0.07602906722142412,-0.05864346610088212,-0.029068345565010905,-5.473687686359858E-4,-0.009528423409855397,-0.12176532510359978,-0.16802595148871413,-0.2532814931383931,-0.234536900965917,-0.12546197966017814,0.008700246194079036,0.007804400714224067,0.0,0.0,0.0,-0.0027441733481462977,0.020980077926618105,0.027742072444305044,-0.05145353994513855,-0.03851674788777394,-0.0326839511977226,0.051791461180564456,0.0033804012515173273,3.218052273870992E-4,0.11587798589036681,0.09892250653776141,0.002192027105929685,-0.025052714896878606,-0.07093754893341786,0.0023333219824657296,0.011001377993932445,-0.005720310267023031,-0.07002862226184091,-0.15149558586401324,-0.16290418405125565,-0.21461491546304512,-0.1591058747904384,-0.03767357832212161,0.1269803873087556,0.020571177168220833,-8.507862247052485E-4,0.0,-2.2127593334889538E-4,-0.009080128532611984,0.009587582128856752,0.09150522464070686,0.02447844006688543,0.08242343789052868,-0.010798476737081234,-0.06421101618434633,-0.004684747027824127,0.07557760456640927,0.14389813325875514,0.09117775016431645,0.10042976065370068,-0.06299604542495013,0.00837714524244347,0.09279843752696025,0.0864726506308093,0.01835044955636315,-0.017609331314239227,-0.13575794608427244,-0.10289055824858945,-0.09954261173089536,-0.058729203228931826,0.14572204212674658,0.21326451556581727,0.01264553020412932,0.01032360508431965,0.0,0.0,-0.010352391022776491,0.030386484608416954,0.10410353026710988,0.17585855145624496,0.15684140507583763,0.06426366207715582,-0.006492340048320813,0.07218970350217573,0.004075285619930833,0.007007965099298567,0.11226646173647918,0.06739769242670693,0.13364527102755452,0.19674816203809375,0.21499636941918593,0.00925554058652782,-0.07659461466661958,-0.060868844625301115,-0.12468112025105282,-0.005325345790868429,0.022767562145726453,0.1414770932660359,0.26625821919692105,0.2035149596575554,0.024822905186950295,0.010674668122418483,0.0,0.008803107025814246,-0.003467791154437886,0.012436184791734996,0.11757209752253751,0.18805460565587762,0.16121195895261986,0.20285547942707843,0.14898172615095365,0.07715679960812179,-0.0029569768608017225,0.11193606215257561,0.14436579913390016,0.17203285789456538,0.2829039937334465,0.1648831901149032,0.062386210118849435,0.044870708151161856,0.003860306028605431,0.026758927872112977,0.11381197742707529,0.09815380855030406,0.07401930337067696,0.2848928597926268,0.29834249363541737,0.13426900293915672,0.03637940511108085,0.0,0.0,0.017828892766856022,1.758646445403772E-4,-0.02083494601563933,0.08130499782947787,0.21504639151786617,0.15271348831145948,0.10097632493808945,0.16024877659758108,0.12332631869613503,0.12319546714569315,0.15604914698697767,-0.004990405190794038,0.07389040415549745,0.07469931943015604,0.09748181505480305,0.0873937088479017,0.1456230429403284,0.09430233621788958,0.08343780709949346,0.19238791989038193,0.22507776510461658,0.3347724063804799,0.3838872980120019,0.28240409890599416,0.10084805489544912,0.020455545929618273,0.0,0.0,0.0025175386098240412,-0.019418262349194543,-0.04037595730194991,0.07779754434770045,0.22186508538330224,0.1634863738014184,0.22431891099703083,0.16237344626109124,0.13465380181922845,0.10458715538824223,-0.02430262831226982,-0.03814025859205641,-0.08082214346417227,-0.02423210237409316,0.046191096364513726,0.053243639247602656,0.0798708839473196,0.1544076186596685,0.10581764421273658,0.12343348368400658,0.2493879286810836,0.36087518488370607,0.3218559563308562,0.18780547077861065,0.05000741361417713,0.00627180033155158,0.0,0.0,0.0,-0.030875330042362422,-0.034776066330940374,0.10684495508939815,0.22393183332144748,0.21350809355137115,0.16908911805418725,0.08929593263892421,0.006636421360974988,-0.04797698813939097,-0.10617393956476345,-0.027857068539626606,-0.10037483486462881,-0.15816444854323858,-0.11631386291973364,-0.07450668195715547,0.029486047149535927,0.08343363610367666,0.19683215938802032,0.12918493787423652,0.17969371675537066,0.2270390426209853,0.22143949910700994,0.12488826459690217,0.027472082647175978,5.330928220494709E-4,0.0,0.0,0.0,-0.01255316836407142,-0.026814969944824615,0.0846442725951348,0.1271481759371132,0.03987063351574856,0.0505280361257874,0.07383119410740765,0.10949570074302763,0.011046256425901875,0.01136638524853856,0.022830737318612435,-0.0924222054879878,-0.05496754201109813,-0.07961757342709506,-0.1037877905926103,-0.09176936616756105,-0.03479529323469382,0.049147842885008876,0.1280455319566003,0.19951469642999398,0.17566108501591454,0.12416119987197301,0.08775674959252912,0.027488582978964907,5.351276356535971E-5,0.0,0.0,-3.5276876419459524E-4,-0.004051205751735762,0.0027272824268914173,0.02853064750642167,0.06857948725415111,-0.016187219094264745,-0.0827153330763367,-0.05435763931528943,-0.12416098940922823,-0.10743628077624934,-0.12476558944047542,-0.1838049207754528,-0.17265411582082835,-0.12496532088547652,-0.15859076828961002,-0.16198401639698962,-0.13688380470832912,-0.07665508105925356,-0.042569429828866266,0.07827794971620408,0.08301060334022442,0.05103756930670673,0.05524553499709965,0.04117540404263881,0.029219785934065746,0.0,0.0,0.0,0.0,0.0,-7.882700725008758E-4,-0.004967586616249757,-0.033153396332628295,-0.052753650474554326,-0.06594569452972554,-0.03726142365756331,-0.0680323085837805,0.008595725586131036,0.0805530129162465,0.07523020785110471,0.08985342559008093,0.09310758971220796,0.10605266319310103,0.04855790517636121,-0.009345721348221597,-0.06191822169272177,-0.07822822742333392,-0.057844776840552586,0.006635780633675893,-9.088621509794245E-4,-0.0040674558335079885,0.003475299653973388,4.7394100870915695E-4,0.0,0.0,0.0,0.0,0.0,-3.7015981790443635E-4,-0.01953296942985476,-0.018281431267969297,-0.01753337646014038,-0.04736067344024468,-0.05692277411605624,-0.037531994215877267,0.03781999876093038,0.06496611276240329,0.07176091271497236,0.06616714982362139,0.0639786318664038,0.06889506180771643,0.06935661814605146,0.06536962518945875,0.04974820404380795,0.01594968864651841,0.006181795653830983,0.025415765812372603,0.010281249189536986,-9.088508513953232E-4,-0.0012693930131834306,0.0,0.0,0.0,0.0,0.0,0.0,0.0,-5.650341865984645E-4,0.004545116362898761,0.004769756666103623,0.011227329121746484,0.009774326564758705,-0.0013065603541782792,-0.005476526277337724,-0.024118475724031106,-0.03065979023402661,0.017256268254586583,0.03922291317509784,0.06019617348291325,0.0591092401801014,0.035205074500440095,0.052433387658881156,0.05438186824601924,0.027685248881402915,0.013595431606047034,0.0011906738895511877,4.905261190681308E-4,2.8081567420235873E-5,0.0,0.0,0.0,0.0,0.0,0.0,0.0,0.0,0.0,-1.370526048537824E-4,-0.0010168351952563879,7.559199672202284E-4,7.569271729586449E-4,0.0010992795147276445,0.00401575379114562,0.002617540952984143,0.007328446527591128,0.020818091148659502,0.007509099027223183,-0.0029844087460744865,-0.0014120242897359171,7.220821022702534E-4,0.02236967337443394,0.006200695032465683,-3.4113989371454585E-5,0.0,0.0,0.0,0.0,0.0,0.0
0.0,0.0,0.0,0.0,0.0,0.0,0.0,0.0,0.0,0.0,0.0,0.0,0.0,0.0,0.0,0.0,0.0,0.0,0.0,0.0,0.0,0.0,0.0,0.0,0.0,0.0,0.0,0.0,0.0,0.0,0.0,0.0,0.0,6.217092472264807E-4,0.00385823861695231,0.0025850196502277393,0.001790771986437048,1.223135871752041E-4,0.002535642177357654,0.014599240123783483,0.021250669848965557,0.015924242398850496,0.016310838492724446,0.01088300244504238,0.00164199696456216,0.0044867782519646,0.009421729924429374,0.005327276329785033,7.12562819653379E-4,0.0,0.0,0.0,0.0,0.0,0.0,0.0,0.0,0.0,0.0,0.0,0.0,3.6265603439026575E-4,0.0012925687166504675,0.00442557446829391,-0.0037190372280034027,5.460737600599334E-4,0.015341197116606975,0.018439535201696514,0.020740326260780692,0.06983174602602865,0.10768188987587754,0.0897672121450907,0.09599008209697507,0.08957438044064618,0.0655783052775259,0.019004870110563895,0.01509479205540252,0.016949668835060976,0.011343337364999815,0.004672167724611545,1.2319522605940808E-4,0.0,0.0,0.0,0.0,0.0,0.0,0.0,8.021879764605895E-4,0.009896647958304777,0.002830114698989276,-0.020236637908446754,-0.0374403212938689,-0.03990675000418021,-0.030146345913963826,-0.028532933666423562,0.014392085233417262,0.049366044991256755,0.06903649262512933,0.09786824853743321,0.07036993436185764,0.05380639766960614,0.07898469027812223,0.06776874185470011,0.09962928722930578,0.0775664263733756,0.037474135954268545,0.014097947618521891,0.0072134759081574195,5.878147542770237E-4,0.0,0.0,0.0,0.0,0.0,-0.003778748553250945,0.01566060448555189,0.008948199912914272,-0.0010644369095002936,0.006381710688196899,0.057615783086344824,0.0731518971545152,0.14458259148116434,0.14080810478280487,0.07962208632929701,-0.02458834841879991,-0.0804105254954407,-0.0294323942388485,0.02055410971569474,-0.03032629205075086,-0.006444393535774258,-0.04226749554813496,0.011363486680089156,0.012231618018337288,-0.025466322119016248,0.01649562104231637,0.03313909389322647,0.01324142360736701,0.00988778277212925,0.0,0.0,5.457666966932915E-4,2.8222981958020784E-4,-4.4230876635583496E-5,0.05484566663699365,0.11863942090607894,0.13371311584361578,0.18216205559527604,0.05002161082466255,0.1376409347269842,0.19851226017413767,0.18110868305350442,0.20189833607779795,0.110762428808264,0.045274713935464825,-0.061711257346058444,-0.07666766385490005,-0.09216014442763241,-0.1079588384389803,-0.06752026501718285,-0.10981182842397098,-0.09443490392291812,-0.14032331591656372,-0.07781117617386515,-0.01019587103200431,0.022501658043981205,0.016458281805783473,0.0,0.0,0.0,-0.0012218857320755983,0.033357291314461676,0.08938609273261319,0.23138224205519672,0.1692933090705423,0.11202423002169958,0.1045319024180122,0.2092472085132692,0.21924476260700035,0.08145538026398834,0.16771849227749933,0.13642966512411966,0.1021030326175716,0.1237066981051599,0.006514036273055479,-0.10020301510051778,-0.009994434938564004,-0.031175752177803474,-0.1315870571764278,-0.05342476519277145,-0.06396369402818926,-0.07449642747696585,-0.0468865392671566,0.03077888189092444,0.013441889842321397,0.002368166909120829,0.0,-0.0024463553210320906,-0.01554731198262568,0.028618372829232665,0.11520131307124305,0.1313407552808415,0.06707503019274828,-0.01682813541702009,-0.006927120925730561,-0.015607087149844776,0.045813347474724785,-0.0440937018747164,0.0057311217346948835,0.043957154200745086,-0.016423729793994427,0.03661030807330641,0.009785446987207779,0.05575570011257515,0.029427290788686927,0.03723045700621467,-0.00798094328110927,-0.004478170975394796,-0.013592606698835597,-0.022869351870902412,-0.021179833180177673,0.053651187976888295,0.013168605730373087,0.0013496474956875449,0.0,-0.008652902877847217,-0.039022233232555395,0.03399772058585738,0.1310766914420705,0.046593951961102775,0.0244253781509159,-0.06850819684323364,-0.1198404328776935,-0.06638995200830926,-0.08865401151986667,-0.03302385911239083,0.017236251674348124,-0.004684378585505967,-0.03061797622657293,-0.02588781296615656,0.0019008364902968198,0.021732639235404447,0.037076290522277525,0.053642094663634676,0.018745372418675754,0.06009202014601654,0.027287844342028713,-0.013938419257876245,-0.008100200324244229,0.0046501472926361335,0.003355487985001822,0.007656823551489602,0.0,-0.017567246945618818,-0.03795067516637621,0.026572163339390942,0.06505487501860875,-0.031863224646401574,-0.08015917206532723,-0.09412677059927112,-0.15008524813566348,-0.15850928419020496,-0.15132506719259603,-0.12264620230867794,-0.13887200744177378,-0.12864959142318955,-0.07926315780887151,0.08310404601650602,0.10288194279373883,0.11574101904949696,0.04803434468148501,0.04947254506019699,0.09409437578929852,0.11870248179058708,0.06850658825776482,-0.011313036374612732,0.019068204846041683,0.008533094491091693,0.02012478816480574,0.006518905395045764,0.0,-0.00878790339835653,-0.029950552632369593,0.051404190773376025,0.04438159202258311,-0.02216686349841795,-0.0455851811249526,-0.07826163084458088,-0.21050964940496217,-0.27885284544230116,-0.1949364142282817,-0.12634990451915043,-0.12938304141144438,0.011383122049144347,0.16895546666789021,0.13489694443639935,0.18991156174988885,0.0788493469154146,0.02059054454185802,0.0717776152213167,0.0660520282841221,0.010816877765703385,-0.0196148316544825,0.02751869861323478,0.03993551779875768,0.04270340781698547,0.03461285715080429,0.00850231929113372,0.0,-0.009521126470039942,-0.031625303768545276,0.024933847461467366,-0.006127675232886197,-0.012113750763086325,-0.0736711455824173,-0.1384135120649401,-0.12204294232695362,-0.1529555307103138,-0.14225904864676786,-0.20317005030397225,-0.02596477454678475,0.1162617234557146,0.22370030083340067,0.28011752357577635,0.21139508803629034,0.07771757816401215,-0.0011416416656668928,0.004524584707455808,-0.0019454720242884698,-0.01773953600872467,-0.03220508768514673,-0.021328951336755567,0.04167009266011555,0.03686191171467931,0.020225549270114548,0.005221647340310109,0.0,-0.012614204846573591,-0.02396139016418646,0.0014062059166907697,-0.0017808438130574972,-0.0718201754267901,-0.07024742702967202,-0.05420525001513322,-0.11652612308187105,-0.09269237976493108,-0.18761952710700922,-0.03398418830486437,0.13145384534688748,0.1865004840468898,0.1345829094732451,0.09076761605875337,0.08791617036708575,0.09037065739222849,0.04845665973625364,0.0013544112207668122,-0.06931799701353623,-0.0838912640886481,-0.05360332335150566,-0.06167425545285753,0.03168726761684014,0.016125389275843727,0.002607264559697625,0.0,0.0,-0.006028244933401596,-0.019742181739365712,-0.0250736298431678,-0.03519734685541696,-0.04949811950315413,-0.06876651009841558,0.0075018448117841075,0.009526405595515488,0.02291139661685279,-0.04829606726368694,0.1860194686308214,0.25691020487847244,0.15424344940939866,-0.07703801058326214,-0.044526951728746045,0.07285594880553448,0.14874229591774255,0.08985125901884192,-0.06195160106216958,-0.06850126070159086,-0.05253585009392184,-0.03879765475835821,-0.03496728351510518,0.02908788593736448,0.013630157434113442,0.004917073818728073,0.0,0.0,0.0,-0.011342361299809034,-0.025899790075766177,-0.037884569743842494,-0.018093924979473937,0.008000526206535906,0.04236195068248616,0.018691587137423964,0.030146480347441443,0.003179420869172176,0.06589795730134453,0.14352209871744817,-0.009803701538361756,-0.14008876925506805,0.009670669459715977,0.19768148107524033,0.15251670218448868,0.12359221863146211,0.07608864860425038,-0.03410950591789783,0.0011166719338701065,-0.011534652759501173,0.05376006133079174,0.06678791710224057,0.0028317059925564185,-0.0010647041412798085,0.0,0.0,0.0,0.009846537944264015,-0.007719053980092138,-0.02820879912687279,0.002540759297821736,-0.01060299023380567,-0.024685124660625873,-0.05986399921669525,-0.053705136663167286,-0.09500073427761321,-0.0709608622742512,0.0687592609862109,-0.05375335267065804,-0.07307371848381711,-0.0028464587895759815,0.08431207636107264,0.19263014479374843,0.10089922582706082,0.1372268575738131,0.06786539274747953,0.06694360404271064,0.08066614334539553,0.051301187918908635,0.045575226228069594,-0.010276173246036644,0.0010192431346090025,3.767188633293465E-4,0.0,1.5154993868910473E-4,0.03219184497180801,0.04998812574115292,-0.0019542598378431693,-0.005601156083479288,-0.034374911898929356,-0.04452776181556721,-0.10337096494655362,-0.029111416202551917,-0.08553098117997393,-0.12952932058256927,-0.04106811013875912,-0.032368630241966435,-0.01864392598408253,-0.033274909250837016,-0.04862698353939509,0.07222169394792091,0.1153507272963675,0.16459924973138174,0.14179777201540492,0.15376825844563977,0.12445665745847301,0.08525019518669597,0.011983221410994213,-0.018306442660132406,0.0011635634081429748,0.001132964120023091,0.0,0.0,0.03942067801302227,0.11839204754811766,0.09849024079626202,-0.025361189454565232,-0.08024943792441315,-0.05232614043109131,-0.06174732194966141,-0.01324211123376027,-0.08416372804131105,-0.1413988104902171,-0.08041609139934684,-0.10855624327989687,-0.07101024511001194,-0.0664729474875815,-0.0170497161325109,0.12287847653117492,0.10407686131838337,0.10388521832135388,0.12895562514541417,0.21191620152966406,0.10237707749156429,0.020681452229987324,-0.015493546631928444,-0.03789452070112327,0.002084146423834349,9.9460556746145E-4,0.0,-0.0012453145653719714,0.04076848757209032,0.1706683081703987,0.13646514966197815,-0.02968050158744464,-0.003622107598063577,-0.06953099732442657,-0.07380428278593604,-0.11216816345216794,-0.12741723735753682,-0.2335575983519506,-0.20625832668572525,-0.22818775649849524,-0.1911891061388402,-0.12463099205910981,0.05145609868042204,0.11180372241390352,0.1954872872738263,0.100468367027453,0.06548647730220977,0.18597751772538032,0.10296350782135184,-0.04732911865300836,-0.05502230328905883,-0.04091158399076113,0.0035497422715163166,0.0,0.0,-0.002520519641196919,0.042537035721663556,0.19901733180811348,0.1395401859183147,-0.08848690485563093,0.018010914111021466,-0.03228123006337349,-0.09609961494296973,-0.1063839376782116,-0.16275475519189286,-0.16586984828408158,-0.1297979281455218,-0.15065029938407976,-0.13877122212078818,-0.05675180464107919,0.04678923280865104,0.12643036004401315,0.1512858223577033,0.07987144327398626,0.025632971969215858,0.07962528000315876,3.6792975145188116E-4,-0.12559774495178844,-0.07712510725494627,-0.023203657680885035,0.0030221781707546,0.0,0.0,-3.58613534795814E-4,0.042751088902985575,0.23862984813277754,0.23909745866563067,0.05757383918939271,0.0031096199689939286,-0.00919084899201499,-0.0770349002968076,-0.10969539937046106,-0.08796000041402702,-0.03996627301322348,-0.1390937981555029,-0.08003934449766552,-0.09934907474420789,-0.05033473521187694,0.06103904402657355,0.04692295631002796,0.05145831304447972,0.05297629111031564,-0.020957870795871306,9.409461104603297E-4,-0.05005038482561901,-0.1647972325875751,-0.07732462602423737,-0.0048207687337765235,0.002065256807292551,0.0,0.0,0.0,0.054198423975549366,0.20907925440070227,0.28193293426620486,0.12093302849587924,0.06724372943033322,0.06561255917092117,0.09701228278118583,0.014915470692821509,0.04029147981673494,0.07519229400110698,0.003151179773966618,0.06406520167852509,0.08184221763095428,0.08653393133726718,-0.005550700833917889,0.016289966707491214,0.08019244057329741,-0.02739456258726422,-0.00740057040292009,-0.009917410229532625,-0.05677681347397685,-0.1435795866919075,-0.06846919592050861,-0.0041626482936532455,-2.495559704419342E-4,0.0,0.0,0.0,0.018098558527527366,0.1052042784511803,0.210005034335263,0.18906612438781753,0.15802088814469858,0.04482177168130743,0.055118272023982624,0.04556813721668468,0.02940142792036621,-0.012305237623844199,0.043350396140027114,-0.005078629882677306,0.005752601253687893,0.023526736481483637,-0.005176910547320841,0.05467229383198375,0.022361443613307743,0.008922122808378332,-0.011161806307044397,-0.027448292347008907,-0.0676108827469038,-0.0853248363475701,-0.03592535659257946,-0.003751853972360009,-2.527121127123551E-5,0.0,0.0,5.464424378589355E-4,0.006212978763930395,0.05742596291961976,0.14621708616250914,0.18044924291657427,0.1324795327080382,0.15741967657256153,0.14502727644760904,0.14635657077406047,0.10073982213123764,0.17398757778611146,0.21995566638038302,0.20318554390459395,0.03797988276383969,0.00897763788164975,-0.0659807224114947,-0.0892871449778657,-0.06940740311503127,-0.0037900894776574084,-0.07703208546381957,-0.06689430445465833,-0.06107294794980116,-0.04599146618774244,-0.019249328979838495,-0.005592078816831426,0.0,0.0,0.0,0.0,0.0,0.026041903549188075,0.06450193211104212,0.09823224749312287,0.13702761586413045,0.14783822019014992,0.17963191885837393,0.09769801896490446,0.07222177693344221,0.040071173483714355,0.039338774121443494,-0.034642033818403056,0.038821748515561104,0.05301484717380591,-0.06558326961269356,-0.08225047394509857,-0.07055534873010239,-0.06521213668937208,-0.07730435641604086,-0.037015545426798725,0.01549274249087058,0.010047629547925383,0.001204807543843234,-4.721289459394919E-5,0.0,0.0,0.0,0.0,0.0,0.001466211705763853,0.01062090769432745,0.03738893606919257,0.042463403247294945,0.07604875367952413,0.07934438016332232,0.0809806422414784,0.027664125237101215,0.02575427805486566,0.010763875005316503,-0.017217056515327383,-0.0690799247156569,-0.10584312175007399,-0.0886824604315866,-0.04596070863560573,-0.06461266934373484,-0.04758249660163398,-0.030089186354729174,-0.02146738756653268,0.010265320976178938,0.01177212935983976,0.004923367970064347,0.0,0.0,0.0,0.0,0.0,0.0,0.0,-3.175123179576199E-5,-1.7919984269407094E-4,0.00497505845356832,0.011997706928602228,-0.004738884605477386,-0.020568259324505254,-0.0338948797115549,-0.0541447875396853,-0.029792831059176936,-0.029108900363533988,-0.016833345690299418,-0.05436411304570357,-0.05222154123038163,-0.03867871814235278,-0.04972442058641005,-0.034498055248916006,-0.013344841713381619,-0.015306476651285995,-0.002244105282247329,0.0017569346482339955,1.5283151336782446E-4,0.0,0.0,0.0,0.0,0.0,0.0,0.0,0.0,0.0,8.430121239372922E-5,-4.4101409685738506E-4,-0.004747037847348014,3.4026632735482596E-4,3.937941339720601E-4,-0.0014772898251121085,1.3510833403164533E-4,-0.0016871063725760096,6.340007202467591E-4,-0.010313904673950606,-0.010558676504176058,-0.010054399101351535,-0.009242219369721992,-0.006886767400374784,-6.769545101774497E-5,3.3818607762121744E-5,0.0,0.0,0.0,0.0,0.0,0.0
0.0,0.0,0.0,0.0,0.0,0.0,0.0,0.0,0.0,0.0,0.0,0.0,0.0,0.0,0.0,0.0,0.0,0.0,0.0,0.0,0.0,0.0,0.0,0.0,0.0,0.0,0.0,0.0,0.0,0.0,0.0,0.0,0.0,-0.0014880086959534228,-0.009233679538200847,-0.006188721061602252,-0.016542811857575942,-0.014684409510425897,-0.010421302944156802,-0.03257710763971455,-0.03800328108877886,-0.025043059455864013,-0.02732952774018656,-0.02498004781793627,-0.00407700851097226,-1.39232713830863E-4,7.656917539192422E-4,-0.0014172315523569446,-1.8963616195868238E-4,0.0,0.0,0.0,0.0,0.0,0.0,0.0,0.0,0.0,0.0,0.0,0.0,-0.0017775935681752088,-0.006418177499999819,-0.003346304748200207,-0.0550926252231432,-0.0771021499660985,-0.09772269505078439,-0.14831678419657404,-0.15825441333843765,-0.18279822521305553,-0.18327207624815126,-0.15913260681289232,-0.11579178924432526,-0.06518988201147058,-0.07570237455349042,-0.047514633607028144,-0.019537454477547914,-0.008870376793144579,-0.008055270463138278,-0.002933238199289148,3.863813567079759E-5,0.0,0.0,0.0,0.0,0.0,0.0,0.0,-2.6858651372636448E-5,-0.007262403591647454,0.005894228393834221,-0.015776584573984436,-0.07602779695048499,-0.06744220365713328,-0.10398309696143776,-0.16111590321520386,-0.15956092894046436,-0.19134178416241707,-0.21693015197450446,-0.2281563208540889,-0.17881299290587643,-0.11536698159682564,-0.09906578444807224,-0.07931942693209117,-0.09020473581791263,-0.04865704569612317,-0.018690585066906816,-0.01106154141607469,8.793016841408915E-4,0.0012223785623861638,0.0,0.0,0.0,0.0,0.0,0.005735966660222079,0.0127524141579556,0.003439826326558524,0.023044513068302807,0.03130153468372302,-0.019340444993164722,-0.025547489774272604,-0.016353908145782324,-0.07462289814483966,-0.12009473699302312,-0.07674743774585885,-0.08665120008425084,-0.06064279427574779,-0.025456100633219167,-0.1112399645043241,-0.08192666767905898,-0.07108423360316102,-0.07587709943441186,-0.08840571832942867,-0.04018450240809977,0.022564122689727698,0.011663465036586487,-0.004991845241742387,0.008066121876887255,0.0,0.0,1.3284543221708513E-4,1.1862935319896551E-4,0.0066863847694277065,0.033750001842450486,0.06266175614235665,0.08954318281522823,0.02349371180293859,0.014044877604086252,-0.08289813182461685,-0.03457459624185287,-0.004228344987591129,-0.12638370105152688,-0.11291637183435263,-0.019643071536326277,0.06543524661615222,0.09110447608551522,-0.0025566774871389323,0.06457771552587044,-0.04736678266922196,-0.014911777162524268,0.09082245698585076,0.10074215170069595,0.027957023472275903,-0.009986971883179324,-0.01277543747919521,0.013689351452589928,0.0,0.0,0.0,9.36544566136598E-5,0.004541267403882547,0.02610143227800937,0.036963194472647495,0.07163471274477635,0.0871189623040345,0.0665031413041063,0.03465963133183988,-0.07952010442294176,-0.04071048616279008,-0.1603111270862272,-0.09279091910985077,-0.10235979235133584,-0.1558490401582328,-0.13356997859824235,-0.060909748767828294,-0.020718658159848642,0.09040703057141494,0.19750405981962404,0.23197343548671875,0.10449973462279354,0.06561877076127806,0.038252838615191076,-0.03773165321149416,-0.017317608045535865,7.453259731490098E-6,0.0,7.164612134054963E-4,0.0025429146325635196,0.007797361263595281,0.004452815916094276,-0.016502836322728517,0.018901890777471626,0.03586668452729269,0.09302425678578453,-0.020061128954705867,-0.017240226269348517,-0.0013278399623630607,-0.18614707043156017,-0.2755124732517294,-0.24369002140884377,-0.16055285948947046,-0.12279203329032658,-0.08893037572119843,-0.06264766184671623,0.03004565912625606,0.1085003192750119,0.1319461584602779,0.017826874310296618,0.08569087897018057,0.01755181904399705,-0.09246906645246042,-0.03205483711199612,-7.370389721052894E-4,0.0,0.005262557454970023,0.008669066466503377,0.021376469845214196,0.009381180136809398,-0.011533499964949715,0.002835584675623893,0.006534658421005993,0.12637208137649644,0.09926570023443204,0.03681820219181881,-0.07903189344852592,-0.09929253957905039,-0.2376507639050269,-0.2571336364497728,-0.13543522716625134,-0.06496740357332365,-0.07890183755254969,-0.009397833498599139,0.13143617125210513,0.046784040766847744,-0.04440940094262647,0.020018748898328123,0.055752632837027624,-0.006817213701367323,-0.12414178343164102,-0.044996875600976115,-0.0017021256537624236,0.0,0.015507694382212835,0.01423775958596752,-0.013485901367616144,-0.02122598087150549,-0.04328494880248636,-0.017428737136164888,0.02916277215424667,0.036845064455988875,-0.025677359722580208,-0.004144119729232005,-0.05148968266713648,-0.09907721036901589,-0.16977445371001063,-0.14468036912942484,-0.04951531338908215,-0.0421585018789594,-0.01865662895446548,0.06526557394893158,0.07964973791918407,0.05087128500117655,0.01301590463732864,0.006519289431394763,-0.075790029196791,-0.11885411583380379,-0.08510238248872302,-0.02847745512799987,7.525846771305705E-4,0.0,0.014807190979422988,0.011863166204360787,-0.010004226766013253,9.370941540962882E-4,-0.017329422875471616,-0.0310438804109007,-0.004735105558143059,-0.055814901893243736,-0.11351196643643803,-0.024255106977874613,0.024355734304014002,0.02337467932214325,-0.1086465307833431,-0.02879747071115785,0.058013018356003476,-0.005579092030764994,0.09458345203988325,0.00686313349963382,-0.02497741646165802,0.027247861580272082,0.010478698531348642,-0.01885150669888419,-0.059330931171165655,-0.08061904124273923,-0.047474436805485305,-0.023483612720917563,-0.003028573137365307,0.0,0.0048039551970677835,0.006879454268132757,-0.008494768448564147,0.01857352172146912,0.02510159214392311,-0.04466267279729292,-0.06023498494355901,-0.09309155126845235,-0.04484123107304342,0.06451197002472453,0.031417401728536215,0.06670582592992648,0.04013765303105554,0.04139057259147139,0.04668549946075565,0.13210129998992173,0.17255126476836782,0.11226211883152756,0.013719832216980051,-0.054966391392574296,-0.08279845436467961,-0.05858243107951134,-0.01315046076709432,-0.05243114688200954,-0.030560878950482297,-0.022991422714489715,-0.004756885457626112,0.0,0.007592649044588936,0.013331287073022653,0.0068048286309312835,0.01593145495078011,0.07064041810304475,0.03809870287118528,-0.06006789684312127,-0.01171624381091069,0.11046787561691904,0.11539537565358701,0.10003392393002823,0.06276584043828697,0.045900171994956,-0.05759071981912212,-0.04291668344892957,0.14406306794112053,0.18364731481688584,0.05078547318107962,-0.07140152068270053,-0.10459226121837724,-0.09797869019916243,-0.053564463014517505,-0.021141683824591834,-0.02559048489210002,-0.007079245122918264,-0.004722044148137758,0.0,0.0,-0.0011971983350253423,0.001918805870070375,0.007212859395812974,0.028596740569288733,0.15052538185900163,0.13432801778087114,0.06037980865805775,0.08290709096766272,0.2366306578342057,0.138622890786129,0.09185987452992504,0.055271332750146514,0.0166798103965924,-0.009359558495133053,-0.0047958747983762,-0.036779451694839524,0.1673228821284251,-0.09868408279729644,-0.030427802799711252,0.013578000554353683,0.06564974167576819,0.0701173817472336,0.022452470593048002,-0.03599151433052294,-0.023322355643248555,-0.00456286971077284,0.0,0.0,0.0,-0.007494269957796037,0.008067263793044635,0.0369312256347409,0.1898402108733381,0.28172290311140097,0.2554061319926865,0.16594846625587828,0.10827527251335971,0.07374020189808152,0.06773690126502357,0.029605028674467945,0.046075214226049814,0.030386177782669728,-0.0642743128209458,0.07468362365671144,0.20623300715268866,0.1393182317974609,0.16727961750557677,0.1572872263343783,0.11223414379379848,0.11209121465934016,0.022375881111500847,-0.018053060114917682,-0.02248911712639778,-0.0031376014633686428,0.0,0.0,0.0,-8.766680911844206E-5,0.015006242519442286,0.06520580456221006,0.20776496924766003,0.3227104766122063,0.388218147158754,0.1828942665072184,0.19806298335124217,0.21100837279680212,0.09711207565561095,0.06350651211456833,0.1597722119706922,0.08586054654236279,0.003646598888842981,0.20018534083153802,0.25824608058437637,0.2338916025240992,0.1454503808659802,0.10266022867990092,0.09145023361436752,0.08621947573482622,-0.025663526752606237,-0.011575171009949923,-0.017481314308574556,7.267862145212336E-4,0.00334745930729681,0.0,-2.2502922275296954E-4,-0.002514726284861174,0.012749360946517406,0.0206944755540133,0.10030874903346705,0.18232363221692358,0.28069524727658796,0.17813249463807102,0.09495902943955842,0.0925764613099562,0.08667684986795188,0.0904727888025268,0.21226281383397694,0.18923625240501768,0.24169972879579288,0.22304971704266197,0.20018399843574927,0.16078184157277614,0.10010548121857146,-0.012235872762748796,-0.06161815137980348,-0.01805379548987312,-0.01671019323090034,-0.041266698590981615,-0.02580013524814151,0.007593812050693768,0.0028081959169005593,0.0,0.0,-0.005892088842362276,-0.01872792419051182,-0.045184123814031245,-0.027412299959253313,-0.00660173320179758,0.07578965052720048,0.13306716812060584,0.048060598696591475,0.010712969183168632,0.04695393507653848,0.07213684502013544,0.08774808257816152,0.18166149069308515,0.07231626388422105,0.1138820534767565,0.061948562145070274,-0.07225976556944111,-0.06029873270051355,-0.006933196581303933,-0.08821567766854148,-0.0441754241564664,-0.03921674266075028,-2.1433049160341357E-4,-0.0041715313197486,0.0020583043394376745,0.0013278019282192202,0.0,-0.0048103699083277985,-0.011661688876888836,-0.02794405202551356,-0.06599047324044126,-0.05304687313955923,-0.1142134276383249,-0.03811319500175234,-0.0854965863908765,-0.03539243277326171,-0.14975416724254237,-0.11116511046917052,0.039616559548398586,0.0975738472793507,0.1529658785998542,0.023565230300408038,-0.03913475855712166,-0.11844265474634692,-0.1429264001717921,-0.1047402116062418,-0.03731148134383071,-0.06042928014791122,-0.09778042044944991,-0.03966895929202674,0.03253481464298313,0.03090904717454565,0.004815023012598796,0.0,0.0,-0.00975841258820438,-0.012721884441195165,0.004386064051627446,-0.052728024198841414,-0.058605360055299115,-0.041607888182057164,-0.09621279007670608,-0.06062710186030762,-0.09852975749031086,-0.19677017820080261,-0.24949231185134593,-0.18340017325410382,0.025810251131278293,0.00995508052557345,0.013689752055671335,-0.03178853948154899,-0.0017404201492896396,-0.05623655225586368,-0.028689529053852435,0.006739963445907483,0.00620585307998504,-0.028132023058934308,0.003385449403581311,0.0480703201985652,0.02131153405504699,0.007403996796397018,0.0,0.0,-0.0013776508742985418,-0.00555046397198262,0.0016374329126776185,-0.027016699946404987,-0.06244374513982593,-0.04659497267538174,-0.07508423482624664,-0.07031944444300793,-0.11381719856117122,-0.1421103504282555,-0.1385101997458455,-0.055508023708640546,-0.0455797801229433,0.07236395925477225,0.16296823448203843,0.018540387794127526,-0.0228987402890615,0.04682887469293721,-0.00914298709587384,-0.07164295348524279,-0.009573691079852458,0.028707167582477933,0.024306237153838707,0.004823610089822805,0.008391617487611231,0.00185516988873538,0.0,0.0,0.0,-0.011650230963565157,-0.03327285346525603,-0.03626218066060063,-0.0011744197386542156,-0.021795981362642977,-0.04208316907010451,-0.06913126929440876,-0.08603398945855394,-0.06634781031135349,-0.027340060952007392,0.00284667765124766,0.026880103376516973,-0.08652458459361852,0.055193049253325105,0.08589173068430425,0.001522090156848967,0.1063776076660227,-0.005389689806425068,-0.11006435477736295,0.011555179188253557,0.040973952036158924,0.007943732586069275,-0.007914586638676079,-7.57565067574213E-4,-0.0012536316781807224,0.0,0.0,0.0,-0.004766707880296598,-0.00829238834257478,-0.027154313945522618,-0.04640223995580828,-0.050547668607834356,-0.08280234402644293,-0.0886904217630442,-0.08642379493077369,0.021594325488441767,0.04101863341204149,0.021397240237105125,-0.05686445210678138,0.014339655183338993,0.1192096643422458,0.12911872518507708,0.019533851498127842,-0.017016296436392707,-0.026104582968814308,-0.02562226930790817,0.012160526291643716,0.01808026869314925,3.039748812724924E-4,-0.018515596549890496,-0.008032189815941856,-1.266684075560701E-4,0.0,0.0,1.3241070443963403E-4,0.002591613170111045,-0.006074634729749856,-0.015281568517378925,-0.033154814775352044,-0.06810119324581722,-0.12156835144434597,-0.08860984162171948,-0.0558512092777422,-0.05641123815641921,-0.03508554215384891,-0.047333719029479186,-0.06059298414656633,-0.08111528965434363,0.12776977167326797,0.09106447708506214,0.07188621440822435,0.0839524864218618,0.05451117986251529,0.11955180708976093,0.05977477498484157,0.03194138357835,0.018691773093613476,-0.0015214016390075532,-0.0074389421927295975,0.0,0.0,0.0,0.0,0.0,-0.0010790261874140043,-0.0018682092026741956,0.011235195771813849,-0.04581760552148424,-0.07032268774345714,-0.05753876558681016,-0.07553864614987472,-0.07246876248924577,-0.06936939594236909,-0.06864534855964718,-0.05776609466435108,-0.15966696197680527,-0.04290007504795893,-0.0473844889441114,0.10645418169704564,0.05082620081260682,0.058707583106106326,0.05336286517979674,-0.01673825398453316,-0.0018074815585415538,-0.00678486218809486,-0.0039418665785868725,-1.402985813152833E-4,0.0,0.0,0.0,0.0,0.0,-1.1989800256754031E-5,2.7614913401905E-4,-0.0036965576462973417,-0.011623304037367208,-0.044507764081668975,-0.062305591751352855,-0.03526285774455435,-0.16358819983802741,-0.18240181107939182,-0.21301160000418212,-0.2607343370559552,-0.3713348628144422,-0.29304209543332,-0.3428773322752405,-0.3779956154016415,-0.2918357340816125,-0.20134063234699576,-0.07996318904759363,-0.04193550402757349,-0.014867668965658425,-0.004017828304599369,0.0026280339627471954,0.0,0.0,0.0,0.0,0.0,0.0,0.0,9.25371492629308E-5,-0.004918219256863086,-0.01186122729419963,-0.03771427514463135,-0.08972200548140405,-0.12313098900797696,-0.13912806349973975,-0.1437292485316834,-0.1442736392246111,-0.1786227307963401,-0.16137042074078822,-0.15149361047157928,-0.16485578295866757,-0.1737427937921066,-0.13946993288690102,-0.10576146642871062,-0.054207923141577054,-0.0312811033404864,-0.007354450530736759,-0.005293900572585097,-3.5745816107795415E-4,0.0,0.0,0.0,0.0,0.0,0.0,0.0,0.0,0.0,9.172721015657764E-5,7.702129841099476E-5,-0.002105812482899529,-0.004956596925214111,-0.003775384746564851,-0.004253102121681626,-0.0034805721235618772,-0.0024809547516577747,-0.006059826177387807,0.003631205086253701,0.012763776438953163,0.00668366162290329,-0.008244982043487035,-0.02034491478424974,-0.004487086723531634,-1.896081005458739E-4,0.0,0.0,0.0,0.0,0.0,0.0
0.0,0.0,0.0,0.0,0.0,0.0,0.0,0.0,0.0,0.0,0.0,0.0,0.0,0.0,0.0,0.0,0.0,0.0,0.0,0.0,0.0,0.0,0.0,0.0,0.0,0.0,0.0,0.0,0.0,0.0,0.0,0.0,0.0,0.001139651548573101,0.007056412457619867,0.004733999347447995,0.0048437391755543815,0.001686434159389068,-0.002771298435543711,0.006262677911174828,0.0027147391081871544,0.005760909725356758,0.01304481696956975,0.007847986314943283,0.001019428667546209,-4.504508904861039E-4,-5.457714726763337E-4,-0.0015144322334318158,-2.009425749214484E-4,0.0,0.0,0.0,0.0,0.0,0.0,0.0,0.0,0.0,0.0,0.0,0.0,0.0037280540026728122,0.015131324142050416,0.016920813672826697,0.022470070027393173,0.02545937941836902,0.018539284371359745,0.03198498848241619,0.022265774730486167,-0.00832490320115267,-0.004033401628186232,0.007570674738843273,-0.02427033597799413,-0.03730384885672689,-0.017587621442259498,-0.008370681119403664,-0.010941830962694698,-0.03886371770856534,-0.02464437962147378,-0.009244924515081918,-7.062681249039481E-5,0.0,0.0,0.0,0.0,0.0,0.0,0.0,6.544998631640176E-4,3.1964288799065093E-4,0.009470548965128701,0.026559642403896085,0.044395875778803606,0.08043379476050692,0.08009573810415005,0.11376934993608419,0.12877206534229646,0.06406652792616506,-0.02130317344365516,-0.030135931445993788,-0.026117089367339027,-0.0598848239836526,-0.08205551774091213,-0.09742359992122884,-0.13789996802905607,-0.10572144339028255,-0.06907744745034856,-0.035674516099968655,-0.018475967655297992,-0.0021416541296512006,0.0,0.0,0.0,0.0,0.0,-0.002025129665735913,-0.010547766756008955,-0.004264592164204852,0.01301359252125974,0.024639041116321436,0.017577902868498654,0.03705942090653977,-0.045135249684885845,-0.05506827101871029,-0.03976653146048811,-0.03878917904845206,-0.02172219807273666,-0.04568774437232597,-0.016037154696741964,-0.011253361821956192,-0.06819981364566129,0.005257718770139203,0.039604969763510876,0.03318853046201804,0.053962570035549946,0.03193985764001491,-0.004902013030010469,-0.006694846504595854,-0.010571496634891802,0.0,0.0,3.640777548484071E-5,2.7237732208557722E-5,-0.002798837121728592,-0.03496184384377839,-0.05436534952431833,-0.053915079853124936,-0.05050319286121171,0.015025343465264069,0.0427064098557811,-0.08344254368433411,-0.06057993242546755,-0.06884691374167899,-0.18350943466552164,-0.09019662282767087,-0.04510132237716608,-0.05926390985879618,-0.03986226222457576,0.03449768126977518,0.10249695400967287,0.15542081363029459,0.23796123299445443,0.3432204660085033,0.3206066582401323,0.14755979920418275,-0.01057548297295482,-0.015436978999917046,0.0,0.0,0.0,2.2631378449289357E-4,-0.007309973550183206,-0.047560861165478474,-0.08901634852063649,-0.08288097827078024,-0.037370031704904674,-0.05838399391972317,0.04296089061263555,0.033354950712671375,0.07425289808957797,-0.005116588441788291,-0.08331924857552028,-0.04648081892216568,-0.057298129095285505,-0.0032709693468859985,0.04521385775926588,0.030461197596643053,0.08956213269174579,0.15088675961688006,0.23272742018156836,0.40901251427087704,0.45897454763248174,0.3345614912893926,0.07532828733053906,0.025764284351233287,-0.0015777138205576055,0.0,9.501787333873501E-4,0.002916562845118497,-0.00673246231398141,-0.0438523020408125,-0.0358007829065051,-0.014355667607421069,0.006339276558126942,0.04340555831964392,0.0836131392695001,0.014283891780338431,0.0643890910821126,0.05331059493937047,-0.00900229386136903,-0.03860648103725777,-0.09606729996194323,-0.030328871980038766,0.017742291446413504,8.610347376007926E-4,0.019164652213120276,0.06230893766642853,0.015402228994762244,0.17835900422826118,0.4331700537518184,0.5411054776614325,0.26127642309887095,0.04900028745850825,-0.004663642285551764,0.0,0.0037852962009340065,0.01107926399316067,-0.0049760670820540335,-0.007750052040599524,0.009108574766193128,-0.007932546941855533,-0.007410400110714704,0.09067969185886064,0.1208065339620247,0.05080836892884967,0.02374078385386011,-0.013423242759520788,0.015689997240092696,0.028995780078674593,-0.03737401375422051,0.011612182650719604,0.11821949445879044,0.07948523524525661,0.007718227342704755,0.015734840433235926,0.023732142012062727,0.06506684681141792,0.3655132942979297,0.6360132669525433,0.4525904462695526,0.19018921377469375,0.009070532057652389,0.0,0.010911605559374114,0.01473260482946058,-0.0013707540213688252,0.014488533251884046,0.029868987140233547,0.0087180104251203,0.058274707335593375,0.07632575037555439,0.10626304641614669,0.1666727063012888,0.08899892462644049,0.04553866334713315,0.018303962516542784,0.012348512993742124,-0.045660875305278514,-0.07162698400576648,-0.10950088594095438,-0.08277050908322135,-0.08711989158784772,-0.05708542846374903,-0.04259389173203571,-0.008066762526579448,0.2696224667904871,0.5591090010028709,0.502322631788709,0.14748323611053468,0.010143818399457232,0.0,0.006995503949725805,0.005482090181658944,-0.005788006891822135,0.012557219376341223,0.030277887464039626,0.02245962296790047,0.03920267168981753,0.05249402254236983,0.1355002742886772,0.13244136488865071,0.030754010605617322,0.09585644225030093,0.07857403976525126,-0.0078838019247553,-0.035907643931111365,-0.05697305938287764,-0.1210168851647944,-0.15509267448098346,-0.08852050043093808,-0.09059302950048655,-0.12682958316871326,-0.22613040470721837,-0.07414594190252058,0.23008122670729148,0.2971872479028376,0.129659015271429,0.028648397173290922,0.0,0.00847667524244508,0.012108838480803375,-0.004432571469447636,0.02941256617016866,0.06755738304140155,0.0640158997747789,0.06734404578403087,0.04819840806583398,0.09884073416355414,0.03357752956353443,0.13968691487785004,0.10287568044171881,0.15569818808596053,-0.028557315802695955,-0.11352203070342759,-0.18956852592552753,-0.23605087613577463,-0.22212284915110156,-0.28845588053555066,-0.3159283780361869,-0.31971927668025757,-0.4142679525758136,-0.3452455001584355,-0.08802259949510377,0.13959661627284914,0.09113797274100528,-5.004260685642391E-4,0.0,0.006169016383311661,0.009714753896247801,2.2083229263137444E-4,0.0244056547540004,0.12882762899026717,0.10606925381798758,0.16268999961682765,0.1770343715301967,0.1840253868110587,0.22668729681077157,0.2549435104016798,0.23684862957800956,0.11884970876943313,0.09749841295977166,-0.009670273273319102,-0.05285913428967433,-0.11926389777608828,-0.1222670706234736,-0.06827555616618348,-0.20932909952546688,-0.14511262987993553,-0.25301256579350934,-0.31954651373326876,-0.13716147377939716,0.048689872996292044,0.02286439751502614,0.0,0.0,4.162453748460183E-4,2.497440507919974E-4,0.002100393947026317,0.031772423957131875,0.08459292106371076,0.050332152307164715,0.0885195284015525,0.0879796098890272,0.1024857402041743,0.11795464823183412,0.09111520685854589,0.014928441477087282,0.005829221243569083,0.016012723889558482,-0.0020650430834712745,0.031500451506055994,-0.05624043500906911,-0.05827888189395803,0.013910781685990975,-0.09836755774836176,-0.14196573336205734,-0.16997653626948256,-0.21813744570279728,-0.10977674332756424,0.016640021398234915,-0.004798469991374945,0.0,0.0,0.0,-0.0033568074176132546,7.175373955572486E-4,0.047560191503993064,0.01121849220840662,-0.06573194835910794,-0.06705047597923018,0.012247309478241345,0.025178006415782266,0.09723674991649642,0.041677525834602984,0.06801126970455182,0.04415774911188664,-0.028792705132706212,-0.07903597518668273,-0.08022979199114964,-0.06970053500625932,-0.11258284582320048,-0.03530118723749673,0.013563787724963026,-0.13988295802731296,-0.13493788705589987,-0.10810505724988363,0.028432406009747058,0.015834731546298685,-0.00200559661123897,0.0,0.0,0.0,-4.24336199787097E-4,-1.0484860353812383E-4,0.06891200428337024,-0.014162261954145798,-0.10987294754399371,-0.12611466970029545,-0.04135070033735752,0.024833545620025186,0.0038028034849478544,-0.03910665188257493,0.013023861000055944,-0.03767046799725274,0.017043807246860245,-0.016217244485192895,-0.08357552757932418,-0.05289460087798066,0.022211413843649833,-0.06257565910994935,-0.048311554259209605,-0.07030173023037105,-0.09770947285554167,-0.022030015339017037,0.05890988321881843,0.021277250025489317,-1.5102806926986574E-4,7.471744722719859E-4,0.0,-2.5074023744703903E-4,0.0025330749882799242,0.015789969914661008,0.019400527745712506,-0.05341542686026491,-0.15955380980868536,-0.09547413741404845,-0.037092508164438966,0.01884347728555332,-0.046322058776178114,-0.14889291400196525,-0.030102414505831992,0.025630487730426314,0.058375621727093846,-0.08798388964452246,-0.03866561432476948,0.08259138925545513,0.16340447395347613,0.005777317956443913,-0.05970724116252375,-0.047821745862832596,-0.03188367409169168,0.0093627331047123,0.03343496925776792,0.007207885930847222,-2.2286905960841404E-4,-0.0016603505713296454,0.0,0.0,0.0027951888479730022,0.01770440982061508,-0.0042824979693510895,-0.04493337722481525,-0.04448266193821643,-0.1356093943445747,-0.11126659873761001,-0.1061589580692161,-0.062084084590664536,-0.10122592876016964,-0.07188875669885827,-0.013855507458643515,0.02195473833800946,0.003081892538275145,0.015935779417929993,-0.005864635882286706,0.09554926241199671,0.06058176211031077,-0.003491397429998298,-0.05192108852793256,0.0180257061298748,0.0057445808785487286,-0.01264180798199435,-0.011466026752447957,-0.0027773307931073213,-0.0019963207487493253,0.0,0.0034502670064646508,8.344686674014659E-4,0.05245349530732519,0.01769725055710347,-0.001800709222826838,0.16259599645376904,0.06862897164791214,-0.05051506759284227,-0.1492298277637926,-0.21199410721991016,-0.13527903235349506,-0.07242438112443404,0.013929147155982065,0.025713976209320043,0.06786274847025393,0.004360288348128751,0.07537009094308489,0.008016969383714781,0.04095687930571713,0.08616682451557561,0.045684819522756125,0.021739423624209,0.03473004366787805,-0.02224671304392466,-0.01825506778320129,-0.0025650370968499344,0.0,0.0,0.007008845483430704,0.0035406978153708782,0.06817247251258274,0.061191449081916476,0.11896133341304385,0.14582953313074742,0.24985847207474396,0.12941494851467233,0.1448463461315711,0.05469914258501509,0.039578584299317994,0.10672033345281184,0.07266840113901911,0.04868793991057865,0.02619770013341544,0.02580674456605382,-0.01136083578870759,-0.05861791099945374,0.08364237253135166,0.11933616800005586,-0.001903485805176433,0.010951179546771331,0.019147642789243535,4.6610067138878327E-4,-0.006110149695374843,-0.003956276224554815,0.0,0.0,9.874121730203923E-4,0.017136020466285328,0.05761439094136406,0.052333818080443226,0.054334412306554815,0.07560364196376002,0.13701499164664813,0.20635555514981388,0.1336289321689734,0.14774116088135913,0.07826381199791932,0.04498646452588412,0.03530218155418855,-0.025422757442790864,-0.017617089857683576,-0.0368289624690966,-0.04670368063361358,-0.02238135110531229,0.08313880637331421,0.11431378972602704,0.058322992341868156,-0.008194213021302889,0.02561471592434573,0.020784869039489305,-0.004179490155939696,-0.0010980682689150944,0.0,0.0,0.0,0.018842161827693757,0.019370963911967163,-0.0026719116766858028,0.1047077568520781,-0.02759367747259263,0.050971410565304416,0.0767553397906319,0.017732523114266603,0.01598934304881541,-0.044646625585470855,0.021961461603958152,-0.026491648405228007,-0.017012517644099907,-0.03311816038892492,0.08458750484951724,0.012607338683280081,0.03755028652417308,0.11224888004209298,0.11288722582967856,0.08423061615084797,0.04424279624062573,0.03806890564036737,0.022452271506636933,-0.002420787860165376,0.0016076815632623351,0.0,0.0,0.0,0.0084927383616883,0.004396745566154979,-0.01736742630026923,0.01275625911009465,-0.048288772925048185,-0.01870528069131245,0.058394754457011804,0.1058908648987516,0.10658026424177502,0.10316367141194348,0.09521523713762509,0.025167226549850513,0.018832115088371792,0.06260804769863627,0.04367815252064786,0.06804435215007751,0.10683144129023822,0.07678046280558079,0.05943475733320451,0.0462316926966804,0.043187824367565256,0.016264302179591378,0.005997292056298337,-0.005465155280196817,1.609990457156277E-4,0.0,0.0,3.420854855357386E-5,7.447337958822218E-4,-0.015032572974519936,-0.013348910369629395,-0.014697065860438384,-0.07077376414329432,-0.007745560593845189,0.05259449706020668,0.03895838961042704,0.026102909586185743,-0.04491782287500484,0.09604193411382685,0.0656897290952827,0.09387569778292762,0.04032218383216242,0.05078387250089227,0.008305851403522671,0.019246070917146377,0.031496468605631246,0.03021784184354835,0.08006980156584449,0.049074933351970045,0.008222009853226478,3.0070426603231076E-4,-0.00233530969090098,0.0,0.0,0.0,0.0,0.0,-0.006375442798666146,-0.004038762468047178,-0.01941878907059597,-0.020175547958441335,-0.003325633081749759,0.05065987563809567,0.12713104108126727,0.06490981808343305,0.003154811587076038,0.06826603416100853,0.0638903007745113,0.021350713311901862,0.04789747177332546,0.010903401382838622,0.02850997186001369,0.036669690684622516,-0.007158241089097027,5.695674824219553E-4,0.025725154728038855,0.029681644012189298,0.010215593913911507,0.0025998260516121915,-4.504034052540094E-6,0.0,0.0,0.0,0.0,0.0,-7.054657787035013E-5,0.001184217694490253,-0.009146889235789723,-0.0070572139423647545,-0.013665773994473081,0.0452723634319664,0.08826144744950891,0.09882222159717435,0.07971391533722447,0.09262605131397587,0.025364256987020568,-0.052419784159069845,-0.06116788329496779,-0.050149388131817366,-0.016918400336646502,-0.02670963843110118,-0.044650344414973474,-0.018966450549848312,-0.006270349202124601,0.010294678054102483,0.0036279322232924934,-5.571951054499408E-4,0.0,0.0,0.0,0.0,0.0,0.0,0.0,7.446749207028199E-4,-0.005496955819308938,-0.017834965996340657,-0.03546184739110036,-0.0436553771690349,-0.042481864073744165,-0.05047475322610791,-0.020343610060571754,-0.016698516495355545,-0.012058992048332419,-0.005192888638276207,-0.046445371450829935,-0.03936900330277019,-0.028216878320004735,-0.04545169951945121,-0.05454937402020069,-0.04285223857993023,-0.023164980560645372,-0.006692850423976971,5.459195800444909E-4,-2.7109238376303216E-4,0.0,0.0,0.0,0.0,0.0,0.0,0.0,0.0,0.0,-2.464962619295154E-5,-4.6210652295396035E-4,-7.307933522232018E-4,-9.5290203823656E-4,-0.002066646458624624,0.004400762278872455,0.014450524995976492,0.01880165859297464,0.0026196933169011084,-0.004603156032244645,-0.0022414424973776666,-0.0030306290992526087,-0.0012397748106218322,-0.02030172244899076,-0.010013263402462294,-4.331062947400901E-6,0.0,0.0,0.0,0.0,0.0,0.0
